{"generation": 1, "best_player_score": 40.0, "best_enemy_score": 0.0, "last_player_weights": [[[[0.06397528825977407, -0.10380111155367809, -0.027807430864785612, 0.1100599646837011, -0.09270826031883794, 0.009897137956035203, 0.1280246710045194, -0.04580970350518453, -0.06131794775653315, -0.08712762863889432, -0.18415488673856212, -0.14273119940698395, -0.06398535926964342, 0.11621377881559428, 0.16170368628750498, -0.0887763933005033, 0.09830392765448259, 0.005786282697432248, 0.047532813102678345, -0.08490830102617308, -0.0550328284473979, -0.027318527518531296, 0.0682894410143648, 0.06734321880100863, -0.07833024586161368, 0.020872824058893548, 0.015138258158873895, -0.11105168259415155, -0.020130187602699818, 0.03380593551732743, 0.13986831788983464, 0.16150356583760056, -0.062033871382293215, 0.10142033730575727, -0.03949165446730789, 0.21144522252308717, -0.10823664631056118, -0.18037262303900978, -0.04606622000727141, 0.06395711343281284, 0.02090710376328181, -0.11761621030308776, -0.09599573136083607, 0.08294447577228847, 0.08791168138739162, 0.0017863375310499955, -0.008895457203922996, 0.11212351285603046, 0.2147783292749249, -0.0687087176726897, 0.05030343192421582, -0.13974718190383809, -0.14174948696064535, 0.11818886426953051, -0.1012684417843812, -0.09935840709910417, -0.06978233669476622, -0.011983290223655371, 0.08702561714275055, -0.0038621655375736725, 0.02465008367718997, 0.014587461040501369, 0.07743258638650075, -0.028765827825981694, -0.05247521546009812, 0.04734566930037779, 0.039313090701067185, 0.030556022505173322, -0.03175894726799655, 0.026097818143272958, 0.08568099680180447, -0.05013930533334776, 0.12526361734019173, -0.13019975058679834, -0.06102201920948278, 0.0669991698570052, 3.0284510960253333e-05, -0.012399603716173468, -0.19152024257742678, 0.08970895043332529, -0.2866854839716217, 0.06437533645349582, 0.12224834248961101, -0.16139233327126914, 0.09389869677048322, -0.17722769094495108, -0.05503301288222955, -0.20581959813412884, 0.035725165919131795, -0.059394524047539636, -0.040928595444095626, 0.11962176057446404, 0.08933715749591004, 0.13058896973485, -0.03693643787026342, -0.026456863088351164, 0.18908630780259109, 0.08474022249866517, -0.015178413332379218, 0.02233254021343551], [-0.044075253047175765, 0.03243376089931592, 0.07943429730899129, 0.04051087653975539, -0.09206699122786668, 0.01798397447854057, 0.06742805751859515, 0.17649341246612002, -0.10895370289089049, 0.0015512968072164696, -0.0358117908686293, 0.17966336154699347, 0.09755940741087048, 0.07387453703971043, 0.13727321519613528, -0.19574734416372733, -0.059120914307372256, -0.03987611332353352, 0.08053236062988123, 0.0792650795125176, 0.06381396470265877, -0.0023148735223620597, 0.026339368345763576, -0.0908892813985193, -0.16157802422648537, -0.0860858346233667, -0.06948500077969708, -0.00778742228214108, 0.1239957329950888, -0.05564832520775651, -0.06446813726066114, 0.01667314283805412, -0.02192348695238817, -0.12786533554494492, -0.07304479589102514, -0.20203428073971247, -0.033287246519508866, 0.19364288074556735, 0.03678372241838798, -0.02825439739845284, 0.0924124342760724, -0.022698130204043706, 0.03750608922882261, -0.2613447682212242, -0.18598914235341035, -0.1328352264364053, 0.10405397433668853, 0.01656342448988056, 0.12002100608641271, -0.06273494985312984, -0.020522022445879338, 0.19566209940776458, -0.320295242725031, 0.014115920295656679, -0.016474327092751703, 0.016592818170367202, -0.049829183850609644, -0.01208077996677491, -0.03163497702027585, 0.0448267488235426, -0.02125477678841212, 0.220438712230277, 0.08078927443931933, 0.08482396811624049, -0.10539216606076761, 0.03645950117192225, 0.03480945244908964, -0.015728936362643883, 0.09623927898969291, -0.03578453620472046, -0.005992863846225222, -0.10688582217509701, 0.04446733475450457, 0.11515526155721814, -0.23340024499081072, -0.051367840712108995, -0.08482596257709192, 0.06932752708466632, 0.02492934065377854, -0.0034983588159199436, 0.22302461658337222, -0.06097532601771647, 0.01694954108196908, -0.010387031900151646, -0.0506913751395764, -0.10981936065620745, -0.04250902141398157, 0.05347615976486403, -0.05906291592404461, -0.10713641622508559, -0.11689793303928253, -0.0023485112222640563, -0.059363580979674535, -0.00847274207803681, 0.10463288420723918, 0.0028846509732965153, 0.19613793763898693, 0.27608502674873664, -0.0307254319595118, 0.05241583273164792], [-0.009747949663448267, 0.038397543232405476, -0.04683188735021491, 0.022992940253287172, 0.09384344775928294, -0.03285236320662734, 0.03952054432397861, -0.03527301170041063, -0.10268948984664178, -0.04858531694996934, 0.04311887234273817, 0.12866211376542458, -0.18843371454492314, -0.06892320990990884, -0.010955310937810114, 0.2024041531655809, -0.10903539195134611, -0.01853743780201726, 0.06757264956360962, -0.04072367388137491, -0.06672182626003495, -0.09651254915668726, -0.175480711124807, 0.18295923015880755, 0.1208746698087862, 0.08010154957254095, -0.09586467829904972, -0.05236699452349946, 0.045429789457540344, 0.12369805564451673, -0.15312475382060461, 0.0197793334916325, -0.03933490197309649, -0.11553937800530943, 0.07345505545606734, 0.15051742016928088, 0.04996916363784106, 0.019766426609185903, 0.13065983412696644, 0.013569105415198308, 0.00039736153947550576, 0.1844846521861259, 0.0009405268467467653, 0.0795800449045957, -0.039650581853894834, -0.0012077512522535609, 0.01947222583991077, 0.12095376482602536, -0.1343957909783243, 0.20121997429958674, 0.10467881691725396, 0.1705441072305022, 0.16867197327873532, -0.016107934948693874, 0.17251784677112955, 0.09237975239049791, 0.14823338971848038, 0.10728827653038542, -0.052055704470837474, -0.0012932556207807542, 0.09151136632543799, 0.062159786198163716, 0.11619278208293576, -0.009569681826834684, 0.015716556667108732, -0.12092627972436656, -0.07418915168187344, 0.03647642742225705, 0.11574325899856036, 0.0034994809320183767, 0.11128017067815482, -0.04454152348727217, 0.06295142624456065, -0.24685244079692029, 0.04558027028955632, -9.650621657420928e-06, 0.011882873842161428, -0.10360123773516466, 0.17054991740896713, -0.011488350681978367, 0.05650952188050983, -0.07029074649651482, 0.1113740028755192, -0.1172111875302822, -0.07463974170564196, 0.0036355089573309354, 0.08667904568583967, -0.004838934498716651, 0.10283125889013332, -0.07386067481628458, -0.05018857563018608, 0.1054134614707706, 0.06186266476950503, 0.13441383138836502, -0.10607882775202096, -0.1616261274691268, -0.016988062072882833, -0.07726300726888614, 0.026028389285353455, -0.09799616963963817], [-0.18741992412482145, 0.022318863354539423, -0.055618933614043214, -0.12386141098737374, -0.13257593639091544, -0.0005664944363481849, -0.08678990611425079, -0.029820988744147483, 0.2268801920172138, -0.07446877242687348, -0.06163853932917673, -0.03583167594838895, -0.08525187953164251, -0.047753559882356994, -0.04868192976712372, -0.0385752776730777, 0.057425566995108285, 0.15382717826905767, 0.06341856274533668, -0.09170152151042715, -0.07633767742203552, 0.049489654813423906, 0.02467884475551577, 0.07996168016922385, 0.13903164769254547, 0.030020900483452247, 0.16457275573193242, 0.005756584186055071, -0.08726170684080972, 0.19115676446376245, -0.15942349675622186, -0.017012002246011376, 0.10490819660163578, 0.06605866725158203, 0.10961909040179894, -0.004954966308226644, 0.03632730187577965, -0.22720344580909915, 0.1004296068005844, -0.025713437878633717, 0.050237465547080085, 0.12393286786127762, -0.2063296445023151, 0.049836705984968, 0.23657488839696894, -0.10152751629227484, -0.1358358925248087, 0.1224075302864422, 0.11316585319839659, 0.07976088767026727, 0.2213236254645181, -0.00905897887429871, -0.05823781234629849, 0.19559161536602046, -0.0005152617178053908, 0.07366879292805946, -0.027884889266617415, 0.02371973167051594, 0.008456889095141345, 0.025175439527926738, -0.030984681901868285, 0.1443173388277205, -0.24215622737604994, 0.017135093472279747, -0.06565272180836616, 0.1623013560671186, 0.0312737039201214, 0.00016702102528872624, 0.057922328455883756, 0.04340960678178293, 0.006026197719292379, -0.06602660923929873, -0.07771646570640843, 0.010997269186384303, 0.10556930678854491, 0.01468532274857354, 0.025803151001260644, 0.06202748196120979, -0.07736767616989071, -0.09516463818371108, -0.07504530383509762, 0.14369134797856545, -0.026584022327170442, -0.07159953106351379, -0.13448657012046142, -0.004077942558871532, -0.05981604632330924, -0.03871898415544185, 0.1812078405808584, -0.03305651146686562, 0.13303460667448241, 0.10300444182595624, -0.14799249117756577, 0.027381208043443867, -0.03418219284356471, -0.07021344875669323, -0.03818955656250147, -0.0776800286786252, 0.0319219664309436, -0.10133703182705117], [0.04212467268666364, -0.06243104426244131, 0.012448892700494681, -0.05480068878610657, -0.10583714425481455, 0.12165267888235108, -0.09122743887479416, 0.054027101019620244, -0.010627407434119765, 0.13107725958668345, 0.029424509897434573, -0.09838658160572818, 0.08520717307857033, 0.05712515413386082, -0.04107554659061821, 0.027457170065024284, 0.0893313543254753, -0.11654731225453495, 0.03123667753620086, -0.03791467553009248, -0.1636599861830498, 0.04063149249495779, -0.034394325335817474, -0.02671748956457007, 0.11399837015890922, 0.17942905294644315, -0.019972142175913313, -0.18830742989989474, -0.017910978337032122, 0.02724177477937692, 0.27657146200378324, -0.1704165880810695, -0.1965627106263551, 0.09815113329280466, 0.11088056325249379, 0.03808597692164145, -0.12384259312475582, 0.15795746609628414, 0.06660537984672475, 0.07675748611789446, 0.1417709241990554, -0.10958198848682155, -0.059236449599163, -0.0479555533564474, -0.01563074015490156, -0.01674597767605886, -0.06419787669242387, -0.03030763766978591, -0.1136766905483875, -0.0525988921826574, -0.18468360580391918, -0.20415829454477846, 0.009413582486840134, 0.07549713610427526, -0.027330219353964038, 0.012401895461792255, 0.02030904818725898, -0.12167625651921998, 0.03668416343316982, -0.15956626168877697, -0.06080628005035426, -0.08987252789055446, 0.01659620892374054, -0.12033983534200268, -0.029531631694188903, -0.07539554239813964, -0.03772401385051494, 0.057878284747105706, -0.04282615872575034, 0.11919530015570992, -0.06289869976485646, -0.15780363750314855, -0.07055768788771903, 0.050885738315992905, -0.23172173141843844, -0.2163308770253762, -0.03411408412748388, -0.11840013294553392, -0.013180553568095749, -0.022099048761494836, 0.0026254195095692175, 0.05470696448217345, 0.10725636371858349, 0.13198023166767334, 0.006642906168265853, -0.18020720600260673, 0.04274808844282988, -0.05733962006127757, -0.05473827682709475, -0.031077865801489107, -0.08979446873748652, 0.044303951721459615, 0.026130069852668206, -0.06834514948447223, 0.07984801217322804, -0.03620330799054247, 0.0795915907791821, 0.10383041748976816, 0.1163809708376425, 0.03612436297757235], [-0.08470585233496615, 0.08282989632022311, -0.019594721367022436, -0.07219189526566734, 0.08678912917969028, -0.035641197803016014, -0.19131921824015855, 0.06495997734485326, -0.011569038310170025, -0.13731964129763072, 0.1781797290727671, -0.11094142102209635, 0.11351541011795795, -0.13584426071622732, 0.02267162563940501, -0.10926320152307772, -0.10159622604123364, -0.0656497901310138, -0.048043562021981706, 0.008147339459429298, -0.057983845542919125, 0.09696645780069596, 0.12061377099984241, 0.04652269437761289, 0.04013519647599215, 0.07830678875220165, 0.09055267638539725, 0.05581254768242403, -0.1308138952476109, 0.265021192503853, -0.08399995543217505, 0.11386801473505928, 0.11745490313673264, -0.04451061176357243, 0.027857402283774847, 0.03391383082702819, 0.006918953608948869, 0.07034296064490678, -0.022180163021094254, 0.2535324050220653, 0.18117145234098134, -0.11720572004256319, 0.016770564535937584, 0.03136979298290102, -0.16510585798256905, 0.16124405886582457, 0.051982261983659676, -0.05822322695863529, 0.014496855029528292, 0.0729822017484426, -0.1003965206874848, 0.10108347006238182, 0.3335242326670929, 0.15797672644434907, 0.010271347646615601, 0.05661763759385822, 0.03944410273289849, 0.04654123398640596, 0.20808818538343396, -0.06933344725046305, -0.13704817445747752, -0.11288563571605925, 0.13889864517068648, 0.07388902019900627, 0.10507423644139945, 0.232306142645556, 0.13673457986111387, -0.08674087491738668, 0.15599244438364784, -0.11877540854753038, 0.12865370791912886, -0.09587548499722515, 0.025062448835491087, -0.1066396503403031, 0.007229654505993795, -0.019529317453056222, -0.0018701695131835034, -0.033446215764092464, -0.15611644884735387, 0.04391363308907831, 0.1566745558987838, 0.07680221318046908, -0.02158238530574152, -0.21458795192693608, 0.001311366589873149, 0.14830732787084097, -0.1749707491770707, -0.06695783353215591, -0.0754179099575208, -0.057886932141440986, -0.010057299799828754, 0.11751468359399081, 0.036390563394991075, -0.05176023490133316, -0.28164561047010567, 0.09395886513108984, -0.07179221119987429, -0.08794053421078404, 0.11449099812386397, -0.059258618895722606], [0.06784522772565182, -0.02309509154150545, 0.0517084995443916, 0.14534646508305368, 0.02181555186643634, 0.10241841761906277, 0.033338981152867854, -0.2399044007409383, 0.08547292211502178, -0.1131955842401235, -0.024643905285901862, -0.1111801282949505, -0.11110496292633905, -0.006991931243376429, -0.018473401477491005, 0.08962746803467818, 0.11253773824994427, -0.09051760346162785, -0.05650949088663805, 0.08414397635502543, 0.09646396019671011, 0.023110711206035858, 0.05016363583474618, 0.0482114115104986, 0.06517529768958093, 0.031589268686991565, 0.07053348439397138, 0.02693201019510686, 0.10345784291664493, -0.0002131337499196499, 0.09088082481889385, -0.06488304887345615, -0.07539048125819975, -0.03650963806880703, -0.11185042667628947, 0.031859787217833814, -0.026089668734733618, 0.023649584918235735, 0.017516071030383294, -0.10012851597176148, 0.07443916513692171, 0.007251688985158614, 0.004833752072651031, 0.07102933366930764, -0.02239364355158588, 0.10486993926590166, 0.08092365869376589, 0.0742909625041163, 0.08479123235564553, -0.06737254643903803, -0.019126286820507037, 0.08918912469002992, -0.0752270902147905, -0.10868501270380831, 0.15442983378525957, -0.060660120438817515, -0.1913862352079314, 0.04152805927165485, 0.2183669988776468, -0.09190565072127338, -0.11540942102674141, 0.16395385946790447, -0.03695260556151628, 0.05551722079338315, -0.17299861860512833, 0.14979688698480514, 0.08533008539390305, 0.03392249133512505, -0.02544502011622443, 0.02956499329154687, -0.0917118337306623, 0.02658074506210377, -0.14998115611350177, -0.11307081940057287, -0.01415076241625184, 0.08411774229878279, 0.06505300644461236, -0.23532171403129196, 0.02329988731422624, -0.06483767948352447, -0.029927328421961625, 0.13828387139159196, 0.04103095574433908, 0.051766632646356975, 0.07459738057295509, -0.26425310032994104, 0.0641636982608579, 0.06426065828136622, 0.11409919182603526, -0.03269321067459271, 0.07505702833944533, -0.2486714799239906, -0.030592705502615353, -0.11065787384692936, 0.07555010295436149, -0.1696610475231481, -0.15897553124219926, -0.007040114058263096, 0.10503993859908885, 0.03285583535262642], [0.03919327494862765, 0.1038046708795038, 0.14988551496303068, -0.22746052296997255, 0.02819019226038017, 0.13717728065858747, 0.03832007474625988, 0.08953261819451036, -0.013241575600795912, -0.16363895909019566, 0.053469665626885834, 0.17306634184559755, -0.03406455545333584, -0.03780450463697057, -0.040983587840668495, -0.06766180281077487, -0.10314092180103795, -0.059666460718810446, -0.129928014270948, -0.05503605995235442, 0.05380470685322546, 0.12507682840743578, -0.050659069215492236, 0.13530228968380362, 0.10125971497745319, 0.04057985568525529, -0.04759732154460031, 0.02474753040384129, 0.09980773150693907, 0.07059178499646651, 0.04784641915639186, -0.030737913682093748, 0.1265472511581507, 0.06774469010573603, 0.01995693669155216, -0.007695223117171696, -0.03569019301621184, 0.21255453710079714, -0.11909369676629351, 0.07239435301929852, -0.0010780538955621401, 0.09578367355140718, 0.031680235992619134, 0.01677641794827817, -0.13707987901657234, -0.0372912034056558, 0.014418352070333998, 0.0839020938081606, 0.12244757614410398, -0.0037801494795871964, 0.016474544011842035, -0.13071724490221182, -0.1445208362466168, -0.09613093887319799, 0.08375089708550862, 0.06611216633565498, -0.08706674726440299, -0.22464552265940912, 0.013031497485455715, 0.06591900413862542, -0.18090044640653763, 0.13998368080468723, -0.004033188798578346, -0.025051995016062104, 0.06019083072253546, -0.010587810849195392, 0.030625675065686454, 0.2508302416285119, -0.024222555179761438, 0.10974475739831734, -0.21058064496357873, -0.12387041555010347, -0.07126169556866124, 0.034538050121552685, 0.13563570436488756, -0.08877238232043624, -0.012741707885627635, -0.04944002610883037, 0.15801464363241605, -0.20148826515115711, -0.006083997432499789, 0.014957089573884683, 0.025266807713134005, 0.1348770520755526, 0.009308541624319148, -0.20699312951613325, -0.06588414634668212, -0.01950550208316379, 0.015012833891620114, -0.21983773482932253, 0.06965781052557855, -0.051064292961374914, -0.05678695371888583, 0.06249437115788458, -0.04077420540404214, -0.0296632690119044, -0.024420160185460348, -0.14519936536390451, -0.10986229286923531, -0.16165893430557554], [0.08156955590479373, -0.04633364857372913, -0.11141007287378193, -0.10918166858422651, 0.24174777353087215, -0.019621442798802447, -0.04916674988495777, -0.04654539288955942, 0.060120403246235646, -0.04356222628790336, 0.13323458213059122, 0.026512148101434336, 0.018725861175966498, 0.006963207319596514, -0.13450887955879026, 0.20227104124284115, -0.05559585276054179, 0.12177152694790945, -0.04666023980756967, 0.1449485570324349, 0.1167474463101778, -0.06931222481602738, -0.11238214501904667, -0.009619796915365885, -0.07177721352576108, 0.06879012773767657, -0.025750169348421188, -0.18832428645376292, -0.13012110332528337, -0.026348897682263346, -0.08440669446365669, 0.13219511668508035, -0.07990247635653125, 0.004623640522314987, -0.04385486731642674, 0.07503252332892169, 0.26566479243471874, -0.04380127355143443, -0.11049457340440155, -0.10625751193322618, -0.15209568043939928, 0.025999779000523516, 0.15091790910298436, 0.021288735568396874, -0.06696102826981863, -0.0835240528723944, -0.004536445685280339, 0.059917572199492466, -0.02766646543109938, -0.011858655329117982, -0.12472096470297156, 0.06924522637350201, -0.02494863403544565, -0.08117757135166073, 0.00230839764376399, 0.015505045945492521, 0.018456969497131017, 0.02847949534025528, 0.026667069291639783, -0.1967710769408804, -0.0027909488259466562, 0.22883259096426556, 0.014866270005918246, -0.0870118903974695, 0.05565533987525426, -0.038359345801649576, 0.08905847970214326, 0.18141378149977297, 0.00563499387011494, -0.0014074845549484046, -0.2246634192182481, -0.1319144158301238, -0.0882092276759477, 0.14246293745642458, 0.2738384776617938, -0.1781459297084509, -0.027031488939556855, -0.15051662224472098, -0.002566000750047766, -0.21384652004341764, 0.03451797715450811, -0.060707716938171896, -0.15003322021050597, -0.03258421996112495, -0.12649410456145946, 0.0074038479699952645, 0.06814132695153571, 0.08075183876038558, -0.04651221977147138, 0.006387037025381926, -0.13511276792579804, -0.022870607591263154, 0.1357748706824324, -0.0360846948608148, -0.2317140037668109, 0.06526920564129075, -0.04846760678741975, -0.05907916456552176, 0.14641533006084936, 0.04047865607076595], [-0.2615546659278258, -0.0022744427301682533, 0.20754241453139502, -0.003361513547128752, -0.10081613749827618, 0.09796715025854406, 0.13545783969344638, -0.08216290769759729, 0.05858775425136066, 0.06497108372576309, -0.08468532870969726, -0.05291546543190702, -0.12192649074547846, -0.007539077557474443, 0.015853448447011836, -0.009449372018149722, -0.11651322722963192, -0.09974027981581957, -0.1504308604660671, 0.07080586260099624, 0.0033072109763559463, 0.1143967217526155, -0.10767218752221691, 0.001635708476892677, 0.1238599271806667, 0.1952360173718093, -0.02071192995123307, -0.05479854491255144, -0.054906196846263126, 0.0221596270910901, -0.008279489568088686, -0.08188067422415828, 0.06336715633385719, 0.009801737101846036, 0.14751572992129608, 0.10056312594120079, 0.03838763500163814, 0.04246858940766652, 0.05026982410996788, 0.028317046195375967, 0.1971416255328371, -0.023986996755228182, 0.05361453878700393, -0.06128522527912858, -0.11478293745453337, -0.14479906602965764, 0.011549960585072287, -0.08767615282818036, 0.05033956748678542, 0.0465147898480938, 0.0670554082680289, -0.04613812736126231, 0.0020465667360999684, 0.07823283761011271, 0.10856536244752919, 0.09814449889090007, -0.16718625266771275, -0.05973189805572196, -0.02421211914166358, 0.09579335192168381, 0.033752731324074234, -0.19948805603840186, 0.019719409144243884, 0.04108790211627915, -0.019279489006088692, -0.03361955308415648, 0.17116081155183133, -0.05194277604805343, 0.14471436932397763, 0.045107167885689, -0.09843573648285185, 0.12119833704136729, -0.24171113912816972, -0.11579816438865967, 0.0022961374680970483, 0.11921613707161101, 0.0366581430551453, -0.1872914924633455, 0.03952846961809748, 0.05021124504586977, -0.09945654695519905, -0.0006766507831093582, -0.05346001079831003, 0.020924668878074884, -0.003944893939316202, -0.039199770348991254, -0.06773419749245352, 0.09157535569723528, 0.03814329844800187, 0.21940653262699714, 0.12028976834808996, 0.16152103593296965, 0.0331554861064932, 0.1446493817709809, 0.0917772178104696, -0.019658183158946983, 0.07265079972018414, -0.04708898357874591, 0.14313698646960102, -0.03637011091228914], [0.05938143606047187, 0.013614181695421097, 0.1490450091040568, -0.029503877919146326, 0.07522604010728601, 0.16081400061738907, 0.06408587707031049, -0.1018679886712314, -0.05721256171077106, -0.08189102935048, -0.12982509158517908, 0.1916268316880051, 0.2019612363772717, 0.028928548524890782, 0.01637257821459907, 0.04185180914535699, -0.08467915863019067, 0.07936331221689437, 0.09163959548735784, 0.025958010873297268, 0.05107626577942179, 0.014576359785167853, -0.06777428956167147, -0.003642930912767128, -0.06391351756289942, -0.022534850521917144, 0.08046819902216076, 0.10641191740623657, 0.07809611375607067, 0.03339426978367837, -0.11099378145462285, -0.1986239364256543, -0.08123104411205584, -0.012265519764223874, 0.04105487937545533, -0.06855906328481301, 0.04858543201704837, 0.003295518240199482, 0.08603315571399847, 0.09976053070040433, 0.056311870506513255, 0.08065666433014047, 0.10701257043554598, -0.08931275407245641, -0.08831570034470308, -0.027904677604522234, 0.0890639304821251, -0.10101882945886885, -0.04094511118620402, 0.05071375449167107, 0.24470627042202994, 0.025217450651691998, 0.020492380803616688, 0.038580175141633775, -0.04022238857625974, 0.0021588601280683717, -0.16346376230594983, 0.10697189869477992, -0.06641763725055021, 0.020404517393514034, -0.05599350501748288, -0.002588652814085327, 0.017111828525559838, 0.01932946936359453, 0.03548978251053695, 0.10230027537107388, -0.21856566572840264, 0.11018708367452806, -0.07520244691338432, 0.08917105697858559, -0.03905258929631804, -0.095818124877258, 0.1879801276907083, 0.16496714004859347, -0.10993805810364654, 0.04528490870980465, -0.04534375996182763, -0.11069752234963828, 0.05474056953101916, 0.08861016318594461, -0.18739551686148126, 0.0037881854973015657, -0.0912985191919673, -0.0025246697277665708, -0.05346153444425832, 0.06604661157821878, 0.04033556596086275, -0.022735976485012924, 0.061419291763738615, 0.0758114811304692, -0.09810817658637, -0.05875390077509303, -0.1035662348782489, 0.025207563233076498, -0.0994910449731002, -0.03396008874604578, -0.15767781083158705, -0.07963939795801622, -0.011697641298420571, 0.14997679527452265], [-0.07203275740515673, 0.08820082889756892, 0.21502067087810328, -0.11538245659480079, 0.056278497824852974, -0.0964956702558082, 0.05555864437450323, -0.013792377209839522, -0.07169674896807414, -0.15027340532364797, 0.131349195545262, -0.13421619795890521, 0.09780288041808598, -0.09124967577796173, -0.013552057552152217, 0.06552614184409658, -0.03752944619364582, -0.12954119384834029, -0.06203902529405503, -0.05468157686915803, -0.25783528190548216, 0.028854479001841807, -0.07988120909846144, 0.03507996280386192, -0.05124216122571828, -0.08471067894292639, 0.1310356862253466, -0.000854429975471158, -0.04031543426696421, 0.08851923633183106, 0.11147795755219603, -0.29928581000467386, 0.03265199946378585, 0.013940368753078108, 0.019941068377243187, 0.029333613549241702, 0.042652210892073245, 0.1297269919878543, -0.07888020050164346, 0.04001836366809294, 0.10472379991632019, 0.09117358829798401, -0.09178947982510395, 0.030362454219620562, -0.14723236194089626, -0.16586925643563, -0.11083592696979319, -0.03978546084685852, -0.044448477006557685, -0.16097956435749333, -0.018141389756345383, -0.2237652977265682, 0.03354591290640863, -0.04106244935156005, -0.10920041696882994, -0.047343088520488526, -0.0420566790883457, -0.000459347606409405, 0.012753130154055088, -0.024297593128272205, -0.07946338580709754, 0.02777050089078368, 0.18054200741865506, 0.017787064445147077, -0.11984674492788515, 0.06648015307759388, -0.031068308449408052, -0.09604150349365959, -0.0037054154233081868, -0.06453951425737682, 0.023288988950744716, -0.05298274400152896, 0.07314854631277919, 0.11405831947850249, -0.03834182245073556, -0.07931110685222803, 0.11421824047174389, 0.11149654568559818, -0.08827705742936076, -0.10790292804255724, 0.0317142971824676, -0.056596651914793565, 0.044453886003713854, 0.012099778716183278, 0.19482471205746718, -0.14039233015990035, 0.269112765039492, 0.11076275686745357, -0.01181616391573754, -0.07729585003383153, 0.05756319245624319, 0.05540158873576983, 0.05533235579132059, 0.07691336632722762, 0.1535444478721091, -0.06776775089561858, -0.01945898752964341, -0.031714055639381136, -0.07797334246937777, -0.053177998853661916], [0.11204946742215803, 0.03225842254636429, 0.02457755170168482, -0.10711446045894955, -0.07552226802100323, 0.05412942507131385, -0.05776942334918031, 0.23385872565479826, 0.11843189639737613, 0.04352213056175854, 0.007697985956962904, -0.0642046011681001, 0.11878928285400213, 0.08014633733543601, 0.12674691261163193, 0.04450447053938686, -0.16151048520187283, -0.009768967879933943, -0.059567560606230655, -0.07857624951795406, 0.19907724803501978, 0.17974985561777415, -0.062194437791227276, -0.09612631409334862, -0.02876067497755183, 0.0025380435596626086, 0.005675381517715881, -0.01968577723983189, 0.10252866084146045, -0.23296469648070653, 0.19036710887731179, 0.03279004108821036, 0.030952673937969407, -0.13070443917108468, 0.0020192110787620034, 0.03429617256840312, 0.0337681768988236, 0.03884295066983421, -0.01093230112148301, -0.06460639784248368, -0.031933198364379654, -0.18139876395571525, -0.030059045891264936, 0.05485447655439518, 0.048624314376616885, -0.13613881146549753, 0.036278070750471514, 0.06618166423446017, -0.001094312651894693, 0.060478958672116105, -0.008081674590218522, 0.053994811372989795, -0.05568411347809718, -0.08529140820820838, -0.14718666559133395, 0.18674323410161772, -0.13822652746344952, -0.02722179957207152, -0.007675068015650559, 0.1132209744436533, -0.13173333937713663, 0.04136730504282926, 0.02102932120872221, 0.08141636448207623, 0.08664528454235641, -0.052910798567928734, 0.01731634713576332, -0.041670243513759475, -0.019243941047800143, 0.19208853294090358, 0.0832797195663441, 0.10503565791989602, 0.008923584375124465, 0.026609206883540706, 0.14621417144200796, 0.019325358518284985, 0.06743958893178661, -0.05907588150694729, 0.11836269454502496, 0.15791221408085146, 0.038592041713078507, -0.10154935878017385, -0.06830646460880883, 0.11689079737601134, 0.11158529642037761, -0.039630627365380054, -0.01888230902942954, 0.15202967592535305, 0.06816095598222599, -0.07051916064732706, 0.008301996532236703, -0.12721090180067415, 0.019031662331644113, -0.05603191664452398, 0.1130484727691174, -0.1624826405060595, 0.12730869308917458, 0.028559020517306993, 0.13215307477439464, 0.21374784627122145], [0.18731184407239693, 0.15488062151545762, -0.05873328380840781, 0.09729587564610005, -0.05380615370204061, -0.18368467832514535, -0.010868095058758988, 0.009230181383915048, 0.03410865987172237, 0.014590624352985554, -0.08165577018957026, 0.1577257992323015, 0.10240607762358436, 0.017223900227684507, -0.04927882115235849, -0.020830120679715937, -0.0480734496142749, -0.04141122514472156, 0.046927622011093156, -0.3123221637369376, 0.13206452462694435, 0.1698832074084961, 0.07699777060116389, -0.042740741756624664, -0.05747054009414391, -0.019777026406135954, 0.08587971444672099, 0.019787540901381125, 0.09131217803223023, -0.04869395460590676, -0.04282737697244183, 0.045767415603056784, 0.10268959053887904, -0.23829392014605077, 0.0885784728999845, 0.15025564255563267, 0.06393002672994448, 0.1343754811742151, -0.08447596832506048, -0.20510835661662563, 0.13444581889972393, -0.09058855916332109, -0.03416887250780177, -0.05100837183888421, 0.1682402179321988, -0.11274902666637546, -0.11831772132687426, 0.01277677880086377, 0.16564827998842163, -0.055527743935327736, 0.02844846187836845, -0.019953487283915876, -0.04515966293211769, 0.11338589213719874, 0.008074775176670356, 0.01348233077457686, -0.024253393798597055, -0.06056329196200046, 0.1032600013451152, -0.0674669016927673, -0.03599011004560669, -0.02551176496153912, -0.0010718391096569827, 0.07445013020594408, -0.061557965132428866, 0.17917804831096593, 0.08205867117318076, -0.17700138528691703, -0.018101679415116763, -0.006691964810419008, 0.10261604034160131, 0.2562502975764593, -0.08586275654912584, -0.1476458689313703, 0.08601375257184811, -0.06702017938199106, -0.04201977303683263, 0.08067919613928455, -0.04334014918360905, -0.10715000283628354, -0.16316180060682123, -0.09329450326283908, -0.04203814712671567, -0.0307249467010514, 0.06513583664952656, 0.0955545836434834, -0.10776486153571097, 0.07781341179278094, -0.016320033179840696, 0.021535936074743873, 0.04340288966397407, 0.05640263161417485, -0.07943641638131066, 0.006166501976558377, 0.0040087677359103525, -0.08932164588279555, 0.09891119313683983, 0.15115523897581018, 0.22785003762913783, 0.029406644147806995], [-0.06725352145312408, -0.007592242897110132, 0.018366556982745523, -0.0017459206825185692, 0.15868904606525328, -0.04654721288732776, -0.2582030142758382, -0.02726171101657368, 0.039689654755212384, 0.24574152033929575, 0.028253669422529284, 0.012820224064233747, 0.04025723579951508, 0.22309945301993828, -0.18762408783486548, -0.08406141766938341, -0.03214090764342087, -0.14527612494404638, -0.10647742102588553, -0.07386794496524683, 0.11046092780131192, -0.06014962705238491, 0.07303366638107756, -0.024432124616308934, -0.19807883999894735, -0.11726393312717323, 0.05452208735579453, -0.02959018258813977, -0.04013259990372505, -0.05519479343207748, 0.014678072439784424, 0.020549658396043044, 0.03565217943044803, 0.0878520337669943, -0.13920591743469693, -0.06242926130398529, -0.16264397853714888, -0.026281263910205157, -0.06517105935934446, 0.0005311311456191007, 0.04258745870225937, 0.12091485403138978, 0.07030952498997997, 0.17477703291867888, 0.05113416584998316, 0.1314890389987252, 0.0576908178092779, 0.0869908106009738, 0.17785557196874688, -0.22500430283963607, -0.07251668081151995, -0.07275248465919441, 0.06291882121504491, 0.05264860274969914, -0.05564726461558953, -0.012161017338145619, -0.023078389823173957, -0.12910038003848615, 0.040358488177547336, -0.01264008828804905, 0.040788727626041126, 0.06180622154626847, -0.1556865468795715, -0.07118907678771981, -0.0017692189687602824, 0.025379526792811163, -0.0357114147093217, -0.08772640992299219, -0.024486179507899487, 0.033891060689809856, -0.01805351296483721, -0.015129549408959593, 0.0224896022104135, -0.0989425288897333, 0.08246782161025956, -0.040092393657125004, 0.1356744438053773, -0.02396189099554334, -0.0028100356954642355, 0.14911383059216696, -0.040493484943855684, -0.14092572529156275, 0.10352934917773625, 0.07789016938276679, 0.039690690360459, 0.05129271802997414, 0.052733445347978816, -0.0463087718488348, -0.06729083248207847, -0.11594899559717509, 0.17915420315158626, 0.060279081732150686, -0.1066569262900487, -0.0693230266531249, 0.03152607617985289, -0.22674167213457952, -0.014477452246682046, -0.06687713518933465, -0.009146377890231079, -0.06303124312647773], [-0.09152591466829023, 0.11979964904436623, 0.11098090989396102, -0.16184013290223973, 0.12132700798476961, 0.01939603675089731, -0.06250983975285783, -0.00879943817982545, 0.04922116060111443, -0.09617819989076999, -0.0406691997113704, 0.016118847570147844, -0.11296690463535226, -0.08439413196215953, -0.2097335039911974, 0.12127152097185344, 0.0320525305904466, -0.06649071519753665, 0.08458134300324828, -0.14354955144948314, -0.0992014056964044, 0.03390070689681374, 0.0704532502945453, 0.00351839504775276, -0.003322318645789654, -0.09954675547676893, -0.13571933521353194, 0.06906978190729157, 0.1567740819405169, -0.11513818243653458, -0.08608847259363223, -0.07164898078245475, -0.033644501660139436, -0.10630581607664978, 0.007162378471239287, 0.11013042724719446, 0.04924057112528629, -0.05301939238735368, -0.10032537340233659, -0.07334144824762456, -0.0002365343525623715, -0.011217074512237954, 0.0029706315740970807, -0.10310843326855945, -0.07151393875706423, 0.07249633770507524, 0.13375824788470134, 0.02540575902484257, 0.10833998775348755, -0.16880101713655546, 0.08171113403537561, -0.11092500586181767, 0.08174167796582206, 0.12294448646098775, -0.011311332362119087, 0.04122731300659539, -0.025565785849179058, 0.031913406141652376, -0.07324259644868122, 0.051995339968716414, 0.08828549335978851, 0.05279904801549621, -0.16101059538216944, 0.01720718977629611, -0.1258695554093892, 0.00988009451302993, 0.005972112370087761, -0.01877571906123521, -0.06268625773712928, 0.0038701451594623237, 0.21204733467643955, 0.17451179021158836, 0.19005656076225702, 0.04761387087308021, 0.09810942138279136, -0.05924824843134292, 0.13949866866985508, 0.019486154909404384, -0.06152440899113918, -0.045130303320683705, 0.06540455873827465, -0.03935634155088954, -0.08551597675155802, 0.08232832748123657, -0.0016442359005790737, -0.06290679395128065, 0.1086800661242011, -0.012218180802104864, -0.12873978707898845, 0.056062051559653076, -0.06611660583250477, 0.16397348442550097, 0.01830616688392208, -0.0042268649964399335, -0.09620381780421487, 0.06711065098203017, 0.06208573924264073, -0.04989804056064917, 0.1547392393152389, -0.08585956698001389], [-0.10107805530924058, 0.08447286440097335, 0.008652223356851058, 0.030286651540400545, 0.03602591404851932, 0.09997790534845273, 0.12544022699649268, 0.048107278920432185, 0.1172925075728575, 0.05341119497282868, -0.008193567716471952, 0.10092195590916885, 0.024179092107675524, -0.12608332840716877, 0.14703205260980015, 0.05541725318338895, 0.06479255810821101, -0.08245623769050704, 0.16918426495728936, 0.025146416177475563, -0.18368224303746444, -0.07388591077719968, 0.12073821468939393, 0.16773938380343015, -0.026307311864779765, 0.0983920257079452, 0.03964694800888655, -0.07959795537805187, 0.021735378206488975, -0.13787529810253144, -0.01834194409852564, 0.01046158544895616, -0.13926656086319794, 0.12284052641275865, -0.19871699904971793, -0.03637704113119595, -0.010409870803573381, -0.018855692774670817, 0.022422797453771064, 0.19766385552884416, -0.07284732036400753, 0.08588413786384784, 0.041458229898486465, 0.07025452244389005, 0.04423448035430305, 0.004969612741342611, 0.12063819998093245, -0.09965601870197921, 0.052618176458582924, -0.06479634028567821, 0.009933873815047727, -0.15036468700820743, 0.03618767468569139, -0.020433385039524223, 0.09903994990757597, -0.25220324640789377, 0.019407457689706982, -0.09000719196728718, 0.022111638857269425, -0.012961204938246535, -0.060421640327464846, 0.07464617819297399, -0.19879613163943963, 0.0447945749100229, 0.20058937899356344, -0.00592132503203826, -0.13328958227711185, -0.10895264634042892, 0.05804228853535033, -0.15030783284051222, -0.18330191498183532, -0.07296759602815832, 0.018359437647730428, -0.0811244381707606, -0.008854364801652994, -0.1375227723870902, -0.1287186229844394, 0.04882050898602116, 0.011861824063420585, -0.24409366374285876, 0.14841223868311465, 0.04362092220724123, 0.0022235649070265814, -0.036394624874147706, 0.07839715602338049, -0.032621764828786336, -0.014737214452945725, 0.026232413723596682, -0.11321913176183798, -0.05010157738196113, 0.06540424179907454, -0.04392273165184754, 0.01262478947114653, 0.07299171000608994, -0.03826140263509402, 0.0881499649284568, 0.00046269644552403906, 0.024254839356068335, -3.1637795751539215e-05, -0.052849394211104794], [-0.07534345997679968, -0.018167786954417463, 0.04508892291771842, -0.026162108046909095, 0.12048293945626574, -0.012526590425863111, 0.028202188640764708, -0.10946505234524949, 0.06489448284479003, 0.0324641202127349, 0.07408580573239468, 0.06232604154056977, -0.09716852514995498, 0.013095647968621872, 0.03707531281872862, 0.08100418338863033, 0.24391247063646895, 0.03635726665374183, -0.024348958155800317, 0.0027102295662791783, 0.010257300227713706, -0.03168237379609223, -0.1463086241731063, 0.09945708187815858, 0.026976243700593247, 0.002730822872042767, 0.005950225805279883, 0.19539401765362668, -0.1017925532742377, -0.2193101516058373, -0.17395529638058543, -0.16553805439057723, 0.050020424101668896, 0.03740670603346417, 0.23163565607709283, -0.047434523334428505, -0.04806282855582345, -0.0024083149220687347, 0.0073456575165149465, -0.08599577514841777, -0.12391163785750024, -0.1383849202365167, 0.02728348303095926, -0.09749186115663398, -0.11650735844863483, -0.04682693892406291, 0.23123572373036294, 0.14147619518208246, 0.008871685698668629, 0.1084588779276954, -0.07540261784502678, -0.03970886349280056, 0.14356818979802052, -0.10169556310035788, 0.031130574186043865, -0.00883119365423037, 0.10312685223704934, -0.05434425581574395, 0.020173876937726525, -0.07007537721731427, 0.03912937651930209, 0.12521945777583784, 0.0370412371585301, -0.06551339970408619, 0.07731074024103696, -0.06148886588416968, -0.029467640885085373, -0.11247445238433196, -0.0061691332449315016, 0.03513149833305503, 0.09870254624169467, 0.1911931765130583, 0.20523435287430655, 0.0318408271091047, 0.01590370359703648, 0.050413824862579774, -0.09404868838887302, 0.06516812422308764, -0.12145305670566475, -0.06449450743845968, 0.06288784305998861, 0.022040846873983964, -0.20661307743153984, -0.020807075461136994, -0.10564500291646128, -0.024644362981385434, 0.22385768888981028, -0.07370066811599929, 0.12388096346455205, 0.0013011279441619286, 0.10261971413086485, -0.05014156243202203, 0.03546022619047142, -0.07572537229451552, 0.07226320834629224, -0.1471143062239468, -0.030554496415767296, 0.0007234326886355152, -0.10467304040990084, -0.019242955433056846], [-0.06565351475783245, 0.013875729752768549, 0.0641109310981753, 0.043354106997375366, 0.10026011073661303, 0.0020475413933004356, 0.14798030138297333, -0.035818030837307745, -0.009774055856299466, 0.10135598992320459, 0.06477788264665173, -0.025122089518984005, 0.1471578660451782, -0.10742976324649914, -0.12394248172594045, 0.11766345938805088, 0.024732448087422504, -0.060211686457351137, 0.048464630954988513, -0.3226984355825789, -0.11022418050523755, 0.02898925195655821, -0.0990787227400715, 0.15819999066921764, 0.021688341243454784, 0.05534108729654387, 0.04872800178549979, -0.03466016911870312, -0.013669511546527655, 0.003858009419059535, 0.02370146312157756, -0.11734342920875394, -0.03461527044568773, 0.2969755071785424, 0.14614771351733263, 0.008619834553081565, 0.05123743394110963, 0.060472421382382506, -0.192758676621647, 0.10324509217301399, -0.056071910660225634, 0.0781619355876517, 0.012535023809166296, -0.0349723707071261, 0.09507027866171908, -0.16500548031986273, -0.005599799832279826, 0.22877835940440808, -0.13002077492038033, -0.060500949542788396, 0.036926807433055875, 0.09184061310052716, -0.09693555681865418, -0.16065802455451764, 0.1478642377215317, -0.005940002115422862, -0.0003317323334620281, -0.23936617264835927, -0.10960815587703919, -0.027189798376659642, 0.07175582859212241, 0.1637652645892035, -0.06734004887661527, 0.1366077252363334, -0.16664727692424677, 0.22111589142094157, -0.1703187142238124, -0.08495323895262347, 0.014743751092629388, 0.023108867052622745, 0.0733542166539545, 0.09444005597029947, 0.12083359557699538, -0.1656123024816002, -0.02905626455521918, 0.011869561365635058, -0.08133939079619329, 0.09276588012165073, 0.2380288727136931, 0.02329692446286449, 0.0172810423041778, -0.1187441498993144, 0.0217592538653599, -0.11305525758224122, -0.009185425379954962, -0.24217588315534494, -0.057559268556281976, -0.16820815528359992, -0.04899724733766538, -0.21396334391283342, 0.029031667802731417, 0.014180245693787834, 0.015165943256673742, -0.0619206770189796, -0.07265359843312018, 0.030825552611244745, -0.04810916533419175, -0.0813419315393713, 0.009387338649848588, -0.15286403172298102], [-0.17961387834407605, 0.12640935345561127, -0.04175622088136552, 0.17115545184502984, -0.058283624524691914, 0.11369879190233417, 0.17305015632167237, 0.10044538037366915, -0.2180181161890158, 0.1702567715152562, -0.004751909954752842, -0.016590041735813403, 0.14039944084280867, 0.0905073968870325, -0.009762268280039834, 0.09861770900319139, 0.03509030285145074, -0.057891572227214576, 0.05328934159390667, 0.06237131557270105, -0.10716947393189546, 0.052899060437741986, 0.1279017902310639, -0.057930972753439385, -0.01377387631405727, 0.10037571329796574, 0.09863400723892606, -0.009906570307996633, -0.011287110920406278, -0.1464927105976229, -0.08805633402774354, 0.03043472326857404, -0.004626261237362344, -0.031650898274856086, 0.05995503938048481, -0.011722948763714408, 0.12675573982726102, 0.02497741501874259, 0.08218597326011058, -0.056792310404748816, 0.04421639156818959, 0.0006447663546153724, -0.05916822879364865, 0.014507140599465604, 0.08780020618805934, -0.18395944981672985, -0.11539781488602703, 0.08518788724335913, -0.1017778815199869, 0.015353878938651292, -0.21042507211997444, 0.11867650825170373, 0.14515985829935485, -0.020320440813783074, -0.09579713445675989, -0.03574652133161, 0.0346846526366814, 0.04605570211639489, 0.025297005715503886, -0.07979728232016603, 0.05124372450401715, 0.13923584343791418, -0.17018626140696022, -0.0021638136596126337, 0.06360280629517179, -0.020115405932133686, -0.19517731010767828, -0.16553803208158224, -6.329972694091293e-05, 0.05475875187348942, 0.08361635228373855, -0.062330226569200765, -0.08508341267860486, 0.02960110211307479, 0.02247319293350496, -0.036970923509475916, 0.1449396388608406, -0.005578648474870385, -0.1699556206218449, 0.07651139570493383, -0.051854415269439194, -0.07793104721363438, -0.0890969932121923, 0.14265042062493014, 0.15106153168288505, -0.01205541594111325, -0.20458521177075145, 0.10521879593345317, 0.10415745273871056, -0.06811917692230847, -0.03267238797951459, -0.022904317973428828, -0.13142638919133617, 0.051702051148137466, -0.11403705134479208, -0.09076999271709317, 0.11404577641829278, -0.0038034288350232283, -0.11319240162862246, -0.0929234000041868], [-0.13729950604164787, -0.02121737104139272, 0.0058382099839327725, 0.21382196192954184, 0.05131740987363618, 0.05039010835444333, -0.11494278657037743, -0.09747925056756973, -0.004721908150112282, 0.11694843437863203, 0.03120089040921996, -0.06404012174353069, 0.06325260003836702, -0.04320662253368717, -0.04474059233776491, 0.037448153273999495, 0.019982238890964385, 0.043483663000460575, 0.05729400279215131, -0.026391473178591945, 0.04877687853913574, 0.062038114442565184, 0.007819612305013428, 0.0901660883218481, -0.03962608585257847, 0.06548258686521934, -0.10000099767286429, 0.13896219461242568, -0.1573308649580803, 0.02634223147362761, -0.018673083390934344, -0.028798669996343063, 0.03448060996010573, -0.2104009843845075, -0.05111479338819167, 0.029979362751870787, 0.11699487077525056, 0.058277334391539676, 0.15419848189327512, -0.027190677392332965, -0.09220774992429198, 0.07834222371735747, -0.049514683070765064, 0.11173885942016604, -0.02665923046071385, 0.16900848293166462, -0.08585584003304793, 0.0953217290450153, -0.035663196438212356, -0.09885603644005549, 0.20961270340724716, 0.16389503230972852, -0.0002822036296400152, -0.023842800318597368, -0.08886161104738202, 0.013450992664274445, 0.1294360132834041, -0.06534315610639828, -0.10855475283329469, 0.1462290734880825, 0.08484233355484101, -0.014265433187016813, 0.012288699704103245, -0.0996279828334403, -0.08973588654604607, -0.024471746196657436, 0.033670135460806654, -0.05678398178471533, -0.08348955486027519, 0.1833112008443653, 0.007239751269788379, -0.02899787811113935, 0.00884773864579891, 0.19137184854597888, -0.024279674465443015, 0.08780915846563975, 0.01880093578309415, -0.06395872041942703, -0.059103606495307305, -0.023183466042288547, -0.013389046670161801, 0.1382457472479704, 0.09867005330732408, 0.019941528677127715, 0.1211749247916587, 0.0012649700392004118, -0.004337099234208609, -0.1565497192206302, -0.0672804822223029, 0.05952248135765548, 0.12604864374205546, -0.04658107994906665, 0.09653208009032391, -0.12185597846899794, 0.14744826893113858, -0.03175592999996828, -0.05612027848472534, 0.031393344211994294, -0.14601713132861535, -0.1194896313530872], [0.0546332404664559, -0.011117914840970765, 0.06305992623939932, 0.12238719939456516, 0.039938684303324645, -0.07188988507930459, -0.10781716562378951, -0.16138635805149326, 0.214539111463512, 0.014488120655386755, -0.06941871107753553, 0.11654489018534811, -0.058133917543399596, 0.21946953927155316, 0.15275339566651588, -0.042102212776366166, -0.1377101985347686, 0.05632926273513664, 0.023144275301411017, 0.06788446682050997, -0.11312352412561413, 0.04852704519418035, 0.10690568726513856, 0.14023957287737196, 0.11904680687100946, -0.14727111601748008, -0.01204399655726258, 0.11485463368079354, 0.0817507933173302, -0.07628012334421355, 0.07097116776751149, 0.03953103814265644, -0.08190947493582836, -0.0530413833785555, -0.012891075554681214, 0.08098104094052802, 0.16375108903149882, 0.08876216711109161, 0.07271616622814438, -0.13649387226047924, 0.09747152412868479, -0.07001118070091449, -0.048006160498795636, 0.13482608420252248, -0.1281090345385253, -0.016306945145858488, -0.025952510992028867, -0.0314735319594457, -0.08472076484324231, 0.08022648290163281, 0.01842146940762041, -0.001605516619111737, 0.022797806883901747, 0.10021571212953971, 0.00416084128429139, 0.02931494052055928, -0.13314539754198748, -0.0710458800857801, 0.007741419522917456, 0.04706275902910817, 0.0823724155394826, -0.1270445559409854, -0.0068415928877455755, 0.0018646279116735168, -0.06057912872770819, 0.03553132747323806, -0.04791981068994049, 0.010587079961081427, -0.038836733779984096, -0.01642196814820042, -0.057738789180464725, 0.08389324575663175, 0.11099131617275859, -0.12119697184180103, 0.029835389013180853, -0.12216277383417731, 0.154442669375899, -0.024129920070596958, 0.15488957294404918, -0.06834681569433641, -0.09154641555277204, -0.16748820810288245, 0.06240271270845761, 0.02497986780861329, 0.04149014830149394, -0.0561050978297322, 0.03948944365077234, -0.0007357896121723514, 0.026739593752969023, 0.15685829187921618, 0.04268461605579713, -0.07512456315296508, -0.10401992603554262, 0.0273187537905074, -0.002300441041884397, 0.07818760103482908, -0.17539595981959713, 0.13643955022032794, 0.14041599403742022, -0.01667464305939192], [-0.12969966685188195, 0.3121237238714015, -0.016243763076819205, 0.08097514836533885, 0.04291090240484474, -0.0191769185104488, -0.0878699172396981, 0.02653231840318366, -0.10802046150975252, 0.13382955975613195, -0.04131298318074021, -0.052777359921149326, -0.19435292192555764, -0.09198390768963309, -0.05195538253918219, 0.06316013889029869, -0.011646305376523862, -0.05379577061506971, 0.018033013775583324, -0.0660849771037076, -0.03375131444877647, 0.11685249599541062, 0.1301249357250751, -0.028039340810290254, 0.21581646374719443, -0.07811878355471615, -0.16231736951961526, 0.05510969313660771, 0.05823587333300687, -0.03959471670876777, -0.10185599348326375, 0.0003766052268274492, 0.06382796093485149, 0.12706048167981637, 0.04818614095387238, -0.12733415341131116, 0.08530844807611863, 0.06731798159803824, -0.17294180528034295, -0.06330383611834395, 0.06027026857301826, 0.05306350640422424, 0.10191887109789921, -0.003955761068954131, -0.15598023678407302, 0.0455336070990774, -0.12406880076158458, 0.09588786994886035, 0.05814801437098648, 0.11999800436254511, -0.04381423443964502, 0.06353432243796789, 0.19190422584766959, -0.019857768408162585, -0.05960131940488798, 0.1665305013946035, -0.1687024459830244, -0.1315986999625632, -0.02175979694537705, -0.04308343082531309, 0.03221213862879198, -0.09299277729921486, 0.0008517089849702612, 0.04128724063603176, -0.014793998275705739, -0.22282569443131628, -0.13358674624391337, -0.03586181409297638, -0.18237697116148865, 0.0900672772927283, -0.08689952150942748, -0.07692427191540575, -0.2166118493292143, 0.08285957856213316, -0.06346598048448523, 0.09935290871615077, -0.1188190350076573, -0.19278723548928725, 0.03161725044141497, -0.2626560481188502, 0.12444680024920594, -0.044422815394696516, -0.05568797130909023, 0.11581339334377744, 0.11809137843153622, -0.012137696965365964, -0.11281400364429475, 0.14695047931815927, 0.072873446431752, 0.1104892201544796, -0.03971590827501263, 0.14029019471926749, -0.05613246316861428, -0.10755237138602931, 0.04106874734096161, 0.21541047608477248, -0.057133095907329734, -0.09806803195660653, -0.014835706577936494, -0.021471925258117048], [0.16274464108047182, -0.026131097139042533, 0.040269106839312056, 0.05409529686731604, 0.03785263077423253, 0.23954231674664184, -0.08001600294167736, 0.057835167290976514, 0.1468232437151309, 0.17972543732494595, -0.08649548923133592, 0.11575993050144284, 0.030258602270919917, 0.050247377960813105, 0.004062800346796708, 0.14311803449689256, -0.02537163437162589, 0.048942635385167854, -0.05853771090831429, -0.11663485014263529, -0.011517146816329961, 0.010086562947514246, -0.0022491639960836906, -0.017409212459978105, -0.095220355372143, 0.09816715187687576, -0.07600720328980455, 0.050622342163168646, 0.014828345994696974, -0.004635211905954665, -0.09357840502223955, -0.041993935232071594, 0.2619400658255184, -0.0116234484874884, 0.17526583387932115, 0.027976622359060517, 0.11893826113002273, -0.0165769036986863, -0.03948201915145849, -0.05945756018324247, -0.044869847829225325, 0.1465174175213322, -0.12353260855122342, 0.029481847241454164, 0.08298327015244933, -0.11828062938966816, 0.05301787789618654, -0.08292412286946221, 0.13414502108668055, -0.11969033145692785, 0.11063145812655972, 0.04352079043258236, -0.02450186237822511, -0.0800352253514958, -0.09108752176631216, -0.13048768444166225, -0.043827683836857985, 0.12560814229495884, 0.008800510434088327, -0.05059696865845344, 0.01884861911926449, 0.12818025693866428, -0.010615499570125426, 0.09409904918792686, -0.23307485813520057, 0.011648036854650734, -0.07610888216212562, -0.0734717409371447, -0.20920690970983272, -0.0900718563610648, -0.013066228050713662, -0.04889617359397417, 0.04928494097956561, -0.09347168382867123, -0.01803166914722285, 0.15160828062872034, 0.14713487985510895, 0.2777738285226666, -0.14901771880623652, 0.11388842025291648, 0.1992473926619401, 0.031237120706206135, -0.03596031032854207, -0.016788808819435827, 0.016090938143800897, -0.004263698660835979, -0.07193191959699527, 0.014474437163873023, 0.08760471078562154, 0.005196466546597667, 0.15580966237684604, 0.16248604522787652, 0.11543074294995562, 0.12911359540552367, -0.024885696737985578, -0.0886912868947532, -0.02141145802086487, -0.12753046524462364, 0.0730889700860738, 0.031708324106983064], [-0.07601139843074321, -0.053640778556569804, 0.08173439039451699, 0.0012033338218837356, -0.11761285836804641, 0.1659201382013509, 0.002191967180630527, -0.1551811984404817, -0.01801231259947099, 0.009999464568947018, 0.14025767103825557, 0.08782644175703569, 0.1854534955467802, -0.10207440324539906, 0.0035580537179446866, -0.0677024229058149, 0.04569551175837419, 0.15375771445047515, -0.19612703601698603, 0.019823609091046926, -0.10269201977020544, -0.131867208100592, -0.025488305421133874, 0.013626076127358803, -0.02269326684158928, -0.05513686525955297, 0.00838125397698295, 0.03019279144560811, 0.08985413881896044, 0.029690464691746923, 0.12473412841779108, -0.008146697456332078, 0.04231363089026509, 0.06484226955595988, -0.11078634709538299, 0.07211104640165698, 0.09258200479453207, 0.027478556664675902, -0.0075183979589833905, -0.06073845220155875, 0.06531856816543413, 0.10066257033465859, 0.11408270081229095, 0.07380956079128759, -0.0958973019273925, 0.009973653852755874, -0.008744770462769676, 0.012353672997697416, 0.1922477915183708, -0.18275251291861005, 0.01351253392480226, -0.1254563488743133, 0.01610870340948106, -0.2166504941141922, -0.25842384621602155, 0.09094602006516463, 0.11878384625629952, 0.1878186933929482, 0.028545699949085276, 0.0967798760467619, -0.055336563858505064, 0.044497397780679265, -0.0982593455474064, -0.08092351801865405, 0.0008491183758071081, -0.043883846132024146, 0.012216424984587429, -0.03432820212624942, 0.007831625892553847, -0.11722729518600904, 0.055307815678325614, -0.04234478017281418, -0.054155833369008415, -0.04927617649833669, 0.026428669053772242, -0.15159631383959768, -0.04936752222041568, 0.030151856678232558, -0.018592769147146623, 0.07778440636208905, -0.2969953676535455, 0.03760666537841173, -0.0647273068581935, 0.01264183758359906, 0.0689349838825918, 0.10092592379682873, 0.013048423368915475, -0.16284013093800287, 0.06789357517275689, -0.11489408185479136, 0.1560457195734577, -0.04670064221844483, 0.19449959062074929, -0.07605860683526101, -0.10597038937642378, 0.021763288142932685, -0.13960037918381102, 0.03157502517623418, 0.10626598967531542, -0.01713948143727013], [0.19951263588046486, 0.2119090698210663, -0.014972403367445264, -0.1438402836772919, 0.13887933486986126, 0.04134856085414795, 0.1871856609933888, -0.10972933809600856, -0.15632817664658877, -0.08844924218701777, -0.006669729163328704, -0.16213713047356104, -0.07107280515854802, 0.06393309399301748, 0.14722958221018187, 0.09733573689783308, -0.07934882102417157, 0.08376671700916981, 0.0737355885334006, 0.0640516960829332, -0.015552617100028369, -0.11252724177208145, -0.08998217041274581, 0.0516983097787323, -0.3328277402406666, 0.10215033355047316, -0.015118295524920776, -0.09681389682701332, -0.00208001345532481, 0.18071947370385882, -0.06426532958377523, -0.0019766043350169203, 0.19596839310079647, 0.04572228896486141, 0.13543429392387482, -0.09094039341959737, 0.026619802985919257, -0.032015228264264006, 0.03819654768605106, -0.09356845574938995, -0.16488096971874944, -0.02883792493303758, 0.04417861963718975, 0.001158993267657936, -0.11652026578864338, -0.14760670847172117, 0.006000827608185038, 0.1251925325073979, 0.05929584143737469, 0.17795886861601143, -0.015217682624726664, 0.05415324369414043, 0.19300282526868634, -0.09160483886099091, 0.2008190572838927, 0.09862988915227226, -0.011307291138317258, 0.05580081503391561, -0.1271762988605722, -0.1051680696969961, -0.08678519486395767, -0.07294201635174728, 0.06873688397620108, 0.02607256883767573, -0.1247673005697803, -0.10809789770199674, 0.0467568347420406, 0.08093600356045036, 0.11961887222216648, 0.08048365683483254, -0.06707985026590639, -0.08743319908364361, -0.0226413499559381, -0.3190996297293518, -0.17301733561129895, -0.07108217906573464, -0.16898085222864057, -0.16408171059065382, 0.07278417497553304, 0.02108781058145901, -0.17053842790992965, 0.09555850248539464, -0.08002906952305022, 0.02850769700825065, 0.06332360363555481, -0.009878632644296548, -0.03015108000550361, 0.08733642005017056, -0.011239370190558259, -0.10137436827113402, 0.0924800942512755, -0.04983411316153261, -0.11192929889394974, -0.12802715190225522, 0.0548993190087203, 0.002735792417122986, 0.05457261909341669, 0.08901396667829059, -0.01526905120176498, -0.05627388838232408], [-0.07439103634002955, 0.01227917189402873, 0.05016583194933693, 0.06002438552700495, 0.10081187704845172, -0.0040697937735102606, 0.09142284244391424, 0.1562501475011971, 0.11525461661610936, 0.09137461563422757, 0.003820508122773044, 0.012628505041154509, -0.09871505992286769, 0.0773266594649898, 0.04022710200819195, 0.08141052085457307, 0.022151714513747898, -0.08983049956866763, -0.01861169416733963, -0.1307984361183063, -0.035415974895855976, 0.030006591764956753, -0.09322597306409547, 0.17390078966406508, 0.0013829682545288303, 0.07511251345393603, 0.19909420817679635, 0.0034724505738254747, 0.13832386375344033, 0.015561595579638583, 0.08282189725859607, -0.10087768708616725, -0.07754418956970517, 0.013797200794866625, 0.006093089301202076, -0.05225280885574998, -0.08966995290038852, 0.09619936304192851, -0.032922599982006764, -0.014747438866200844, 0.028045118122604115, -0.14043949368298556, -0.10771787274007623, -0.1154887364822923, 0.047365005615712774, 0.026612731381287093, 0.06736588024192718, 0.11209606075362702, 0.060190241979974024, -0.08361284710494113, -0.1049391753123447, 0.04163398428453339, -0.03548468170538599, 0.0066654282728982675, -0.10659751091556065, -0.0054852008940207905, -0.09550145139566174, 0.012648356794814542, -0.11359783267537678, 0.03144435151654748, -0.09808498228393192, 0.1573415642628505, 0.01917953897312798, -0.15673038307470855, -0.16800589538473168, 0.030311517322354594, 0.21264138466361265, -0.16043268843641936, 0.07706598902551982, -0.17736004774906544, -0.07952785565085502, 0.05497105487951986, 0.019912330976371004, -0.13185265451375458, -0.0362445195700856, -0.13033880739930656, -0.05873644150464801, 0.13342275188114203, -0.0754322327125242, -0.020937218260988395, 0.07978995790001761, 0.018379476130247468, 0.1338972128092742, 0.08999444725074564, -0.006458476015883919, -0.019664168885935408, 0.0216151332933399, 0.048422903655682095, 0.11915847115442083, -0.02888696380961199, 0.050570928063522785, 0.23186569276103294, 0.05416219898475532, 0.012908203683899508, -0.09609508703339487, -0.10873903085523873, 0.11754810316695366, 0.08184872854061248, 0.054287404657933684, 0.03136844924975026], [-0.0930589786004779, 0.016791598581275224, 0.17596139278238596, -0.055470962517661794, 0.1533627535302945, -0.11173369441880576, 0.01849060358529324, -0.08446600649281222, -0.10340448591073872, 0.012567805004265343, 0.04489057635417433, -0.0038252609642863535, 0.1367314710517728, -0.048215008976203365, -0.0176019046365536, -0.02157612314973961, 0.08224238299472462, -0.19046545398541664, 0.00042568384733830526, 0.06008730669403639, -0.16898083145816944, 0.04617596974171107, 0.11582312405289344, -0.05714847642434339, -0.09970112892816796, 0.07511228946922292, -0.058727628440079276, -0.03751807734908343, 0.03239361300792792, 0.10658841785194091, -0.033388010012248386, -0.03203265987594579, 0.055261652806695094, -0.024129952935796804, 0.0013808473484235384, 0.07851378235928874, -0.13060448836128283, 0.02360808414750947, -0.07324291600816048, 0.1499001865615685, 0.08533020116144154, 0.11865544903818065, 0.022811992468186243, 0.1425328489756703, 0.046160454041443554, 0.16055095918640994, -0.010281055520202843, 0.18693561379099835, -0.10002339310809141, -0.011426935814260113, 0.03458134864941328, 0.13069173240564005, 8.67641368163337e-05, 0.09906931055263267, -0.00878286669877688, -0.007042471114815357, 0.09981431987412831, -0.10384981615414135, 0.04117020524583079, -0.13479319130394848, -0.1370632668161859, -0.0922767927165917, -0.16661653837535662, 0.05599996380896193, 0.019126872419094464, -0.11738756028329074, 0.18770840082616974, -0.01921143241292204, -0.02370243206014557, -0.13186955727294622, 0.22167390827158134, -0.14383276492581196, 0.02942125539559189, -0.16914826820208564, -0.053267722597622635, 0.1531387767162482, 0.2621109650608237, -0.038174017618987754, 0.047460518756597736, -0.23637079659766824, 0.11174627020705762, 0.029288482760273783, -0.03383031386325798, -0.06198010619878224, -0.12718218669649203, 0.0018745107929272764, -0.04011157426433162, -0.0033748560497941418, -0.03965540626683699, 0.131439414019887, 0.17767179257836274, 0.13199236954389768, 0.005675558482703864, 0.0038103435278426996, 0.02879974852632506, 0.05050452375357281, 0.10743991889821258, -0.06310042332333121, 0.020028320431232677, 0.025154021816329267], [0.05715680270465077, 0.014581118152310217, 0.11996950725526984, 0.013269390847082264, 0.015182140170827663, 0.02317114817669386, -0.17941765608719723, -0.027454978520566976, -0.11891102327217834, -0.07451593441493808, 0.08596058023188656, -0.17208687297721667, -0.09693611387051147, 0.13504079390521226, 0.10646146982845833, 0.14307722103585227, -0.03918854891874085, -0.05840553589891957, 0.08127525763299184, -0.07375525913076442, -0.06332994157869141, 0.026036504475278922, 0.03699500833261398, 0.08188444189378324, 0.04715544130345336, 0.07739647108147313, -0.08072318145001364, 0.1615662013025471, -0.0037084602570663094, -0.2071392732579903, -0.041019853357718655, 0.11706944712454155, 0.0525260321515334, -0.09096643236331775, 0.12625652477041457, -0.04866673471202461, 0.03034578170964434, 0.10663532185203853, 0.07944646152464709, 0.11340632315235982, -0.12485639176498997, -0.13045896322143757, -0.105555572870767, 0.22540103537487527, 0.02696951767769213, 0.047535734434771514, -0.019325342719022292, -0.04396806470034593, 0.044798063804360265, -0.17343305925671587, 0.02205067176079299, 0.012037557853741278, 0.06358564778803603, -0.04761077456893608, -0.07521420663052036, -0.031642146699515004, -0.08188939628454611, -0.08431463120433752, -0.08054222663476762, -0.023657609636103936, 0.029432011282210936, 0.056763758188039526, -0.02101440686261652, 0.05946199254094889, -0.12697077538482401, 0.008629341395348517, -0.09409431568346446, 0.026001619172667686, 0.13685131948896298, -0.18219488540602063, 0.06132026526627308, 0.1881961496922871, 0.09270080760119415, -0.0021741084792369736, 0.1065947711049691, -0.022406839428312775, -0.02468687012258708, -0.0328522942826673, 0.021930156403894965, -0.22489990986168823, -0.021212670726926532, 0.1786623015063024, -0.16706138900254924, -0.061241036272263474, 0.16589388066816402, -0.11320026939990058, -0.03875753803663242, -0.03447242627710119, 0.17295395225761698, -0.12703014868194615, -0.020107329867372115, -0.11925287926773971, 0.0532850913050637, -0.05922488746549667, 0.025576710450104415, 0.01188814964875271, 0.1294311615811659, -0.24612767298499075, -0.026296086022376253, 0.06655293361219337], [-0.07871389736571119, 0.009461719305460848, -0.03853216680352124, 0.13287331550490722, 0.3358802550976464, 0.03071663129831234, -0.15184001822609983, -0.0391231647788665, -0.005767888355572021, 0.08026334250060356, -0.12040075815242546, 0.11927964013902721, -0.07683153753757353, -0.10821719199994569, -0.011365751462184806, -0.0018741048643969892, 0.05207155171773732, -0.013461248348305581, -0.009083978799982947, -0.05730668685425059, -0.011225541075534607, 0.036417952143915105, -0.06392867178397592, 0.11811737618272666, -0.11884828880811008, -0.06605338020822016, 0.1761918169037899, -0.06802435040953929, 0.11773009591095791, 0.09163602939072978, -0.06233674908604532, 0.10361379963564997, -0.16402988600481216, -0.025754678060019694, -0.001234279327422155, 0.13592641557887952, 0.023103180514679814, -0.009956003952943169, -0.13469759465062847, -0.18825920940768262, -0.006534424187322033, -0.026671267046503012, -0.1826110293643368, -0.08352918834285522, -0.16217250944614392, 0.0368306100461482, 0.06764495831464161, -0.12568092070656597, -0.0411728538505497, 0.043905461285973765, 0.06081738821595152, -0.06760272303874153, 0.17375044117793215, -0.1139521795011454, 0.014808232210541998, 0.0912520159620649, -0.02025080763607249, 0.03620460345717447, -0.11640647577425725, 0.017276459564428293, 0.05483089481622712, -0.13135639596972354, -0.04788260400318778, 0.02264975894692251, -0.028664926956563048, -0.03813311597284287, 0.1630912458590693, 0.10506925571698078, 0.04067622796183096, 0.09861835933306817, 0.19799800679988347, 0.03727591697562512, 0.042706249793455, -0.1279415325764046, -0.23534461537891233, -0.049788703123696834, 0.05283932599524526, -0.00742319835033862, 0.03084746596669215, 0.06190549059089623, 0.2127776370306559, -0.08811303045699394, -0.18599096967498902, -0.11735919559615633, -0.08672007796203651, 0.06582013631383306, -0.024000569152119088, 0.1700063250316268, 0.08085266393961674, -0.011061303591329834, -0.06448639371812179, -0.12398486052893849, -0.17291770264899417, 4.28345063231353e-05, 0.10075308391055382, 0.030801329996624546, -0.009333907683094632, -0.0795221388951025, -0.01540388323821925, -0.023982004462816377], [0.19050262644153115, -0.03863779286634016, -0.18413932717749737, 0.10064571356939467, 0.09883591534281196, 0.03326180532927856, 0.06528099455181917, -0.042265249088160414, -0.013914028542393111, 0.05453826394974694, 0.019603385454419968, 0.008726578960832137, 0.1280494847099598, -0.1628099538223311, -0.02930542743049946, -0.024038648036321844, -0.12711067475674295, 0.06697561610672136, 0.0496869648952561, -0.22453194481812902, 0.09219724402767175, -0.12224714180044921, -0.02028244856632533, -0.10268683856634396, -0.2044270790388084, -0.0724184214129596, 0.07947461625176323, -0.051722018973902134, -0.021416950012635876, 0.012441228114900452, 0.05844608806694447, -0.07909743976226824, 0.0691578772702055, 0.06387052900740571, -0.10463292338292285, -0.09918828139712013, -0.11514075423847606, 0.009368869641063232, -0.024892847370498447, 0.07241337312311245, -0.12938560225506596, 0.11123780120049316, -0.06941911207228324, 0.05019901997189694, -0.03842243718636504, -0.1974633521017131, -0.048468625381354435, -0.051437602983620635, -0.053967007342251495, 0.14462478657417852, -0.06768276157975883, -0.042612282715163284, 0.03470782382296039, 0.21087690846501037, -0.11943790997608315, -0.11060856546862491, 0.08518926574562358, -0.1989602228923287, 0.18778498158612789, 0.0029555275220357895, 0.1143581233147591, 0.13889857554565618, -0.031206653850026723, 0.08692913915047212, -0.055406766682253354, -0.08531686856013171, -0.02186390590606598, -0.033740822637000734, 0.005452244796428488, -0.04771590664708431, -0.09344250679968999, -0.028663038070398206, -0.037942733487231706, 0.09950939012957383, 0.008268545533360976, -0.03497591788044901, -0.0695442868108961, 0.04395850001625099, 0.06645119170255473, -0.0977472661791567, -0.20413102202214028, 0.15850557771708385, -0.0987637905984026, 0.14397255174361845, 0.1292558571521322, 0.09415275282085832, -0.15111830141134344, -0.17003353291270829, -0.19554139202345172, 0.034883265277642565, 0.03975355674853105, -0.011378856637128896, 0.04471981989631237, 0.029333050063419915, -0.03282998171437744, 0.04724617852137711, 0.2150648769804494, -0.044507903251655274, 0.1698202877259849, 0.1515329473229997], [0.1573620197230528, 0.01684243402629423, -0.05946893701800065, -0.10651803521031387, 0.11197773101891582, 0.022069399703821463, 0.1334828552482402, 0.07874394443228627, 0.018291167030923382, -0.12458816454385131, -0.10871427141545398, -0.13910011913924683, 0.008062198740368138, -0.059886021073345376, 0.05885808500074238, 0.12606629244799397, -0.11370453614821241, 0.14531305113329537, -0.08300608677168977, 0.06559414561138387, -0.013789576276676638, -0.01614359757283049, -0.040751825619789225, -0.01530166728376681, -0.023348883679373794, 0.11251881955178873, -0.21610665756493463, 0.12432922339577075, -0.09713889616391413, 0.04814940560070675, -0.03563889469667968, -0.12066491190094408, 0.07381405835839543, -0.09108507034714908, 0.04627681167455183, -0.027435148665138853, 0.17118715450521793, -0.09989807806979105, -0.053989062996862985, -0.15450011133368677, 0.003369276853653726, 0.008544532912445935, 0.1160879215390966, -0.17463696544098695, 0.07579387577900841, -0.1629554310088548, -0.04778456224329843, -0.17541683961176247, 0.028480975648371456, 0.0596854789865143, 0.010512942033315452, -0.19106299804421328, -0.22903168886171535, 0.03804881293670629, 0.08262084049013772, -0.06951707551543244, -0.027953842999116886, -0.0902744063880065, -0.03198138701792879, -0.06366584531573509, -0.0472498277085315, 0.1000652483388423, 0.0038349661642500853, 0.09082586644014529, 0.14022643989248174, 0.044485015941562046, -0.16640175926242665, 0.04829421813674256, -0.1531946514068713, -0.018793936577412844, 0.08784165714667007, 0.09367652884683123, 0.004465030024525433, -0.1568987143684278, 0.008764475824550031, 0.05006983776158665, -0.1331428252303934, 0.029919930793796002, 0.15632474024787302, -0.06805886414802735, 0.05455495173461519, -0.03893502059134624, -0.06128246304839664, 0.04552136681885652, -0.005484721424836851, 0.04738096757361489, -0.018964264136009518, -0.014795618154151514, 0.04973373716343171, -0.18581686220898375, -0.004352305014856126, -0.07972523789875717, -0.15709351651672704, -0.028734748169620655, -0.15944766968387405, 0.18277862962347846, 0.12632324707093381, 0.027782879191670086, 0.19211609612050784, -0.20179118936498763], [0.01992797278832674, 0.10927970628269892, 0.008970797553270756, -0.08679802574246923, 0.10380845566455928, 0.0006104350737997612, 0.10179131670940578, 0.03746554701772315, 0.11848082648665709, -0.0375829261383758, 0.02347957081240855, 0.2163404803500747, -0.08765278300868157, 0.06761381280882905, 0.14113059767105915, 0.3722765431995214, -0.0690954982580029, -0.08753151512424073, 0.012533127426200533, -0.009826637779971482, 0.04313681733494699, 0.006636765461634888, -0.0376034371665471, -0.09038862711002163, 0.055061841650016166, 0.11045022829670437, 0.36185201443821247, 0.12841440916824853, 0.03169838120543751, -0.030136598209326206, 0.2257919912977737, 0.0671553566340844, -0.06422775258953352, 0.04769356113437534, -0.010746667226897787, 0.012181545199307732, -0.0010151987166368717, 0.015455566437958135, -0.011547969692336103, 0.03947511731325537, 0.1479779517625047, 0.009803457399609621, -0.02583358843672259, 0.06201613213017263, -0.06367077134141086, 0.10973329705967101, -0.1031700316959294, -0.07351279165404277, 0.12185024172226631, 0.005441641795131527, -0.037634155141948206, 0.02361681325415436, -0.17843907975222534, -0.164847676360518, -0.05473059099517277, 0.05194521850081061, -0.06614253646871572, -0.1768891933442084, -0.020113606680233556, 0.22233236515930466, -0.002924363399326132, -0.40167081611575245, -0.11713620278922235, -0.15396160069389048, 0.08140644094523862, 0.11556109890527133, 0.08182438214237026, 0.006413757609851355, -0.011711952890395106, 0.23010949342086573, -0.00769257969918789, -0.045175190887463766, 0.14530880509661345, -0.011352773754304197, 0.08426292516832419, -0.014066870762486397, 0.21452619756979124, 0.058856910044361305, 0.08151627051546084, -0.01567737609814164, 0.04908339119550027, 0.06922743758085284, 0.1551443250463795, 0.09101209712253838, 0.051941932419541904, -0.005113993517664412, 0.07174223207108248, -0.0037848346403609127, 0.0791908107880093, -0.23236136112046646, -0.08334072787162884, 0.048346286015136186, -0.04463402109496003, -0.06486861885390387, -0.083240575517648, 0.0840176644412336, -0.028375752880891555, 0.0038906021619003112, -0.09217151246855447, 0.01645088040796083], [-0.11282927497186518, -0.13903288201453812, 0.009686981674635923, 0.07724642486786548, -0.08711422026962999, -0.00026900764987527944, -0.11705456560394141, 0.03272423189321358, -0.0288596076090129, 0.062072684420079675, 0.09037392333079027, 0.035092107616778286, 0.048816653897645314, -0.09805738394886379, -0.11318936947628054, 0.06693833856233011, 0.03887848728651921, -0.05231724666745026, -0.010952211060166507, 0.10826990525626673, 0.13344135469080168, 0.21389586775547342, -0.08828995342327604, 0.08569770344602155, -0.06866721266539248, -0.003027929612371357, 0.11078627877169618, -0.2845886402901447, 0.08821359922265087, -0.1532612743948264, 0.006872016442022498, -0.17917076786352462, -0.10300529364123351, 0.016459612190121528, 0.22499724414974526, 0.06780578631701681, -0.10860642793075395, 0.01067673893361212, 0.02931648280229518, -0.26598113737479456, -0.05773124669176403, 0.05877858699140316, 0.07922581715420812, 0.04153245356938596, 0.09403625234977074, 0.16821801865424954, -0.05857896933589216, 0.027601676399033562, -0.27016054185348776, 0.08648148614831841, -0.09228436923849326, 0.044580594550062885, -0.04230605572293115, 0.21049199415448455, -0.035637297236209384, 0.052426336630118454, 0.06718411428362568, -0.1175198390641685, -0.01747616779359874, -0.022197153547864275, 0.0698067567002048, -0.06166585165238897, -0.1748100017529527, -0.17328793125800324, 0.0037292029202377498, 0.11502730025055484, -0.11181473730049654, -0.06012564229463568, 0.002958563437823191, 0.017901612777465475, 0.04839435968555214, -0.13938540380095576, -0.029902604881044955, -0.10806536949586981, -0.10128918883239135, 0.11007863124160443, -0.07722106797282347, -0.11929536897691935, 0.08457880797908171, 0.21561611265516675, -0.03480330267430777, 0.09469968324904679, -0.1419470724928655, 0.13697470148702484, -0.02828663791202207, 0.010317307392493145, -0.022477786144640813, -0.06614980019826487, -0.03470052531796026, -0.060356175591524897, 0.07508994298151316, 0.0008779880772523081, 0.25242811413235317, -0.04600492746653052, -0.26995339876216473, 0.024880631582356528, -0.11418840588047303, 0.077084048965479, 0.15257031488253614, -0.11377730018905284], [0.11567055207856727, -0.17056142912834366, 0.0947897560440765, 0.025399836648983393, 0.19637845375543342, 0.022693371776954293, -0.07170288972457481, -0.11653089704494489, 0.16877618915841563, -0.14248626257892913, 0.09087347349399055, 0.11799163416574912, 0.010137808616313549, 0.09724847420085983, -0.15471761610983237, -0.04701013572884696, 0.030133590766033048, -0.09108929082735476, 0.061914919542713526, -0.14390250634255256, -0.042365481909090966, 0.07372015754391269, -0.10557702136296135, -0.2648680408053946, -0.13834473868667382, 0.17108823015868244, 0.3128093208572862, -0.01788704482489976, -0.03492812262939974, 0.079676733714577, 0.1493377150838071, -0.09227322525607064, -0.006566659421059737, -0.02571227925090823, 0.20144580589475766, 0.026203097563199926, -0.08501645599682811, 0.06666591283129357, -0.0492457900731869, 0.10683802698733935, -0.065149209895774, -0.04551577159639725, 0.07532331608506761, 0.02108356860877765, 0.02691247720181646, 0.006108241231947767, 0.05260148365832145, -0.16185352540956222, 0.03708216440331654, -0.1465834726504168, -0.05494038667752661, -0.12331095952773963, 0.23671334649181153, -0.03210390266089296, 0.007941277824374728, 0.031044742012646932, 0.10271397926733633, -0.15962377015488144, -0.02127871443380257, 0.04728988464000297, -0.08634470759426319, -0.04492504546029411, 0.15224640923622304, 0.06867862371840927, 0.21623892795800848, 0.1118493944861722, 0.03553621278369281, -0.1557157525400492, -0.154585050451513, -0.041797783792968, 0.1462688709713625, 0.13194525005380173, -0.17750593486232893, -0.07655836833503703, -0.19298484637844598, -0.06883403275432602, 0.009305072192741374, -0.011980554935756118, 0.09346144852992405, 0.006501330885991093, 0.09648986869932064, 0.17583027612341015, 0.09252818997695576, 0.026176818372006957, 0.03770058198793804, -0.1159417028280006, -0.16528344228777214, -0.09621093188866321, -0.10885616694699272, 0.15448709979652078, -0.03533068283045001, -0.15725871863722374, -0.1769607711981178, 0.11423857563195641, 0.031394894868095935, -0.14019798032310912, 0.16710119548246608, 0.30262385081026016, 0.07525645242827535, -0.0754983075915665], [-0.15603283090565956, 0.0639980817114675, -0.18430009665671765, -0.15739719784829476, 0.0301626497052431, 0.048259468715856985, 0.20361353914221741, 0.09100030579310854, 0.0972786866863673, 0.047277857465686905, -0.09633344473837917, 0.11583014801305427, 0.07947403125837119, -0.0746585557145237, 0.03023601672646451, 0.04130742339212918, -0.047224493061593084, 0.0779680377214706, -0.08890020594519982, -0.02063649513516979, 0.22784061227540048, -0.1013572042928571, -0.10559036029187306, 0.018420899310705587, 0.05380576267016888, -0.06769143179075797, -0.053515520969262056, -0.1087276315920795, -0.033702725058556676, 0.12302357613889808, 0.0741077010469482, -0.25533504718188704, -0.10158467027288412, -0.02207733189824652, -0.22384293966736446, -0.3331837825623008, -0.03264812126762093, 0.014211939756535064, 0.08781572915634223, 0.12349546274020523, -0.07435526807326338, 0.046508682065896506, -0.06005996305360008, -0.08478829559840367, 0.1716168662169369, -0.14165407782259115, 0.0063674099310387705, 0.12863685141182907, -0.0734263402959014, 0.0909476218759682, -0.052944907935165576, -0.12086592234859306, -0.08500302339802593, 0.014580350056515617, 0.06601174280142666, -0.04583564941880919, -0.023374479622089883, 0.24219026893418605, -0.025154446587266538, 0.15275493688658, -0.04373764424452043, -0.014520805305165436, 0.11358862797116498, -0.16315015659677998, 0.04747932076433699, 0.20751934460193233, -0.04808349212457494, 0.2958493042619218, -0.21079345805028715, 0.024832810857994495, -0.08646181002590335, 0.0795415593878723, -0.05864328068077734, 0.003968769193887584, -0.01997443561903136, -0.0989408848591447, -0.03746408304563859, -0.04623016062060357, -0.11474548878836438, 0.114035670019847, 0.004897082784606992, -0.0703446637070393, 0.07071821220246231, -0.2550029124776308, 0.026790258138159204, 0.07894574698893238, -0.09793500079433666, -0.029620367819535066, 0.14018191170051755, 0.026242590383766425, -0.04184192900507747, 0.1275294397607969, -0.003970120577667698, -0.1045745789734438, -0.00642004854348361, -0.13582458080419754, -0.07478711764550718, -0.051519344985736994, 0.0687143414913119, 0.11591485332414808], [-0.021074832407698963, -0.08841899392365572, -0.0571489081107282, -0.0879667852288483, -0.11674275523900234, 0.12251087670513874, -0.2042086710631057, -0.11646122279992313, 0.07191169602829642, 0.03858476030876664, 0.06959743107757473, -0.025487180956935147, -0.03435341972472398, -0.011310026706710446, -0.13679591932152893, -0.07274934729969128, 0.06183433396612645, -0.017668717988301417, 0.2148172060414989, -0.07616163312402713, -0.15698774324638284, -0.014556324512780387, 0.07842039136517343, 0.04660973555289318, 0.09058780301199018, -0.16235859087799287, -0.023667793180841418, -0.04139935986648677, 0.04180014248072781, 0.009586215514343823, 0.07262173625096109, 0.050462322077796044, 0.279808893280573, 0.1576156138534105, 0.046887764688733326, -0.024742532970532694, -0.0190388931726736, 0.02103496604291084, -0.02515733562578157, -0.0030177297767399374, 0.02182012277627472, -0.17050969375379002, -0.026024683001151336, 0.04756969975242423, -0.0681223684239573, 0.1192860148003565, 0.1159064075425945, -0.05583130846478151, -0.19076963763078966, 0.1699364145766089, -0.05884663387296294, 0.23523374588957588, 0.1479974616911604, -0.08364752499603337, 0.00738550368198503, -0.046856945218672175, 0.06552476788007462, -0.09565986129831786, -0.10867642554385865, 0.07352291335901766, 0.12172430857766509, 0.10133211585879186, -0.08892101430974943, -0.06275534108862554, 0.023479256991018646, 0.17767792682322864, 0.020452617315166757, -0.17426820106850585, 0.01664479779947837, 0.006526356051131012, 0.022168344109437903, 0.13291247907131845, 0.09716529869093159, 0.015115917089192347, -0.055680059012460696, 0.024407925691284783, 0.12230567177242341, -0.1878455694232141, -0.018201513800532903, 0.04461973553964255, -0.11251066673983211, 0.07275872248044019, -0.048527835595234284, 0.03941776740699518, 0.04187633404988314, -0.0012826378499617992, 0.09028406816350204, 0.05270782713498079, -0.16901250020784495, 0.020611736191455964, 0.02152531265451936, 0.20856924805820723, -0.13141303251779576, 0.1609125472570939, -0.17558680802024096, -0.14663938603916982, 0.040942826955528984, -0.028483363731931045, -0.11969856596954931, -0.10256524070036321], [-0.12269059687959055, 0.0319210234699722, 0.01301633140424853, 0.029182279373376363, -0.025638147121827028, -0.13617007042056925, -0.12002029255160039, 0.0491221437084314, -0.06347089459896325, -0.10881160892092995, -0.07857780937113479, -0.18935152050840234, -0.024319519194656945, 0.0137562017815419, -0.06983087867758672, 0.02815541547794405, 0.08384074235218979, -0.15920977804531825, -0.08426653785043527, -0.007842683855787262, 0.02234683355932847, 0.1414247809323311, 0.01586035345200212, 0.08768896602605526, -0.2560121461989168, 0.040111520942377715, -0.09448582286226537, 0.1706381426150103, 0.07519578000898813, 0.03148149447358114, -0.0055378477725006705, 0.02954798183159792, 0.06177002055493728, -0.00045793521153931647, -0.09967161909018762, -0.013437894731845751, 0.04859935423900178, -0.02705299666674556, 0.1072059137923298, 0.24892797023238283, -0.02458943416013968, -0.09250842345722386, 0.11703498509504612, 0.07613478569797122, -0.022959445863172348, -0.01594761964083809, -0.09983763252077789, 0.058952389021797905, 0.07005889994879584, 0.04267824442491676, 0.06235289692265738, 0.08370805405184216, 0.055260957392326296, -0.05478114519737859, 0.0657874152280351, 0.006449091088311922, -0.14260784432298598, -0.001232482080031827, 0.06129803898964092, -0.16646978617753136, 0.05026996208552129, -0.05904928829060934, 0.1353366753373841, -0.20443134225676338, -0.01371976757225777, 0.1432980257441664, 0.006702739537133378, 0.19184543881357885, -0.07653794732444763, 0.16530017282566314, -0.0989327518407146, -0.3003006266548782, 0.00806726348624126, -0.18463049976261856, 0.12117734176239321, 0.00961135990000331, -0.04865700354933312, 0.022499102472356727, -0.13730817323297756, 0.08916328589006492, -0.14275988843687262, -0.018439985589168716, -0.10115529136970154, -0.0627569282935208, 0.06098541852727203, -0.1376262585024071, 0.020430086746212616, -0.03792343453920907, -0.156598858360124, 0.210622439451547, 0.0929080981311396, -0.08930732327303748, -0.17247163192458534, 0.0728810325356961, -0.08428354526616605, 0.12352769714146955, 0.03484549305393988, 0.024982903443996146, -0.029538528625145374, 0.01032265418972229], [0.06568024909591692, -0.09721605528585864, 0.21115512170638073, -0.02732872510987292, -0.01970681330488138, -0.1233138793044923, 0.16281285378942967, -0.09582759826390892, 0.01866398629849869, 0.06255203519178637, 0.11638178663691096, -0.046291268627852926, -0.04637924331729738, -0.1323138859373451, -0.0021884326984822114, -0.022163651598685517, 0.01801491913361231, 0.005180208401620913, -0.03977066645733607, 0.05401957321473192, 0.003021901556930077, -0.09506289622488576, -0.09610444606109239, 0.11127069997713944, -0.03244477053527187, 0.06910605843129035, 0.1670086220525539, -0.2651145951707074, -0.043370326764873846, 0.15406007800349272, -0.23964111138015137, -0.20826190594240246, 0.15329749899394407, -0.13315772736222967, -0.013332526084170055, 0.06402390482027374, 0.23811442317687412, 0.09216427464084798, 0.047207568716331916, 0.009895459573796568, 0.026577435695231758, 0.04370970280163754, -0.06955090332363752, -0.06915624948437561, -0.11065193723425237, -0.0342660394160813, 0.028594289055102445, 0.02951293596325029, 0.011155716845452156, -0.03220915734933573, -0.06989698397650818, -0.076157110139862, 0.05115711010096448, 0.09872828048258359, -0.24563140307063788, -0.09216275826336928, -0.12797299851792193, 0.12645926757508782, -0.0071854780752618926, 0.03185590935780573, -0.09510905190336993, -0.002557373206507338, 0.1860704959663677, 0.03406012582124876, 0.031133716308206084, -0.04955209475720093, -0.0402451359532814, -0.026450207819328986, 0.08337435615505111, 0.05717277682676519, -0.13317866494084551, 0.19346376000340537, -0.04036951850662951, -0.0671474214192803, -0.07005793919967694, 0.07415601621000371, -0.17958883899130224, 0.0920176328559087, 0.11371314170964286, -0.015917747822501032, -0.07370789768265427, -0.06956273256447067, 0.018127773353280245, -0.1022596354122823, -0.03693779436504129, -0.008503882711934805, -0.009891630195048767, -0.040378048468658945, 0.1392298692139566, 0.03654713075223863, -0.12031838558493949, 0.1314388063684694, -0.003974115917758214, -0.06433613786145433, -0.28775622726922867, 0.0810305977056604, 0.051289789930355316, 0.0077347876967453115, 0.17171292370407545, 0.01171674734971696], [0.19362242083292214, -0.013431507768958274, 0.08774701449861187, 0.07332770474472554, 0.007993391504984345, -0.2384783896564005, -0.030300710143786793, -0.11398782876267365, 0.01615097324212983, -0.019141467508991147, -0.13988474187088326, 0.034123419976899536, -0.037452019199422676, -0.0487665393488941, 0.05460738893610695, -0.06648788413295383, 0.04525517865718214, 0.011627521853012966, -0.18336729414192365, -0.1538414159950326, 0.25351104225802407, 0.1567011411999307, 0.03273407832264464, -0.07165231877015027, 0.03595080239498609, 0.07127094354410302, -0.12711738136634285, 0.08147839657421432, -0.0114424413478181, 0.08234821880161679, -0.006207906412641172, 0.028479490558120463, 0.1082145844835875, -0.05912072946467445, -0.06621278275751317, -0.20869327453117756, -0.04864662339546107, -0.12240238575237267, 0.06483003224202065, -0.12024874756495181, 0.013576955693833909, -0.10191674971239445, 0.23585212505281686, 0.11937413139757823, -0.11323753043245043, 0.026617747578339124, -0.13837096075363003, 0.004271312460673881, -0.14443382597378146, 0.12315355317892396, -0.0979093116567476, -0.1093040407916188, -0.07890941298658019, 0.07823884617477617, -0.1140536169875947, 0.04247655403433023, 0.15835639693951312, -0.04311211590147839, 0.06503092698757924, -0.06657312403053679, 0.09267159436237496, -0.026263144850828424, 0.0018265448938283393, -0.023904992896065357, -0.02012132499112896, -0.03673127646443047, -0.029205059233611993, 0.08930568110912643, -0.044963636763628134, -0.09690711136755881, -0.0676675265487001, -0.09887395085491496, -0.09254839931270822, -0.02239706445409292, -0.04051212113775341, -0.030025689155323377, -0.042297352135759865, -0.13471626595679473, 0.04339422344150796, -0.0627148284781887, -0.16729701921302365, 0.015584995345961167, 0.0694915433522465, -0.027127163640365035, -0.12726410177812572, 0.0024037452734118133, -0.08296265050761403, 0.0920246363888304, -0.11629367671367126, -0.21580226981814143, -0.15158721567764555, -0.041391421335342085, -0.017488485023604852, -0.038345003063477524, 0.111320799817238, -0.04637785422885951, 0.20021295892260313, -0.009716244372837532, -0.09567140674870737, 0.19173193480867004], [-0.03465273189071584, -0.15019780189450113, -0.010885033237264653, -0.026643383724509574, -0.06938794772251076, -0.033928950096754396, -0.1940767419047478, -0.12157054548329105, -0.03740921259432962, 0.0016891286188845203, 0.13052754414160517, 0.04407585676458456, -0.0859526403354324, -0.0798450467535778, -0.10500945420915825, -0.04961675864196353, 0.037870973510933444, -0.05132356919775334, -0.1360532914118413, -0.13633457529613885, -0.05518472420216593, 0.15104700953783023, -0.1679630540932059, -0.11414637372247519, -0.2248998630617357, 0.07796896073993095, -0.06137803514260475, -0.02030327526558332, 0.05990439280737503, 0.1876663290678554, -0.027364658360919114, 0.0013086805658485139, -0.15906811429374001, -0.04236648926358822, 0.02007438199788963, 0.1936799841381673, -0.027027248581254, 0.012438277543675134, 0.051705291876152186, -0.08607347317853346, 0.04674026728653292, 0.026841385747732472, 0.060840640433507724, -0.023636476401349815, 0.034723195541142886, -0.12433638039698654, 0.15469885561426447, -0.039560055590495954, -0.09783010384276913, 0.040068255819736796, 0.018946182566335217, -0.1342740922448868, -0.03823704728575013, 0.003131645594032883, 0.18288325900030436, 0.02452429659880509, -0.12747547824389172, -0.14427294589903492, -0.07624318373572123, 0.1519611555192801, -0.05772521486679699, -0.017666116177400926, 0.06422212384595508, -0.13137491035547863, -0.07329417749162508, -0.09991859690690108, 0.08286438403685814, -0.13136614089457296, -0.09670705579637717, -0.12399810082803775, 0.02193699887690528, -0.14979342664520454, 0.04420037681579903, -0.10676598911011191, 0.10280334998883332, -0.005477436753591371, -0.04942579730640839, 0.032608657001902644, 0.028537369790477843, 0.21484852681098912, -0.3224126304484569, -0.2637335920310046, -0.07428325498321148, -0.11788207233396333, 0.1541083142068147, 0.24558752230755163, 0.042464522810796386, 0.1811896620238429, -0.0779340343235368, 0.11413093081024105, -0.09782099264938207, -0.14452736106620165, 0.04122481825879471, 0.1252632163588698, -0.0673702335270244, -0.060036261858637543, -0.002830675084119089, 0.03885056415942575, 0.04047171045002994, -0.09159447851614111], [-0.1019533872420445, 0.11974059856388153, 0.015244226534970613, -0.1572205493469414, 0.058788114595227293, -0.03998268581211237, 0.05302874751391075, 0.07521401192929128, -0.1470068194942325, 0.05904514341492761, -0.03422799747624464, -0.029393517314060758, 0.07963426766197222, 0.1566248341626042, -0.10559716529861721, 0.1376019744682031, -0.08444291541042288, -0.049985393955270796, -0.08861264791048512, -0.05095920796926127, -0.14604088318668493, -0.08888645590713304, -0.1644850586016287, -0.011510512288523365, 0.0611232648847731, -0.10464856899487983, -0.05735065978332924, -0.1481804172165469, -0.1270649298974987, 0.06194238237487192, 0.2975645413507626, -0.0006925612034500607, 0.19710551287543707, 0.09552913075363433, -0.0888723070554174, 0.012795223210613538, 0.10838787531104646, -0.17378210559852225, 0.11228173115036888, -0.024473109139176347, 0.03189452585603574, -0.20900691296075757, 0.07266101060970141, -0.27674772779983325, 0.0035186673191629873, -0.014601760845743423, -0.12683000969828168, 0.17156360443284166, -0.01499035078547535, -0.12291186329737964, 0.0915073309165014, -0.15562840400794306, -0.022728539515818425, -0.06369792515352342, -0.12763950398312202, -0.04930498785736473, -0.05436239793783141, -0.035606292021739476, 0.10296515402430675, 0.06660229728875797, 0.04227677710764706, -0.07375581302014798, -0.0013401523028760416, -0.06600965251098691, -0.04045817228817569, 0.030497703105589993, 0.05861646304107149, 0.00926636949137633, -0.020010512408171487, -0.05192483537067874, 0.017458750661254147, 0.0015120896696413921, 0.00961372772201331, 0.08475031941631006, -0.12126363228249029, -0.019359683091117123, 0.0039109922059243135, 0.013794799527378367, -0.06961580862238691, 0.03875055190718898, -0.04388934599335294, 0.030723417435516084, 0.038668018588258544, 0.007352063764120779, -0.10399163744919349, 0.1532038476015268, 0.09684895298561141, 0.052265378335678216, 0.04791293663080339, -0.0758169277462596, -0.09690773485116455, -0.11636283319490091, -0.10377873308069877, -0.019853462734864585, -0.04960671987895132, -0.0002323480997183169, -0.19642400231880494, 0.14278893583509303, -0.06694675356540943, 0.14049586486130222], [-0.13321202367261517, 0.032794142855432265, 0.019371648949492115, 0.0893092995877082, -0.11816965354459237, 0.11952575078715687, -0.012244610335353356, -0.04768853917545322, 0.0026795181973228764, -0.1633766507923786, -0.11626975036699508, -0.003293985202700299, -0.0037220118095197974, 0.07476960390157837, -0.03624709252123762, -0.08744694199934124, 0.07100630942283818, 0.16673320442872863, 0.05614030866359653, 0.021738006841412912, -0.05190358015979403, 0.10115130402478033, -0.037392318433662655, 0.13312330686449805, -0.04773790588457433, -0.09922275351685558, 0.15097111674382593, -0.09095525177160656, -0.14237858039503495, -0.03460179801884378, 0.030271177201871464, -0.09548809803520786, -0.06951303881078628, 0.10815751487990691, 0.006785120798566019, -0.06450127379813685, 0.1322109705751228, 0.10119368439394279, -0.028143989904882313, 0.01815756974202126, 0.09908411357670664, -0.1458523775725976, -0.15113912137888572, -0.11647452321887375, 0.09281507933173433, 0.01038881011155552, -0.10388741195478145, -0.1797545667617346, 0.047545180322535706, 0.09229828411226593, 0.021907120427866855, -0.013166329871983863, 0.028438821435769847, -0.13343437450050205, -0.10078101951166307, 0.04855383175273016, -0.041393433159450856, 0.12641407962251897, -0.0636250026568777, 0.048543685454926586, -0.021156744051425203, 0.004717970758081824, -0.03204651658490003, 0.16581183451700582, 0.040872676968090646, 0.06619554260959272, -0.031024487610934234, 0.04869772794602329, -0.02525295136051564, 0.1841925631949259, -0.019959152513643677, 0.044659186265119284, -0.21337993928357124, 0.01808716945471332, -0.09963525542500759, -0.011244646733611375, -0.06678162039387651, 0.024648267901884926, -0.10048183803286881, 0.13747815951520492, 0.06728729834532286, -0.14835943229521956, -0.0911069666646756, 0.032535865924774414, 0.13191271112862968, -0.13368176020319938, -0.0770587559933838, -0.153278553174142, 0.011280923462418371, 0.06263245989655497, -0.02616357491651628, -0.02480763321668126, 0.017335010908482103, 0.020122049992440705, -0.18956509777044817, -0.042930062572822274, 0.06966074158864594, -0.0015927564655466948, 0.06332666606204042, 0.03881936667640067], [-0.11506859656783677, 0.024824426040591888, 0.08509363221009308, 0.1536978633104122, 0.10530545031878986, 0.049046629861500955, -0.10440624033457689, 0.011592398067773242, -0.002035719347046733, -0.00595439740597591, -0.18352037079515543, 0.004468928660774594, 0.030141882622549555, 0.08965998843729597, -0.061864504693616575, -0.10478773252678093, -0.10424288064105967, -0.17927816479274214, -0.11271209789779157, -0.07036556492058764, -0.045668614894547946, -0.15695505696341389, -0.2077382749619482, -0.11621710263869223, -0.04449638058316842, -0.07469116479509585, -0.14869700255077756, -0.037473276932900056, -0.17140066812068044, -0.11710240873858713, 0.12505525307589388, 0.04651691114486095, -0.09424133334777754, 0.09502347259713977, 0.0588249802959583, 0.0212100008411167, -0.02661128447324028, -0.20967277609998516, 0.0731208747417054, -0.09532078121063285, -0.17808851479406082, -0.12438258139042108, -0.09608754350021707, 0.1799665589250159, 0.08990411427957637, 0.08595081748501426, -0.13545025558015686, -0.04074753553516264, 0.06256359844686366, -0.031229436343465967, -0.09040152330846978, 0.03223235022265251, -0.15225230050965302, 0.021764984352027672, 0.03187032017946725, -0.08235545895433694, 0.23541603117234297, -0.040615142866561364, 0.11801348562582355, -0.06523387640998174, 0.02862265408230188, -0.07714584860705805, 0.0431660883294087, 0.11546221524735739, 0.2161417654990928, -0.05226659801946855, 0.01110864245224891, 0.03092646382319684, -0.17848376643280672, 0.042927344241005125, 0.037984714884515755, -0.025687439902217182, -0.0978601826399398, -0.044939949237657456, 0.06547434959296607, 0.04742044415166933, 0.0535647037025738, 0.020248637251248064, -0.08806398612196137, 0.06593702584772475, 0.017203577614905288, -0.023668942470138704, 0.04636647505060545, 0.044302613273063576, -0.07836334439783203, 0.08864901475571141, -0.07615577535866931, -0.11117293905789348, -0.07366381549261052, 0.1323464711691872, 0.13272038100002662, 0.004602652574044675, -0.12179759033634874, -0.035173631367078705, -0.019785419225587617, 0.18388356253396, 0.11590982851885345, -0.02261353259277359, -0.11264281411543686, 0.004686084364330564], [0.07484475633411426, -0.032968848338347796, 0.11553615823159152, 0.10307564196653372, 0.06841202214408182, -0.049220659632908045, -0.026197108685770704, -0.07910394506179896, 0.009564137925334587, -0.18209623685693455, -0.07959906051946644, 0.15765568874115476, -0.06626241065050141, -0.18432510985663852, -0.04098603459626432, -0.10943270005884631, 0.1732881643292793, -0.05605753308269225, 0.0487293473199386, -0.01364912331996898, -0.08477005330432905, 0.008342353500614496, 0.11843947314979851, -0.03493695010539755, -0.049895185247894935, -0.006882489459497024, -0.18666679694750543, -0.063501029905481, 0.13875188055476836, -0.12154440339909973, -0.09094230445599921, 0.0815257225490406, -0.12586338435691563, -0.11952910248291503, -0.050393862653658784, 0.13253542099761606, 0.1557926042601843, 0.13611434449357956, 0.003055930422994709, -0.038786627304111795, -0.07426948088955987, 0.0643083864778269, -0.2084842315834926, 0.03197610521964591, 0.12917803366140088, 0.06905224147592022, 0.027407874136614566, 0.018272040457806248, 0.02469322967979815, 0.2259380210032664, -0.02045612751453403, -0.13126530332108857, -0.06641863579162914, -0.24041922630808382, 0.13401794585719018, -0.005649828766577932, -0.22412901311177647, -0.14275432512358618, -0.1155395355995123, 0.0009812325789988116, -0.2467895056399637, 0.11352845047428937, 0.054706226416761844, 0.07047748009033039, 0.007922701517405392, -0.0452121348117692, 0.09985422672806818, 0.017242038820970324, -0.13992403130542927, -0.04699168223441128, 0.004129616625472692, 0.03393569275062872, 0.04174849766070678, 0.1109786983624576, -0.01345240086831804, -0.22853787633894573, 0.025570585185386487, 0.11031313978690944, -0.11351216015390196, 0.09098837080156795, 0.05966795585246287, 0.08648219630016411, 0.21044865049738629, 0.11782633551141962, 0.1408044297911219, 0.013848868561610174, -0.03382897126963278, 0.09259877129475876, 0.09401652141061101, 0.0045103327092036035, -0.07084051641016338, -0.10897754646575386, 0.019495267609403937, -0.07445580449654525, 0.1016198725461627, -0.036894627724774635, -0.03821891658426604, -0.01632136772135571, -0.09461386751526149, -0.017828020715168934], [0.029806311278413572, -0.206127805407453, -0.03788515746200363, -0.05922439546551028, -0.05071770442419865, 0.14455214284798845, -0.08075713777110911, 0.15543640384101004, -0.1300179059102948, 0.07608866956528768, -0.2652935301449803, 0.15759188637942068, -0.07392371672415463, -0.04675932080409456, -0.24246712308635102, -0.07777674451310285, 0.05700635460966841, -0.12902580005641073, -0.06479563890745275, 0.05834116433484369, 0.06455876781033835, -0.037671965729671936, 0.050583077869423336, -0.09341228371430628, -0.11416256028433698, 0.17537942782568874, 0.0748997653334538, -0.0026036264479555116, -0.09406395710589138, -0.11454422035497219, 0.09565960654630845, -0.09738426959357488, -0.008722942219659517, -0.012667189506680429, -0.007427221416985437, 0.12368962604970349, 0.07984084660573237, -0.029903438537328766, -0.07159466842687427, 0.03344377418047746, 0.08694476376867283, 0.02043911809301101, 0.02666163946828953, 0.06799947747135059, 0.07065611963179239, -0.028807596473188774, 0.051801801901580936, 0.08004972073169965, 0.15517298184894246, -0.011252363913071486, -0.005750090280503335, -0.017549705676814988, 0.1900998035025888, 0.0940625623126467, -0.24032708372330439, -0.0534636405980326, 0.033109556141787164, 0.052073054676497754, 0.10934114503379266, -0.07248532519795862, -0.04006414378702378, 0.26479338350595144, 0.08923608172362597, -0.1412480789894973, -0.030149621074967842, 0.12023619156469395, -0.07512705661786367, 0.050481152907246175, -0.053149096261019685, -0.19424540883938157, -0.06317153985125096, -0.02300254436001542, -0.0662842175202633, -0.09036094909196118, 0.09550598252245462, 0.10833619665681873, -0.07391999133276714, 0.12208225421649209, -0.18316327134827937, -0.05702513094133881, -0.21672016596853558, -0.016672525353455193, -0.14580331597573, -0.08517457424264906, -0.15817667173656624, -0.0914081739966337, -0.06930361223584296, -0.06496222190508015, 0.060734391974857284, 0.23470854851205336, -0.11928951846295568, 0.07047016970016433, 0.10256721620046348, -0.11884450998777392, 0.16322332951872776, -0.09131053162288644, -0.034153253502305185, 0.006018009836929822, -0.12948782801217731, -0.004906086446868546], [-0.07627808681084458, -0.11258185962592192, -0.08102667820477356, -0.14258093300202687, -0.03992563889184299, -0.01856269317527637, 0.16563239326729606, -0.06212909565560373, 0.04073309821903379, 0.006720747469112738, 0.07205438235001256, -0.1227024584278039, 