{"generation": 2, "best_player_score": 40.0, "best_enemy_score": 0.0, "last_player_weights": [[[[-0.1349806839475426, 0.028213400250863052, 0.17407880669628104, -0.0723301446925293, -0.0961415608147604, 0.06783091115384765, -0.06298553205875024, -0.27263165384068444, -0.1303938829306994, 0.08491390149182994, -0.061503831084876746, 0.002131776814087217, -0.051477142470380315, -0.019994232069100098, -0.05658635141240457, -0.043205811538066956, 0.06321784392296144, 0.0033840491109827496, 0.016250615905688985, 0.0007346122141351127, -0.07319102746416603, 0.07232195475849337, 0.015005249808029726, -0.14657288449359504, 0.00943312740610498, 0.03826729407074859, 0.16773501969291835, -0.08619654325712361, -0.05131392462266831, 0.013133596913225975, -0.1346861395657626, -0.0002865680928624648, 0.01605399344426352, 0.2364123357107242, 0.09429562237913067, 0.0482657492786706, -0.04555616315997764, -0.08769008195990152, 0.23400483846879638, 0.03865974559236636, 0.007160141401646271, -0.11500683149948769, -0.04965446835568985, -0.046192476310435895, 0.08300268061527907, -0.014592685281326156, -0.08197337527519567, -0.062054197208425366, -0.07053972089243044, 0.0640376069908266, -0.030857739046249753, 0.134329283325046, -0.060681363759218565, -0.06279743942517815, -0.12975985985389243, 0.1939862571876783, -0.011595356105042769, 0.026473542322746447, 0.010440848232843589, -0.1611315517451507, 0.007889009333290653, 0.1606080518237354, 0.15278928907696107, -0.003238882938706911, 0.02256679223173642, -0.007753937740110813, -0.1078236432597847, -0.20299939658237112, -0.021185108923291996, -0.03658341183985086, 0.029492756094581452, -0.03841456173509394, -0.028278850100102476, -0.2217722205239701, -0.11861392449163592, -0.033258036334325315, -0.019746269254823662, 0.1227795946643729, -0.031066512251033192, 0.015249316360550866, 0.04337186600986045, -0.015014998119250882, -0.12429600198595064, -0.1628781538666131, 0.17496963446426472, -0.026667191384316693, 0.1572627736044806, -0.039852480917550254, 0.12492722275712388, -0.06697070384643215, -0.0025149874461228763, -0.03370972914911924, 0.10796166177234867, -0.12587693781966308, -0.114206245135745, -0.1271468992299683, 0.06583928698416736, -0.12833625067134777, 0.06123925066600377, 0.1530314018957693], [0.04990631347806202, -0.03252059239957486, 0.03193727395511947, 0.02083336663190703, -0.040655046200526304, 0.07358240486854438, -0.09156922089018096, 0.06474102497207442, 0.057011306502079986, 0.03995441719026431, 0.023000745779882144, 0.02289856663483778, -0.10631945450118264, 0.12297453607776798, -0.024056572635289902, -0.019165609888657904, -0.01375086830190743, -0.029297286736989107, 0.017411552513258405, -0.02777235533139595, -0.1356130291559379, -0.18699725682118037, 0.003296681435454215, 0.01743292413188817, 0.06667179790940232, 0.18126311835995262, -0.04445417864116046, 0.05763353788277025, -0.02457160775944787, 0.05071308030662505, -0.07763845373334319, 0.0362474009679752, -0.09037582608702173, -0.057320335470189145, -0.18453889176450872, 0.022220237734045186, 0.13125143884597168, -0.07258485953926307, 0.011443080397393128, 0.09020790198608229, 0.031301946748865224, 0.05946626651197044, -0.0014999137010801742, -0.17477103094136762, 0.04378280343873121, 0.13582157421869254, -0.06866482165739644, -0.10997068965880642, -0.011370661158699683, -0.09861311305890617, -0.048118463154879276, -0.06634728679974715, 0.1597656170885915, -0.004223097037775512, -0.06782083108861203, 0.050240630020173885, -0.019869316307178995, -0.005207558762976287, -0.05458331682541432, -0.01826510198671048, 0.03406828607234644, 0.028355016857517415, 0.05719313917249359, -0.06784054741265193, 0.001448363168855413, 0.1332898771114841, 0.13240859073379593, 0.04510348567897525, 0.13804349078330375, 0.12301241156741874, 0.20015490903993569, -0.13743229574371105, 0.18311631026377598, 0.012367854347608554, 0.07576377399137185, -0.002746605907308436, 0.04385378538529039, 0.09045180136532066, 0.14706446344282378, -0.05642468080636549, -0.08787204182001002, 0.04987977599091425, -0.03452403942019398, 0.047543161719942606, 0.09644860034711523, 0.2552966719620952, -0.10645136649043206, 0.01781031958255446, 0.03153795010031637, -0.12513585340873626, -0.05564085234823767, 0.11087587760077748, -0.1137855723022114, -0.00017113195331940585, 0.04913329519335265, 0.04777314804895623, -0.03907352309382279, 0.24466855923087774, -0.06443328672497699, -0.0058542269901212425], [-0.011152997343119296, -0.11270607693166945, -0.07502282368930313, -0.09212964657593088, -0.04961590289672204, 0.16593521279369366, -0.0817047310791736, -0.20615485409170314, 0.056797565153992334, 0.05509618420080147, 0.11753874262169876, -0.005987622481104849, -0.06602606733029803, -0.08953972600861218, -0.07937848169905508, -0.00570243217653993, -0.08659523347401073, -0.06932943022791432, 0.23382303640511404, 0.15487471863964275, 0.03748845350828295, -0.1297825737318761, -0.2513354099672874, 0.11889454116632801, 0.06481727454155234, -0.08805485449292982, -0.10296938914925594, -0.08591884714696416, 0.1389578829617901, 0.15471330071735898, -0.12715798227876457, 0.04681169008245692, -0.09142910050517784, -0.06369377503249035, -0.0004510563005798116, -0.06819824901191873, -0.09917584182415565, 0.07664913365695783, 0.07452972325274715, 0.10115777139396726, 0.04947057575679484, 0.07297570666404994, 0.07446121775542962, 0.13116977796733065, -0.0688230506377848, -0.21779439309855914, -0.0001822452251038251, -0.0906702535053084, 0.10470550039121974, -0.07851945646753321, 0.017394071717950765, -0.033452341768835506, 0.08081111073985495, -0.18668957717902135, 0.18438634968195236, 0.07453510530784152, -0.0808096065119406, -0.08762227335117935, -0.15643876860628658, 0.07826675772476276, 0.03626441053139249, -0.052197007480730494, 0.006453462146535516, -0.028189330117787226, -0.17549781878592013, 0.06586208611179892, 0.1340681953484398, 0.048211623320242716, 0.03674382357347789, 0.07615559814473447, 0.07880299999419432, 0.06037667484570771, 0.04944899451622328, -0.028242073323325446, 0.02113036925894833, 0.07004627970303501, -0.0024942488800114284, 0.07090130619762318, -0.10096000267648426, -0.0030915300855755483, 0.06068693239776344, 0.0986028114712248, 0.07121485997967718, 0.07333379988097437, 0.022272830346785035, -0.07891238202998732, 0.11876404687313964, -0.11589804856824121, -0.05011065734709038, -0.010652088508570547, 0.011786279609753396, -0.021496909079350025, -0.15500215568583345, 0.16074376223180128, -0.18993968187724278, -0.10939498353653905, 0.00802159397133291, 0.11933151095522612, -0.08535833608765221, 0.05993810288661545], [-0.06265223701901838, 0.03588480343061632, -0.11597112897950469, -0.12759774920056266, 0.11192189803664943, -0.07627891030672428, -0.14408468595437712, -0.02424015851821309, -0.1214958159453335, -0.08898649799692068, 0.1322204976435649, 0.11541360244289096, -0.049414111392934966, -0.2766059138032526, -0.0536446467939091, 0.02568122637240917, -0.13604609379692198, 0.05141663013070386, -0.04278856940240847, -0.030633893711162707, -0.0026184518828667206, -0.07091689651654746, 0.14608520282176973, -0.09542647606687958, 0.041207432258375976, 0.11705732284274238, 0.045054560627313084, -0.06705935326116969, 0.028635549858299063, 0.0907843604407168, 0.023213821188546764, 0.08888157660516878, 0.002748599857734938, -0.1297912847264359, -0.116025700343649, 0.04910010201344303, -0.027970655428139844, 0.05119139800102446, 0.001338019949617969, 0.05246202184372164, -0.0856921905206089, -0.17074057535551584, -0.0821563780608886, 0.04496659222587279, -0.07277016807494657, 0.0070280006413577225, -0.014253174229404225, 0.10521756800024289, -0.004147182088132273, -0.07966947326998171, -0.12074024399628423, -0.15297714479951746, -0.04537229505709117, 0.08898606395203099, -0.21555106112667174, -0.06261889888455752, -0.009027505107005685, 0.13101720190000343, 0.19271888891821992, -0.016596147166733827, 0.06086757377432089, 0.053781555088893464, -0.010071272855334795, -0.04390810158038223, -0.07070480703507594, 0.007953007016535455, -0.07600660959562511, 0.19851560640418664, -0.0023293018454497326, 0.20759934682887554, -0.029622386086483436, -0.23348136717002532, 0.12485734458132929, -0.10121432940818335, 0.05893525186983426, -0.156763188757591, 0.06846605028454728, 0.061223084569188575, 0.1086097955244733, -0.08266162637962425, 0.03612829843650023, 0.06293411894241512, 0.0797398207106315, 0.004627446573093544, 0.025916205559193443, -0.005215987590862132, 0.028643362446561554, 0.008831338831555346, 0.2932530012673673, 0.07696660069416404, -0.08573824529414432, -0.0953014535433345, 0.011518300764928687, 0.09937111753470526, 0.0533588371089402, -0.049370083999333805, 0.05824991183642234, -0.012235393324506773, -0.06294838326737388, -0.0837529379540891], [0.030103679318648532, 0.03052751997160117, 0.023991883204296967, -0.018587737973219772, 0.011067062205280332, 0.018816670094078822, -0.19079442106873987, 0.0728093108336751, 0.05401976754775938, 0.14536844080869443, -0.019148772064769608, 0.12293207746365221, -0.0052463976398268355, -0.09275355137318474, 0.00911789326870728, -0.003909907421027894, 0.07312322291755662, 0.08772089391856606, -0.014401792652755825, 0.1324731715799485, 0.10648813216618162, -0.11073754316850921, 0.044481498601109344, 0.1611205587970606, -0.033339494163441806, -0.04957883633327929, 0.05836436708967719, 0.05434986666543571, 0.06271156348443899, 0.12577368404799572, 0.04034239026249954, -0.003503952416751728, -0.13444035862694242, 0.19942791567174212, -0.015148684855835261, 0.16651381868742943, -0.039167318059879164, -0.1104575967479253, -0.09736603687586566, 0.041509455201550596, 0.06369300480888884, 0.0016591368176636387, 0.025515248938391865, -0.07326028137726547, -0.01912101030642326, -0.01032825195405292, -0.22664797372273696, -0.13117953879916544, 0.07509243722325289, 0.15233472744669188, 0.11306934782436434, 0.010235771113810728, 0.07132244019360323, -0.04670597381615155, 0.06877338146485563, 0.00504662192831808, 0.13470839653607505, 0.11903938471120727, 0.032943462998494336, -0.09295070190520645, -0.03719832587351761, 0.1660577931056968, 0.11509136316020567, 0.08610862081877098, -0.04161168412596239, -0.06817490201619301, 0.02765803541801606, -0.10196703118428982, 0.20229399761133027, 0.13669174815640217, 0.050130921678246135, 0.11060979788575069, -0.021940162491627543, -0.05269210636446536, 0.010328242178991727, -0.15224305985366623, -0.04813585623880796, 0.006377256404796347, -0.06391120078765747, 0.053360081977894346, 0.0031501126722181566, 0.033740532505721295, -0.0486872745769302, -0.014056733087714131, 0.1471071886373764, 0.020092725786379304, -0.004842776791161278, 0.13988409826182116, -0.04122415280818111, 0.06077828318891654, 0.016855355820428755, 0.03088805320294543, -0.05088157130915272, -0.15409878229276316, 0.02404430425963204, 0.0011403396720410003, -0.033988615104630075, 0.060502127044644756, -0.05619786436585574, 0.06782895641161153], [-0.09848022705572196, -0.18105241192536944, 0.011613369181838003, 0.0673696024049496, 0.054146752587473305, 0.12941486819560993, 0.01792316985815679, -0.005079417853754937, 0.09702360348603958, 0.12731856751504864, -0.05930502577335102, 0.1739069446923728, 0.02675279216443554, 0.028118920425735567, -0.028888118886253786, -0.07920542448968025, 0.02135414879614648, -0.09916247341551797, -0.02466745863814337, 0.12170403399504336, 0.15351200142663346, -0.038319807749401004, -0.08877817497406694, -0.011212183618862769, 0.0182241318533735, 0.3058281984654002, -0.27274979628794865, -0.026194109530203943, -0.031902177037951826, 0.03444765944649299, 0.04937477913257257, -0.13098436947104064, 0.1244113781018188, 0.01377953475132498, 0.08026408184599822, 0.01458651835153448, -0.06492976223573217, -0.12135007739763695, -0.08522723190634313, -0.04331582966946465, -0.029568129242967724, 0.018510186713191528, -0.22978907385884653, -0.030858714902686043, 0.1070989529043356, 0.07587429111605788, 0.047690500491554905, 0.14182476096410004, -0.14261748086388942, -0.0450078010247213, 0.18034408843185537, -0.07021665411462288, 0.07085454338148844, -0.13606537472838845, 0.15331403156325524, -0.01872491626938118, 0.0964920944411167, 0.14750554681980202, -0.07600797410202859, 0.1612043037232456, 0.010658939353661802, -0.10463909171205618, 0.03768560995190718, 0.20199496677954779, -0.06721673293731603, 0.10373621721084829, 0.0131559391397936, 0.07378401277269551, -0.10006021517410534, 0.058235859168316924, 0.022288872809323193, 0.12110413561243794, 0.01916603094658865, 0.028956338759767733, 0.0035576271566542285, 0.020746285355201236, -0.019106893423272934, -0.1089338007167783, -0.12184177108269949, -0.0215880135844414, 0.061622305424902206, 0.10762721730549692, -0.13596468656082342, -0.14108283535011337, -0.0016701936700248853, 0.08475724922690028, -0.03434261403993017, 0.09668189684256473, 0.05144937979965637, 0.13745987318091318, -0.13958959698565804, 0.02545194252042862, 0.04308894273231138, 0.03769655895421114, -0.02322733994009382, 0.10510025260148963, 0.017214145992212642, 0.16082563107852174, -0.12641276605401922, 0.14318046129688208], [-0.10114820153874993, 0.11865491231050913, -0.13717808684386956, 0.020988330156462606, 0.04970734624902587, -0.029529751731212486, -0.0695141291312653, 0.028713363083875034, -0.042300027108364474, 0.11857953514517768, -0.08779670405466249, -0.08910333924420188, -0.014349732517328831, -0.1651234273317385, 0.013605321008712144, -0.006919694242103957, -0.0022727242620479192, 0.07848994148891864, 0.007528559950709316, 0.010171971676577945, -0.0006169721486007267, 0.038347498191440094, -0.23135115167079548, 0.03801638744271727, -0.08789768849652563, -0.08366358462813604, 0.14365441538716706, 0.04326182731071319, -0.039619247940705114, 0.015864769056312268, -0.08918027586536056, -0.01675085008537589, 0.012278062817439154, -0.03819084334411058, -0.15135380029366147, -0.047045406121386774, -0.02891802662715797, -0.02735984936428084, -0.0046832022304231025, 0.0977456814393317, -0.05611061395050385, 0.025426335792810895, -0.17444389030340018, -0.059086820083275794, -0.042301795241139695, -0.0185490979047451, 0.1587133581308052, -0.006091811860551611, -0.11090750724010864, 0.019313333929290185, -0.12685514876446902, -0.11622610716791393, -0.10094174594730425, 0.17238898111734416, 0.0018835709605246565, 0.11999541358352332, 0.049583827481465254, -0.007627369667126585, 0.032987957894473265, -0.038515825801676604, 0.08790074108603758, 0.06741048680773516, 0.08695702588330778, -0.117009309730244, 0.012680960271189416, -0.10458867460868504, 0.10926011492642046, 0.035270461555930374, -0.06469765765100007, 0.06065385951659382, -0.08160445373594301, 0.16388076037158125, -0.044543052900290155, 0.030002665132146986, -0.07661264311830317, -0.12068344439329981, 0.03717000755492157, 0.06306907520038087, 0.15444079827277682, -0.1399562923349066, 0.03442617404198522, 0.0759084676391697, 0.08373741210050915, -0.07421494436764435, -0.010676912397909988, -0.1813116159887196, -0.1996170584476337, 0.055850951652937665, 0.05626884138794692, -0.12127599305403929, -0.17575118985188315, -0.07811901492572994, 0.05520292672245973, -0.0003182114711516365, -0.09674865638064481, 0.06986063290949418, -0.040454835182904963, 0.1446570386191336, -0.044662034204849516, -0.15647418290315812], [0.030295731323068863, -0.12376464659246317, 0.056685803040529385, -0.07546163628424132, -0.006281171784025375, -0.17069190196542844, -0.032768852483775056, -0.04010380806007643, 0.12113013667791804, -0.007036427411496721, 0.01283903661546947, -0.09332647053032744, -0.03394505729219605, -0.12707940724986364, 0.09080637219923227, 0.2297892417204298, -0.02775672553032796, -0.022169832010037638, 0.047685560788252625, 0.021964474541685305, 0.03524953246393225, -0.023520259536712183, 0.002034734117972127, 0.009509482063058532, -0.055942877016131, -0.15266600360283744, -0.040055878952624885, -0.021201280804156383, 0.031533461811688875, 0.1896453999792608, -0.0633366992263812, 0.048813564300595184, -0.13038276972874532, -0.11808025331613566, 0.06934271103777653, -0.09047340915542586, -0.1052262709042856, 0.052615380892556435, -0.05954838171720055, -0.055305367555920505, -0.18630512666267976, 0.17789272123076239, -0.10589014275255565, -0.009806326825636582, -0.12405018512343696, 0.05907751025970098, -0.08142022722484249, 0.012662243961166416, -0.10181390487819254, 0.07338317533613756, 0.015463450002488065, -0.07963417540149918, -0.09961523453524737, -0.01523395073796984, 0.017279458799995935, -0.052321403908073175, -0.006385907922310079, -0.15525681903399632, -0.12226617914268006, 0.1575907987461321, 0.010093669450712791, 0.17775992224927833, -0.030161094987566014, -0.0909574097132304, 0.014519110041853628, 0.21289123280250766, 0.040902831135882924, 0.0667759255240292, -0.13021646212206636, 0.07697023228934133, -0.08191591328147498, -0.14939621351285517, -0.09446954134512801, -0.14514231447630266, 0.19226819491350425, 0.09867853280046317, -0.037805961442693534, -0.13270477746279424, 0.04256947826727751, -0.07079188463854502, 0.10236684040970143, 0.029152598457411697, -0.003269786910796891, -0.02911414807828763, 0.11077065399241154, -0.018682153592348223, -0.019550566137140322, -0.025833943490270773, -0.12018905289080625, -0.14257338551248366, 0.11103643823168946, -0.06041936636868313, -0.12655931651015406, 0.13113975428831354, 0.16597151639213692, -0.08909344598710255, -0.08066408015596745, 0.11827700128047797, -0.07697032669529187, -0.0844170498306078], [-0.03498018215725164, 0.01236360211264231, -0.09182539474645962, 0.026882383001663523, 0.08730948414590461, -0.017046903398703628, 0.14805616534798674, 0.08942654334049431, -0.12845368397247692, -0.21173408164460547, 0.1506168311611179, 0.054446472776763455, -0.1408498312888852, 0.04467154434456655, 0.00039857474594531204, 0.1401526930609556, 0.07104048150964742, -0.05739227537556813, 0.08673388821360498, 0.032678843081879745, 0.024418081220004703, -0.14257727255413083, -0.048230043721810285, 0.19631941281061854, -0.12362889135283246, -0.04638518898773181, 0.01382708991819387, 0.022020810785907157, -0.018478666153405984, -0.1894393072175813, -0.17284877846134367, -0.11011706171841604, 0.056866001083773564, 0.12212902680972366, -0.04528814960893758, 0.10549041279920705, -0.12213684254914418, -0.05297445069860815, -0.09905102523065143, 0.14807690017088546, 0.0971333768741825, -0.005058071717549437, -0.07284468524246017, -0.07982897476792056, -0.024762734464965463, -0.09043793662518655, 0.014114644940320626, 0.049136414072073135, 0.11235907717428215, -0.15119059962424844, -0.03524431525238826, 0.06337627217348098, 0.054710335427215165, 0.21974843616600812, 0.11195197328645615, 0.10275416812137772, 0.008495526163168553, -0.04108435181325948, 0.005606417613428183, 0.008547905339937961, 0.0213504894221227, -0.005820703459599434, 0.09851254935181526, 0.22725135878730424, 0.024904438078006234, -0.19092468510104102, 0.057763445848418006, -0.10968082309578256, -0.10170104607664351, -0.01981640109353131, 0.07869055064777551, 0.17099174424395353, 0.0023786583092420357, -0.05772629928369183, -0.12581479803174897, 0.0853266570646133, 0.0594241413890718, -0.056300775956969085, -0.0073623128828821435, -0.1380129761551023, 0.06107211935415993, -0.016307161911696868, 0.023787753691959797, 0.0028581498159217767, -0.0035830897329190677, -0.018030725420436072, -0.16789541343246017, 0.04857081771671297, 0.12306420201576833, -0.15123667666964308, 0.0933291562506461, 0.23713170563376448, 0.07153753275743081, 0.13580598861145735, -0.011727114387055577, -0.010764740548484666, 0.05580268915979894, -0.0595637186990246, 0.014284768095533933, -0.1676252415019771], [0.027242344604538355, 0.3060078179511633, 0.0612738388809924, -0.21187729158345242, -0.06531731247433736, 0.09169227379210257, -0.1296374214076675, 0.05691964652410099, -0.1400722706598538, 0.02466129456406406, -0.03631483747465007, 0.19020232491524228, 0.10319903203210536, 0.0815256844333999, -0.09446595296175739, 0.0317192171351448, 0.00829168313667637, 0.08312882079745065, 0.11105222092959864, 0.09525582763830742, -0.06912268676368588, 0.022003170710683754, 0.032955133326984985, 0.1266558283167423, -0.28217856157461346, 0.004133348402741652, 0.04673439822578005, 0.12123454082135024, 0.012283069207898943, -0.09932781679040284, 0.041482152824871936, -0.090769055089913, -0.15567450545050432, -0.01937439191520047, 0.054200240713768756, -0.2118385845897048, 0.12895542741636554, -0.08570428377710912, 0.008159082962985708, -0.12329628222690024, -0.08554529447797396, 0.09127099254060761, -0.055682292859566926, 0.012333226269185558, -0.09418289444095736, -0.0014969865868868025, -0.02777629385028177, -0.008282470790906724, 0.095404694705997, 0.0635541752419279, -0.06623578209349498, -0.12622876729165208, 0.016834082642868356, -0.0016374228056973044, -0.047130417440748494, 0.025711132196232892, 0.04674759976721272, -0.10990531582654807, -0.012431490353487163, 0.019859842933491103, -0.05279742182624002, -0.06121880813881192, 0.07294090985308473, 0.1124495520890143, -0.16489789424458762, -0.13999244449100554, 0.18352816312143141, -0.15805648947012438, 0.18534394656429856, 0.027749827197006735, 0.05982308038385132, -0.02318483827815057, 0.01692057069557948, -0.1892440571386145, -0.07338188851136326, 0.05269744393911889, 0.14902245989753707, 0.08875183843862176, -0.07927014263396714, 0.1060123627165258, 0.10737180664571791, -0.1216719350561566, 0.19474422853878293, -0.24445859179904406, 0.05583287472380004, 0.006353353711698286, -0.09208215097406963, 0.12141554054297317, 0.0012410606468980013, -0.0805870216530198, -0.17036743265886836, 0.07148591873664528, 0.019632119039529126, -0.0440485821520656, 0.018726082877403395, 0.08593123877699492, -0.021776370678108954, -0.004629843308645448, 0.004413128021307226, -0.01508893816560894], [-0.3208241545783136, 0.059466038445322784, -0.08404637343007751, 0.0392890254157548, 0.16509532533553148, -0.09264418284298102, -0.12947652024954096, -0.051822316268663585, 0.11291752877619454, 0.07698803435100635, -0.07112730705618676, -0.13927851072590341, 0.02490997125607758, 0.09102325582793488, -0.013052562800562271, 0.14470785929913865, 0.05760412804321439, 0.06701996465371754, -0.014754849220871752, -0.12571887988096997, 0.003776310949874885, 0.105478308028019, -0.2808900259017034, 0.0820067379764383, -0.1109349617922037, -0.02525485313701541, -0.16073377770471395, 0.09481803699305104, -0.10097957158058009, -0.11097481372384566, 0.07432382941195792, 0.1427494451399324, -0.07675719991694699, 0.09247091391893228, 0.012210643730871626, -0.0059345718156428055, 0.03858258673973062, -0.04284163759157984, -0.15284141027701084, -0.06362204266444842, 0.09397947674773582, -0.17944016468890944, -0.013680192826854063, -0.01769549366376395, 0.19434277149146612, 0.07966778137379213, 0.11379370624725077, -0.15444079529571436, -0.034970342916284806, 0.11427505684609324, -0.21293493730527427, 0.03686766571752203, -0.042346591799098054, -0.07042595867682783, 0.006809878048456332, 0.08460479333008256, -0.13268971685096584, -0.02720124107455205, -0.08261988432949682, -0.06631661420721667, -0.08601085589955429, -0.03355735382651794, 0.055445512300876035, 0.0849049736007548, 0.1250872124879561, -0.026568408128679753, -0.05253206571932238, -0.0996011085206492, 0.0367613982601749, 0.11979044454025412, 0.19111770184603571, 0.15030034478936546, 0.010466804141139967, -0.027793516661693315, -0.023283862910416155, -0.1710042058941842, 0.020376748407554702, 0.07505588936601876, -0.021866375639772652, 0.0918260478068479, 0.05360305892043584, 0.11001016096657001, 0.09627510169729402, 0.018207463920190146, -0.15151195441788298, -0.07572266855166901, -0.04010787709005088, 0.08344512691705867, 0.17475511377197114, -0.06293481417607835, 0.0454669174273929, 0.06577613250134291, -0.06840589089777994, -0.13140472930938094, -0.16699045887138522, 0.14612004381855187, 0.10373073333844272, -0.17991075944993257, 0.019106769296007804, 0.15270111284604482], [-0.09198433974723948, 0.22474056787229113, -0.005689745417348692, 0.1313777510614618, 0.09241624484800946, -0.03303912593431344, 0.249883751602984, -0.2893700712135686, 0.046852630330131984, 0.08180921960819437, 0.007330823863039222, -0.004771315128904582, -0.07887175207069645, -0.06690260216536766, -0.11301884144627139, -0.05318789999928946, -0.06893958774557415, 0.08684762834370666, 0.22394545658130843, -0.020754578754455983, -0.07695233989640768, 0.009965292277817004, 0.013506174287726089, -0.12440593119298048, -0.17375340316520496, -0.22714677295711377, 0.0411808054437975, 0.0031299957168586462, -0.03508739981934246, 0.004285117937183862, -0.241930325411758, -0.053974726839727746, -0.07083373479686868, 0.08588945783706352, -0.04854921550553618, -0.026413863144710403, 0.00820890264526144, -0.1283894849025403, -0.15937124873748199, -0.03309757855464394, -0.012568941157136729, -0.09394495911125877, 0.03925562881359499, 0.11117383993189156, -0.0034568087802133115, -0.04519561611569813, 0.11729218922210935, -0.004448701976231001, 0.1388753205588813, 0.04379486604431971, -0.06812512012242616, 0.01650017709642527, -0.08498906769834709, 0.011351998511528535, -0.16547267231260482, 0.08019892686015072, -0.08917748079209079, -0.12011285169627485, 0.09266694497019672, -0.00552126613975722, 0.22901783931502934, 0.0450397496221231, 0.10392865188146433, -0.116055814024647, -0.2350075835866317, 0.005880829328674581, 0.13961351200506933, 0.06228177632772868, -0.028336573110119268, -0.19810985031219683, -0.17776072066059462, -0.08323376600801101, -0.08833343999994399, -0.15809443749606714, 0.1452181001446105, 0.20648111881849177, 0.027497964959367825, -0.1328177564327051, 0.14478327398800728, 0.1287057944580155, -0.2315036244333449, -0.13163360468036406, -0.035361946114619555, 0.06146948751179342, 0.055237414140701255, 0.043916251093827484, -0.0033422332979426966, 0.04921620466187886, -0.056855884030574615, 0.06683969819571053, -0.0479439171100878, -0.014585519725652665, -0.2986774797239614, 0.03149401598796636, -0.16117819697374997, -0.15721085326301973, 0.017659025244426054, -0.024904602168972775, -0.037435332892085234, -0.08373495494739579], [0.03946465909911731, 0.08449619158214987, -0.3066702888877281, -0.09782918108934652, -0.03160637990010973, 0.03024568999445661, -0.06374848356175387, -0.030929609114593692, 0.1421417628974189, 0.1420766327283337, -0.12364533409544158, 0.16586425304951766, -0.12865497241308518, 0.008859192560189074, -0.18246195374941168, -0.056431801652367206, 0.10524811481460453, 0.09595984932095239, -0.06893352598763801, -0.021848645616347633, 0.01295271824658929, 0.08207853409336631, 0.0017247909426815829, 0.07265495531839392, 0.057053331425835324, 0.014049939217019608, -0.01251618015162553, -0.050489636120292225, 0.07528985105202886, 0.10291340014244298, -0.014195237790217221, -0.0434761871244677, 0.11022460472000009, 0.24911045621245073, -0.13747914856808513, 0.12890214104669478, -0.03605351005934907, 0.011973169033951887, 0.00768411961411674, 0.11189538326878377, -0.018662947584498147, -0.08285990565574336, 0.03336186365389978, -0.18221525314678547, 0.08525878234969, -0.152809050603967, -0.07386106778203723, 0.21938277620551988, 0.12629130201301544, -0.0502338487302983, -0.10679967909037986, 0.03799346400840297, -0.09766301860876368, 0.1371875461343037, -0.009120788516769344, -0.033339203138864994, -0.12882190012674719, 0.08255203930266876, 0.022183617942565178, 0.04991956436029923, 0.15965998103502052, 0.09833464761768977, -0.0049392541335385115, -0.1911356254913581, -0.036069547329773945, 0.008493797911313272, -0.04217773927939034, -0.1991254096284303, 0.0037238284818252804, 0.0721544834522507, -0.1963822520566338, 0.0810894840635372, 0.22436510219978495, 0.038443622824673444, 0.06172605520971875, -0.12983845700042523, -0.070765136372111, -0.12846333934444326, 0.028490829534872322, 0.15617423995572752, -0.08004217134233595, 0.0012217457254301968, -0.1424079810460388, 0.15359287445374326, -0.07109662744680467, 0.01005288082149002, 0.0008203023181249244, 0.08151659231785542, -0.05884132491829587, -0.011975408277066009, 0.045173754072513894, -0.11964002888069065, -0.12517191502222988, 0.05401515471062496, -0.041678008309275656, 0.013932454442260947, -0.0028660510059288734, -0.010972441204876237, 0.021085250370485652, -0.02164766914818101], [0.07798444976485415, -0.21362007003887495, -0.19618376553765227, -0.2082191575291712, -0.1438022165232725, 0.15949207403594148, -0.042477751542900455, -0.05761268334924498, 0.08910230084960022, 0.07142872733479212, 0.15989929656668814, 0.03291362965793857, -0.010918777797873706, -0.049600963958406734, -0.26369188783570424, 0.1304180269431704, -0.09302947434567058, 0.0288741036722785, 0.1343446040340891, 0.02587466073101163, -0.059626490999656966, -0.08833852048485599, 0.018489228578761577, -0.017272726013539408, -0.1016665393104447, 0.006783008125500797, 0.01989939785330864, 0.006399990409957229, 0.03701873509341975, 0.19968075194386892, 0.26748165849755406, -0.12497035516103829, 0.21941960314647013, 0.05027905795804202, -0.21521438643361138, 0.16659763593090723, -0.030631890552424185, 0.03568564294641691, -0.14274565396353078, -0.07116569680025954, -0.03329557465693402, -0.10345750914709817, 0.05408731618319461, -0.1473996685804881, 0.2272481987158352, 0.023917062575430623, 0.05179835891191447, 0.010719978686629732, -0.0060487711857973156, 0.18500566659616255, -0.01016890659946067, -0.006346087154002476, -0.1621300278545753, 0.003987137959619523, -0.01905797179865733, -0.02080378391566629, -0.08728664431573877, 0.054274538577522694, 0.02854280556844582, 0.006876969363950845, -0.18307949393760675, -0.267871358640676, -0.036150802197001584, -0.04901428922506978, -0.05277488101546269, 0.05669604534779458, 0.19148775467395118, 0.11917299489614819, -0.15413824111808974, -0.006721914788510204, 0.16082092569237624, 0.07987765224252169, -0.010459012824948872, 0.13457089767567476, 0.005913365118260287, -0.042870921417780684, -0.20618460418654438, 0.16816110935989537, 0.0826037184986917, -0.08047439436006469, -0.07663996145453399, 0.026719956413449614, 0.01186369363683477, -0.10926154870494484, 0.14976280079410806, -0.07962528298040203, 0.2193551879406826, -0.09248380567151361, -0.03670398792704261, -0.06709385661666765, -0.07808849262565909, 0.07369533053665443, 0.10724203817732333, -0.006722450626828581, 0.08248295698413002, -0.0037440384978746914, 0.057320849958094285, -0.175730534518022, -0.04629547719429158, 0.0172432072074308], [0.044333905917528255, -0.0008911714128814021, 0.1412803477410424, -0.11007976455579215, 0.017971743569668994, -0.015222946297439411, -0.08626152790824419, 0.0627489384562605, 0.032194839705684465, -0.014208428060019236, 0.11803154613069157, -0.11635994829066659, 0.21081185600856728, 0.038968405751649816, -0.0013040935242011077, -0.05293888928535139, 0.11728493628190446, -0.0031866495094564702, -0.03803385299628754, 0.06920820516133681, 0.055278587027446174, 0.17768930607113426, 0.010390882600705819, -0.1595069034090138, -0.12547973132874393, -0.02689777586511064, -0.16270551111624615, -0.023938855116692834, -0.0616775240462351, -0.1401756348184815, -0.0034000999720167095, 0.17060247493405561, 0.10390246609199565, 0.10776683570918136, 0.15261060184861092, 0.039780415227383716, -0.048286202631409786, -0.03898984933768165, 0.008854895831133712, -0.01333536360288444, -0.06079090877414328, -0.049109369075757976, 0.018901350640281343, 0.01732612464136341, 0.02104240752483697, 0.12197890134411114, 0.14358776849754706, 0.22580810970521306, 0.06152741556858912, 0.11123652059747537, 0.1298929498102731, -0.03785371086288596, -0.053230693785130186, 0.052720623479838816, -0.024270181134342136, 0.12948371846850207, -0.03799965645082405, 0.13096130741191347, -0.15802235099133338, 0.007558288048620471, 0.13871515547617003, 0.20671426876764312, -0.10475142399504876, -0.06367679010840371, 0.10631025983620274, 0.1201006444113198, 0.03246606139833974, 0.03766547605871634, 0.049361296126821955, -0.07581869493340476, -0.005029265568243487, 0.021665360072380114, -0.050694474313298626, -0.21370794559574272, -0.1833673777719998, 0.10615039751662377, 0.06662913070125581, 0.01946609364522466, -0.07723202028990774, 0.1786337970917842, 0.02728636774304249, -0.159966760462217, -0.10085082363541144, 0.27126327418253154, 0.0956484152732683, 0.048597659874711915, 0.16276107677496385, 0.056592704570790506, -0.033733420113228885, -0.003709767965545823, 0.006397114426141394, -0.05155255543078662, 0.16538563642428378, 0.13623172302539258, -0.018613435491029253, 0.043730853491005445, -0.04201543879198406, -0.13575603786370682, 0.11657922598573048, -0.07054591399837283], [-0.12288973873055228, 0.05528791298382597, 0.018317442891625593, -0.005555188376409855, 0.22219185738053504, 0.007771480616168437, 0.07158353086518919, 0.00841151497310125, 0.002496956499972269, -0.005768056083056671, -0.13333105163922196, -0.04880450600885259, -0.22835243594310292, -0.024898937708123868, -0.06994249613391852, 0.022801534983442583, -0.036226214719198666, -0.020020272657835965, -0.0246947727698115, 0.0014368510833088562, 0.28366659506104636, 0.1666087806775472, 0.10302667262483037, 0.0016667531512713845, 0.1574636737033845, -0.11896035970552549, -0.01303682292406363, -0.07441175497829794, -0.1654509478098827, 0.03766287011718519, -0.08363184977073082, 0.016940228180557702, 0.0010959231279707223, -0.07930082298475283, -0.009221460751238059, 0.05260394821754992, -0.08313219295019972, -0.199152666874437, -0.03661461194440601, 0.14897244740999865, -0.03433121850092896, -0.015191442655374051, 0.04046208364995468, -0.11216397138189457, 0.06359920596371986, 0.16200888861297708, -0.01121950903336075, 0.10538082603537505, 0.09799473012081925, -0.17496546887819248, 0.32373514858172237, 0.003337109707550426, -0.044084358632374254, 0.022805755333132526, -0.05529566412680741, 0.0015473056829941913, 0.0309519649491556, 0.04287325006053943, -0.20607383640774277, -0.05402423208708633, 0.004149537387535005, 0.10700406253758778, 0.019661323735882284, 0.08968174789997087, 0.05174220696679285, -0.015962469182858336, -0.035909762531546284, -0.028602227988369196, -0.016828945863576177, -0.005710471089504378, 0.012969195513784228, 0.15103765905481092, -0.04856254817298382, -0.12819535080293143, 0.09448445979901425, -0.052345845230173896, 0.0496737025619146, 0.2178359883504725, 0.06254559080902264, 0.03693653885082147, -0.014400737048790661, 0.04637567781222547, -0.03099804740275183, -0.12857988415504085, -0.14507790476778054, -0.03484789207929233, 0.03686723653067634, 0.16818201161108776, 0.048698830194985554, 0.13280378771248494, 0.09476773522186636, -0.022147138472723715, 0.08929138230783185, -0.11107631398753631, 0.060565059203075804, 0.031704309196641405, 0.12141890353136142, -0.07190461597466467, -0.2338409927480848, -0.0256260920120593], [0.11948322853693684, -0.14542038016372605, -0.056885530167596336, -0.06646240371866914, 0.22938832436771137, 0.09502439200458186, 0.14110032759792965, 0.08307955608060663, -0.039199605626682295, -0.0013859587265975294, 0.04287527482102042, 0.02873027334534374, -0.005114168941507779, -0.03188781951041762, -0.08290068082838208, -0.204362714272845, 0.19510398049143204, 0.10152268852204703, 0.04240158112043282, -0.0472178502905875, 0.13612548136894387, -0.21493826168217142, -0.022753020324660728, 0.06972641927727664, 0.09277921069997073, -0.1630802810469874, 0.08349034503776097, 0.005119056275264275, -0.03682505797686162, 0.02957457260174332, 0.053280021545161996, 0.1097804474162034, -0.11007347224884179, 0.07689834307318083, -0.06840132436935274, -0.04025429357666439, 0.11434851419095939, -0.02389967454866518, 0.06977092791092439, -0.11911049524697838, -0.11878204674773463, 0.06664254640367072, -0.06359065196389416, -0.030622179775110975, 0.04724260748139366, 0.0010297369613389033, -0.1377895431654711, 0.019320332383467472, 0.015656551778456356, -0.03452778520923962, 0.11544247212283941, 0.0076947695255064055, -0.16069017113880363, 0.26870408785495703, 0.008191200799104478, -0.043701401168645224, 0.043802944163162036, 0.11258596029834282, 0.020895660815586067, -0.007427986229778047, 0.07246246463982481, -0.023120519427688908, 0.07815676813041843, -0.10420532045479872, -0.0060506381089583785, -0.06485651693890071, -0.07773760766960706, -0.12727926131641867, 0.06282369185057178, -0.010683988943513497, 0.0576266091281293, 0.021336336524483395, 0.025186731799370678, -0.03731216156995545, 0.04626591290715812, 0.0062525230864108145, -0.021584657733850536, 0.06758105333515269, 0.03564021380720864, -0.066853430489486, -0.045241309867691974, 0.01987871827253822, -0.014496130621519292, -0.1513927340473217, -0.17914977894935236, -0.05593840031243083, -0.09544321831611281, -0.05623871240216711, 0.07723885223658937, 0.009005044514938493, 0.08097200420374777, 0.051835722974597896, -0.027778634722678202, 0.05388965166592487, -0.06919253635807789, 0.198241330145882, -0.02523837446248798, -0.10558708164096442, 0.1274419860583707, -0.07023807092638219], [-0.0038120273320418683, 0.023541251931735892, 0.08102290904808344, 0.09612773940903856, 0.1006697705488461, 0.3302884391825144, -0.05222095544358568, -0.07426250035922966, 0.12905285954895584, -0.11914385517146771, 0.02721841813348781, 0.07619003439420514, 0.031507578133842924, -0.03814552847111072, -0.03260902202069893, 0.05575311095269329, -0.15417655106940517, 0.06021160017522327, 0.18668993766666123, 0.012389613690501799, -0.10251486438480532, 0.027219609328378067, -0.023179255776265627, -0.033878421681027934, -0.030927324002000947, 0.0034174353867872636, 0.1293665988992885, 0.07215238499196114, -0.08255194838775964, -0.12302125871104012, -0.016159339682302737, 0.07552156697458005, -0.2057568185643533, 0.003256672165009194, -0.09734657641215318, -0.046353560858945035, 0.0844033904014886, -0.16579903225135342, -0.004541631693260831, 0.019953982879300936, -0.026971802222046783, -0.08181312851835396, -0.16924092316552405, 0.05536096895185519, -0.04141399494861432, -0.14893710689914588, 0.18927467694993483, 0.009539115875068286, -0.14962282754587056, 0.06428352337082519, -0.08319535358918964, 0.1395327074422109, 0.07461527635201365, 0.08140414443730795, -0.025191156054587088, -0.11770676890974588, 0.006072456751115184, -0.12271770125191928, -0.00834864504282115, -0.009765158419744503, 0.1022489028537818, -0.10279639753957237, -0.018299255516313256, 0.10246202814017709, -0.15302788674994505, -0.04193204477169197, 0.057893761358868395, -0.0401544144588255, -0.07679124118540975, -0.02031119181370319, 0.006506247464422781, 0.030712609921215082, 0.018198874135455186, 0.033511333754295575, -0.035630914046929515, -0.0015242646158911324, 0.019547112450955514, 0.09232720670271781, 0.13187229886396132, -0.06975508650754601, -0.06072466002761995, 0.06900277684987559, 0.008150507513374768, 0.010161026892296763, 0.013187252931156877, 0.030012074864496186, 0.12441764019706517, -0.10231908723970709, 0.055164991125523456, -0.12331842006326156, -0.02127942307621256, 0.02617770481880106, -0.011614970201655838, -0.01762673271086056, -0.19124984182726804, 0.17517562562712097, 0.008698443722522688, -0.04308363678277126, -0.009841562814874813, 0.029081502609284507], [-0.17957638749074276, -0.014345772143882864, -0.06177366244549052, 0.07539662483380928, -0.0030978692561444776, -0.08261872840817147, 0.0075592641602189046, -0.11678290258601662, 0.10507357000558235, -0.10481425535980834, -0.05367143113763383, -0.07095947294147256, -0.1381904744517361, -0.0336589724572919, -0.05671049387195118, 0.025659017821903055, 0.07467391982444328, 0.13777479906944914, 0.10159231157849996, -0.09195527248928377, -0.06723649497371023, -0.011823948464970051, 0.20401153595855234, 0.023275217814755757, -0.04454289492175656, 0.2647772352086826, 0.1738770677674164, -0.1394643707567035, 0.039435123686144685, -0.09889932149038326, -0.2158095518131535, -0.006537069190557222, -0.013779077477697113, -0.007559367994797949, -0.04443324816664929, -0.2119485058870877, -0.17594626245823916, 0.019551339152503476, 0.09757725007235474, -0.020703158531283457, 0.16778329847066759, -0.013657241156825005, 0.10726707932788553, 0.04579537204104287, -0.05916905676369307, 0.04502318707606907, 0.10196452415711396, 0.10208002406353095, 0.11528252497187978, 0.11665815095273353, 0.053400098562800806, -0.14895285666876287, -0.22123480598719816, -0.06321358054983908, -0.022290468225956223, -0.06472902427493409, 0.04294992514607337, -0.023160880893214737, -0.06504056127109697, -0.10482165693392036, -0.02053049991912714, 0.021040347112701016, 0.09769252915779938, 0.049368758542526474, 0.0013637710256025784, 0.04300248777118578, 0.23052652932089526, 0.07444546234870617, 0.020513872102795015, 0.10043043788830198, 0.1443065045868282, 0.05623634802219491, 0.17390738349670923, 0.17173313502536375, 0.0964332037161938, 0.024666725148306378, -0.1445455197301575, -0.06288903895660389, -0.09970778171263708, 0.037875531593941594, -0.056655488628340495, 0.030014986141193044, -0.10745534774474724, 0.03191362946241802, -0.0034112049328178023, 0.07379932922323199, -0.09011565927222492, -0.0032991009627854474, -0.040529789502571474, -0.10876697667205945, 0.015888014991293938, -0.022968680360730496, 0.014970273509747082, -0.07826680658590768, 0.14907514247699846, 0.09281385009450002, -0.10585742875354438, 0.014221281352302126, 0.05248516155978282, -0.14928407421736883], [-0.03628545726418193, 0.07025060241877334, -0.03903720797440215, 0.026355240666192565, 0.1545426989107557, 0.011642649713221872, -0.11799327610034199, -0.06217421052770765, 0.12057875551906001, 0.00509363503018647, 0.1637886117039345, -0.09049307994241113, -0.07685277783313975, 0.0169035112693379, 0.04532653945625267, -0.021891113273975936, -0.15371673708622, -0.08517805657982519, -0.1043418511841167, 0.061367990620258404, 0.10102526608440374, 0.10264799273697726, -0.10897117311916732, 0.06076031474800374, -0.041922054407956676, 0.11285249016621174, 0.002032940976747863, -0.04813267370890099, -0.07436376389645814, -0.057998023802734465, -0.10026203553878217, 0.2713002961748627, 0.011369104928698493, 0.11613247526676988, -0.18034787150323575, -0.0029269254852751494, 0.0013659510388312644, 0.17184102830202716, -0.035239648571710504, 0.06799402930089826, 0.03466459064660909, -0.11408077854091181, 0.06035281763302878, 0.144778497386018, -0.15699686653896772, 0.13778278867013424, 0.1891365637459345, -0.014890602228200532, 0.1337357969298111, 0.18644100894223975, 0.04380059743267121, -0.12663497974617763, 0.16209280190577016, -0.02362937075432267, -0.3078200351733148, 0.06602617822801533, -0.009961655554100923, 0.03510152893193735, -0.01681468956874652, -0.08206033219087369, -0.07036031060376623, -0.06028731827352543, 0.009989452753458312, 0.03771180681165868, -0.04485971461195774, -0.07910833246332641, 0.06890061488009816, 0.0009376301714287953, -0.10853457509006027, 0.008072162605655903, 0.058396476207089036, 0.16931414914447585, -0.047251776070100775, -0.04497482090143854, -0.25172742828628075, 0.15476098379498876, 0.03536431680357996, 0.003565546080472592, -0.005260235684762169, 0.08826913980201492, 0.07586048646987407, -0.0013805233091829432, -0.07701918500570515, -0.1123782956984998, -0.022528006406996728, -0.029739845391646053, -0.0027809327662267455, -0.018927601518364597, -0.2513636719200402, -0.28483677368399246, -0.046451338018023355, 0.02749063417180813, 0.0692792511672993, -0.18663000696803964, -0.05859691720746235, 0.014901932217452172, -0.09487706705624922, -0.006277028109792104, -0.004580625384357655, 0.15200080403141716], [-0.1719984517912813, 0.07183256602101902, -0.12997717875977663, 0.08252217027649542, 0.058009274890393724, 0.24800922594578656, -0.03284982867986345, -0.12686464057125071, 0.12786396104401943, -0.021942710499821983, -0.15867055955287906, 0.0852301928537545, -0.0829414255102788, 0.004054317370779354, 0.059369136441095996, 0.16015616666412177, -0.24062482089758444, 0.02481583727330119, -0.05986295997667835, 0.0972583056706215, 0.06109802641528404, 0.0248351500529243, 0.09834756633530858, -0.10559676442668564, 0.0017466338811161564, -0.06805402073209234, -0.080942643288657, -0.006804789350177458, -0.22282873849797857, -0.15821385073215813, 0.0714062419823513, -0.16470283181183779, 0.023734690015625906, -0.03087473589951616, 0.0859142430581631, 0.08980160759294198, 0.003106600950470077, 0.004987987063970491, 0.12549372984301785, 0.03311183405915537, 0.0196908545900003, 0.10414830682799697, 0.1954121335506338, -0.005796544163873435, -0.13864098357489393, 0.09587177321112181, 0.056920914285778, 0.0827698872060845, 0.005344294837589155, -0.022074358715740032, -0.015506154092346111, 0.04841630717240181, 0.0363261465212934, 0.0008697214679685961, -0.17285619243253886, -0.01353742033396602, -0.015211334015315908, 0.13016552500865886, -0.058320184325869745, -0.07743432550156538, -0.006953815061422489, -0.0869299571344222, -0.16658818287113222, 0.08751121228875385, 0.08581168857926486, 0.05320180896092861, -0.0045798003053758194, 0.2006773426382354, 0.1405221395603494, -0.21550545250546457, -0.02630751163661965, 0.15337121628627357, -0.07135338150013484, -0.03774058913649047, -0.07343023813055809, -0.044307081446834456, -0.05710989844002237, -0.23290772400337467, 0.20544742889986511, 0.07837053541100115, 0.10562505788449135, -0.06236096948431447, -0.13702106336656925, 0.1673607936052126, -0.10422167562705716, -0.02759958616167763, 0.05158173585784915, 0.002736706056161669, -0.004465581266837893, -0.04369823814518146, -0.03920116214271485, 0.01787447075701312, 0.07352882919272, 0.12232725447789075, -0.03317216180287646, 0.17400816758351798, -0.15249981879275315, 0.24030341110647221, 0.10896683892524159, -0.04923590720901837], [0.05508431452738581, 0.07506925618551225, 0.06105421356414111, 0.07276439313744322, 0.09298066615521178, -0.0679655131477996, -0.1379814743774074, -0.03865803700857072, 0.08237615283805778, -0.029220253501912617, 0.03905598223699785, -0.0459070240119169, -0.08446060122839409, -0.1202013225129482, -0.07923421825379784, 0.09645883064537387, 0.24489722584667145, -0.17051673179244392, 0.12500018535068516, -0.11824812470114775, -0.20300566853196536, -0.03733595267763439, 0.04847385421556716, 0.2233591541441221, -0.043110942640554116, 0.040640983090465016, -0.08444065525642665, -0.08470440824915561, -0.22238624688225758, -0.010675267222371871, -0.0365619294643741, -0.1419266073178095, 0.0139686720006662, 0.152640150201375, 0.05273271127182434, 0.03759831395421876, 0.061322930668538236, -0.043106236547033015, 0.02467337284922648, 0.06843125985424461, -0.0135966071416097, 0.09900968147090133, -0.052705176374791954, 0.07824030688572207, -0.1659876707589455, 0.016158858372820592, -0.07591884829321152, -0.10991618112540462, -0.12752304155302663, -0.058223108365544854, 0.0938671772124761, -0.018440847944562494, -0.02448703975486977, 0.09150536815943826, 0.24099650083004767, 0.006447157075123923, -0.04561528044147094, 0.13873144914012975, -0.027611129771390294, 0.030488873068192507, -0.0030552935904209115, -0.11026206924760497, 0.022378643724199086, -0.12435355058362274, -0.05009313510933903, -0.07670635727020866, 0.00045920686810150434, -0.19535119013448282, -0.16081079391680325, -0.04441978327610913, -0.03361528455449587, 0.0874432932628298, 0.1712999072029974, -0.06836562127873745, 0.09782505720283122, -0.012822708583049142, -0.07358278186785011, 0.001514682971321151, 0.016857602635366384, 0.09182506430202322, -0.00278556887220326, 0.03183241986902314, -0.1368075353080788, 0.029089383174300442, 0.019136951148807042, -0.12415795997647444, 0.06978697224955877, 0.11703321709190467, 0.24470521295606315, -0.00850686246220375, 0.03570321373878546, -0.000586742494834935, 0.013183257943513842, -0.09656890282530464, 0.15425826818399213, -0.16003483078283248, 0.02848356433776546, -0.04583110891932358, 0.022545291064184684, 0.006400027261089395], [-0.018223503113807764, 0.055226929207367194, -0.06313971271355107, 0.07916003977491105, -0.13797514113505663, 0.0338376375842841, -0.113603999808667, 0.13913334917213555, 0.015424792940950546, 0.05645307011797274, -0.11411888110740585, 0.0016205666147603376, 0.03548855894716897, 0.03543767847441046, 0.025857752188785683, -0.015791006097386, 0.11620966060196192, 0.18437902039816165, -0.15139800650409896, 0.12105500684643053, 0.027019795873543112, -0.09985666254641733, -0.08732612114043918, -0.01325775448734036, 0.018434954451112266, -0.06187298318602148, 0.047836426808004, 0.05472688058318221, 0.03238068504024151, 0.06844262648168094, -0.05983360113960126, 0.0003876788724082051, -0.06377426744456603, 0.06757995123186426, -0.2702411876517293, 0.12414103774853087, 0.07296209149516647, 0.0361510889487199, -0.09213872524397988, 0.057323494229284816, 0.013004676533711018, -0.0880250696151276, 0.060794086241437784, -0.20640310936109998, 0.025357238380538754, 0.11736498787206566, -0.058095053100495106, -0.06424093919118574, -0.11721443811460763, 0.09647203572029898, -0.006532932971796336, 0.1581675368316416, -0.016963633176006132, -0.024165835439100888, -0.0731922400980685, -0.10343554642984537, 0.1486030225279391, 0.0499432834332103, 0.0997597456668566, 0.027269959833627393, 0.05736701064728922, 0.01306761711846441, 0.07671520802829747, -0.018319564338741542, 0.0261061523045377, -0.11186466479285304, -0.0978451135054995, -0.013798116734096668, -0.09949133451580325, -0.04244065829967153, 0.05173815233569417, -0.02346145113669449, 0.187431881794304, -0.027603264556902613, 0.15670765053103153, -0.1579377494749711, -0.19944475178028645, 0.014748293374945905, 0.006935340336619757, -0.16025450477197842, -0.19010987581527378, 0.07123148123369422, 0.15725466052217218, 0.05786322380056509, -0.0770779862644706, 0.023447703090985678, -0.061452212033508605, -0.11424642134851923, 0.04707006234270231, -0.03218668222455314, -0.1284643094179689, -0.032198557964750435, -0.15223381965961966, 0.1363113313329476, -0.028181920773339756, 0.06835473213994657, -0.009953525724483554, -0.02169705223426341, 0.06706607392254582, 0.021098145321926404], [-0.06396794180351206, -0.20836757781401063, -0.03105403223865913, -0.006922870658825425, -0.07774396574748106, -0.029904408208219754, 0.15145394595794923, 0.1777064502585337, -0.12004628468358912, -0.056258147875699355, -0.0460730310634673, 0.06311088851034483, 0.28097355067693824, 0.10228827323937438, -0.2102922894444816, -0.03315898238124473, 0.14272774044485184, 0.042116823942810314, 0.040492066087761736, -0.049893458883401194, 0.11186241633299436, -0.06857206211880451, 0.024204908002740357, -0.10781890843742498, 0.26443682629925863, -0.03931849575813034, 0.15521119443376397, 0.09182587388399482, -0.03015808687759228, -0.07045625043159479, -0.07574609128264786, -0.06568028882014242, -0.13707084830984062, -0.12306344657681242, -0.1424621779930479, 0.028766363075301317, 0.14416587421612795, 0.11417538875999285, 0.017723232403015196, -0.07876465564088123, -0.00390802590562215, 0.16844055724081525, 0.01342279119689005, -0.042910260427723904, -0.10335971758887261, -0.07944757147798341, -0.030905385092190298, -0.10223625496785843, 0.06379856266993618, -0.06695664487366322, 0.10598586285759803, -0.07165539437811444, -0.05694335527703191, -0.03156426806994108, -0.02421379565855393, 0.09870168533104437, 0.20426428226492654, 0.04662749055448602, 0.035373113504818296, 0.08248822416368226, -0.09632829702973403, -0.1402892700440386, 0.01324510081107984, 0.12087758447576605, 0.06304014307796059, -0.09872948801719401, 0.06644344329146114, 0.03445421494306778, -0.12687412433442385, 0.23608237052290806, -0.11451099855510771, -0.05835786746732935, 0.1548953339980348, -0.09649649648247355, -0.06079125153897684, 0.15002724399353415, -0.08506471147360709, 0.023159942220482236, -0.22040556834151337, -0.11461852143754139, -0.11492706205636995, -0.021175337982528915, -0.030199678449412386, -0.11171530594435854, 0.20125552839547944, -0.016922509657587983, -0.0022961709587198966, -0.12950697870348307, -0.11513739537678569, 0.10239298140303113, -0.010698490477947256, 0.13683607557694688, 0.06737158239749107, -0.018404183126008104, 0.14314197782226817, 0.02181516440277571, -0.33156891577551584, -0.087093549429697, 0.1278640424242113, 0.03835897846266427], [0.06855991828664336, 0.033196031163215546, 0.1968405812120986, -0.11878771354744627, -0.09460720476070025, -0.08078131320609337, -0.0431439755556687, -0.027456900552541626, 0.21393969818968073, 0.09563006980717215, 0.08272255325352196, -0.09989527231615504, 0.05915265002801221, -0.04388381894258997, 0.059253086124741845, -0.056872472262428954, 0.16170902824917993, 0.026796725752182556, -0.02814357743401153, -0.007959091711912874, -0.15181782253643852, 0.019340623317126437, -0.06360799426015452, 0.12568217416244323, 0.0027861904297172527, 0.11856687935794093, 0.07786118621806506, 0.10822109012149272, 0.14536100854054515, -0.07412309417647323, 0.0909726366480646, -0.006782708833805605, 0.11052466940154397, -0.12194756440918884, -0.006123783659375353, 0.1489835110543336, -0.035503553303385574, 0.10933781473757158, 0.06781296745701645, 0.005819447249235096, 0.16955185839014342, -0.0050527613241766085, 0.01892105525564149, -0.018663576025082396, 0.02699497795155343, 0.09239585591179404, -0.031713373244973, -0.04154675564305286, -0.006719008842265392, 0.008844149018196502, 0.02830960369508899, -0.057441104593173066, 0.1759256676458528, 0.11627642272533846, 0.025630490705266667, 0.11979775375916465, -0.013491210099989406, 0.09887206743617158, -0.27728926924377856, -0.10801295312050042, -0.0075532278781719146, -0.06834845826309864, 0.06097672174602786, -0.08107548148997684, -0.11104905466794399, 0.18891404361102293, -0.02469137782453834, 0.05075554173693529, -0.0328293937893975, 0.1511621865501836, -0.12496433242884847, 0.2812672070046249, 0.00818535853578748, 0.038995918807360634, -0.1301298128851137, -0.10663736877522803, 0.23413595638554727, -0.12909843337192292, -0.01907362047520413, -0.06750010887075157, -0.07337159738927483, -0.1303525291113388, 0.006682892215135567, 0.02481211590167179, 0.16012512727308684, 0.10280060062326794, -0.2261358284097886, -0.1513435240412928, -0.02675207909659061, 0.06561510651435822, 0.04530765748810065, -0.02905425895267871, -0.07433921702850935, 0.024794061749619963, -0.03668557225941055, 0.3234666258316526, 0.04510926444481086, 0.0672709018985612, 0.02206484683767181, -0.07260815406409758], [-0.062343639333118255, 0.03430662503180517, -0.0513279008643537, 0.017532725067719815, 0.18470008397617887, 0.16323923119229466, 0.09013605106031784, 0.014570088044201644, -0.017710778974197646, -0.018604881307043488, -0.07228654388231394, 0.11616941326213717, 0.1273408182799626, -0.160247107339784, 0.007371446144855684, 0.06661674366052073, -0.014743205377027746, 0.1347482287796695, 0.05635112522322459, 0.053156461244920905, 0.06831985582229812, -0.07470709434338588, 0.0078708561347246, -0.1812088865171678, 0.12118004347752445, 0.07707785777112768, 0.0038592925629460815, 0.12783570042054396, 0.12862822510626673, 0.14997126989141632, 0.14536884257280935, 0.08786177990017774, 0.13845915605748993, -0.26524796464459277, 0.04411304752166469, 0.037315231842680006, -0.09710319246998954, 0.10318427128541861, -0.16390640368177495, 0.05131053225653348, 0.056774273923593674, 0.004857055962640402, 0.09664004541570756, -0.06092661840587562, 0.006524273490172571, -0.07939848366035235, 0.11965423886334696, -0.02257500675013394, 0.06882291939553437, 0.055825961764550514, 0.06606736008769062, -0.055530247329789006, 0.0678982546432629, 0.09777501657580431, -0.01053806469611336, -0.1728862252757721, 0.07435644183424825, 0.07493226831401491, 0.05356494630147448, -0.09620675938120862, -0.10683981303378352, 0.0615771846752088, -0.009562328407210005, 0.014859811528650197, -0.011368690729921218, 0.03721923907998425, 0.12259815669317302, 0.03733860745084763, -0.04534696664179313, 0.021744688419874668, -0.12444131907307081, 0.17577991763093379, -0.18474313962345368, -0.012761084530099416, 0.058459278848906886, 0.07959610312586723, 0.00021603082058112478, -0.17361700782636433, -0.0054070760927029836, 0.008376122321791699, 0.15178587173932073, -0.02451067996055588, 0.022465828548432622, -0.08459710104137688, 0.06959094430593928, -0.04314012677771733, 0.16855468070990767, -0.05206798789527415, -0.10334812707364772, 0.06738457138531105, 0.025409658854330844, 0.05550467478881456, -0.07940752027692488, 0.025669647008646806, 0.0041762320741865165, -0.07114979059038695, -0.04827762512906498, -0.026052240935027886, 0.032478715151196734, 0.049163576225628274], [-0.00936315976953251, 0.1602534095070727, 0.02941074334394978, -0.12195202037237096, 0.08312794456466202, -0.011755079869596716, 0.16994819329049152, 0.21280772441685536, 0.030291176089710478, -0.11137827662795438, -0.11748288496496337, -0.12168250204488333, 0.06183644686358792, -0.1493977610425208, -0.08986578933794549, -0.11673339959197415, -0.03812112815393401, -0.03981419860584312, -0.021838431897197468, -0.04297892121705268, -0.0013288298220896248, 0.16389186764134453, 0.04981487427682066, 0.11397296936018336, -0.07383535458771649, 0.06879502085444465, -0.11931265629062343, 0.18313938270167707, -0.1589835048216848, 0.01753638030278489, -0.01461211237495004, -0.012294526819067886, 0.015547531688168458, 0.007686570376231309, -0.17813151924956686, -0.16396088437637793, -0.03881173550574233, 0.006588969073243562, 0.10316332897083094, -0.11115530188406704, -0.24933476812839162, -0.1545248440031062, 0.02552815176832684, 0.09491206022648929, 0.039521808434011825, 0.05227191805030129, -0.010569626375491721, -0.11225711187522616, 0.03338437380409262, 0.013408410854578005, -0.019625129074326852, -0.0802378023784178, -0.1517888777996684, 0.08118833555052433, 0.0639725041259798, -0.06466817027477167, 0.049836124794936994, -0.07536880970193416, 0.13143010767649355, 0.07276887484356773, 0.07825901890163474, -0.03806776239363535, 0.02530652111141218, 0.024084112409924925, 0.10103408720196216, 0.058740490708303256, -0.06001529724712172, 0.02982929779887111, 0.04780026817239382, -0.04444941111061338, -0.2154853529624688, -0.1309261191460514, 0.019502191965626373, 0.1483136976537629, 0.04167258262204405, 0.16960200370304526, -0.19811047688546002, 0.048769876295364625, 0.07984666600504028, -0.15469631080890203, -0.2173870780929107, -0.02268380959968633, -0.09376093227715188, -0.025123561105940464, -0.08307217831954279, -0.05691722589995001, -0.07658644785191088, -0.14621249096732583, -0.04687220634280629, 0.030761584619412308, 0.04019533806362221, 0.10982483883064266, 0.08185606308602236, -0.0034148747830790777, 0.09853620642718053, -0.05496828813531853, -0.020914875853057572, 0.05937831312600951, 0.0629739220735914, 0.015607720978335422], [0.035644326392527334, -0.10376426654954914, 0.03464867817764521, -0.018570908775702662, 0.09322328209007934, 0.10591313004278083, 0.0035751328431782962, -0.11863540969161428, 0.023909895581996417, -0.0015419147927745078, -0.08422999064788804, 0.05905301045705856, -0.09980284647211178, -0.20015831990414132, 0.008846289649392273, -0.09064039304236077, -0.2999697100885658, 0.06124711776791903, -0.018316577180601586, -0.10353497944495346, 0.0038267449487758972, -0.0439967998253673, 0.07518285299591776, 0.023106859450378495, -0.27336309725132146, 0.1072002548272867, -0.09245518723396316, -0.07817492001569315, 0.05880250197071172, -0.15895098209267006, 0.048590693250557225, 0.05227763198787842, 0.040267922042617324, -0.0227899582079276, 0.1607134968659642, -0.09557365044790336, 0.029185208683150315, -0.007381307255206521, 0.158534499935287, -0.07118269361614062, 0.13735653137147452, -0.025326275142211887, -0.05235445296441101, 0.026026910597638668, -0.18683729993367484, -0.025193613719910662, -0.16034043289719857, 0.014330437006702319, 0.036363677632192955, 0.0007079845778732288, -0.09751507431938215, -0.05363723789320044, 0.05798435214520303, -0.13959586018979442, 0.08150261869097965, 0.019453213127337544, 0.013512961054452441, -0.15626060209302195, -0.15718261103229825, 0.05278154751716721, -0.11560270284551873, 0.1558840195428336, 0.02878735228676973, 0.05281031303079104, -0.22093766377340684, 0.06416766112759588, 0.1369789536054152, 0.06787872921617281, -0.0797129342210015, -0.09191093528074779, -0.023805850164873386, 0.1258855282637037, -0.042916747457843976, -0.06690088500859111, 0.026720832480231306, 0.09542200886146447, -0.05352590111502061, 0.19780046207762333, -0.08006007264959927, -0.0164024755869806, -0.022254114760299246, -0.01855056953327548, 0.008192778281156384, 0.09385674827368157, -0.062076961390883666, -0.016870807397681542, 0.09744347062972096, 0.07885704217650615, -0.028261691368396125, 0.10706266798371114, 0.14516197411000864, 0.11321622026840661, -0.10304248232936826, 0.022052646681965292, 0.1276031856231159, 0.02097117495784548, 0.08808190316035092, 0.006720139220286567, 0.16994882509206272, -0.015939363347942395], [0.06913899741706443, 0.009902762708774032, -0.11020578914503913, -0.071430759955389, 0.02196794403052066, -0.04542263966528006, -0.1368464845027134, -0.03263760769626999, 0.006781910531912964, -0.047684573543022954, -0.005891431825191771, 0.08057898835798637, -0.12178642884490301, 0.058789740003947065, -0.13609824519648514, -0.08581721609992062, -0.06510124591708581, 0.036596421506051094, -0.11030431355009991, 0.13774377776606656, 0.018395617641624156, 0.17516357514372285, -0.15868109693427204, 0.05093249884591774, -0.1848046959156985, -0.09204325564960332, 0.09031983255226379, 0.04763403548421825, -0.1463388115086604, 0.07054860045044961, 0.09869601237100427, -0.13564454604642853, 0.03459884521272855, 0.0667452587538599, 0.10326741402367817, -0.05955479153419478, -0.07305274544119326, -0.18046445636962197, -0.04942112703570851, 0.02665840814755233, 0.16980443386053803, -0.07075896440867696, -0.025738884461234936, -0.0787606917156963, 0.21986208221353853, -0.28300964296715386, 0.1469009678212558, -0.06928596707113119, 0.044419399777718555, -0.0875315683872396, 0.08825544775163516, 0.10856008999740449, -0.012220643657454639, 0.08611499772671062, -0.037946761118601555, 0.10594604872248257, 0.008465373470030365, 0.06268909496665892, 0.06764063650406221, 0.08983231580936647, 0.1533942032981289, -0.0192086624322341, 0.10651531970180704, -0.1311363342951762, 0.015875881007203788, -0.09785704782405799, -0.021907264142595525, 0.013399908100298615, -0.11993102661207809, -0.05367229687186873, -0.05447961497424738, 0.020331709833686446, 0.09250852173705353, -0.05629049650712072, 0.09976928105777479, -0.06972575312071021, -0.014946942851633008, -0.11721578254656281, -0.1679928559961584, -0.07635998564296224, 0.025097179042349683, 0.1133984899224236, 0.009515161018608215, 0.08239930561145559, 0.06578015402952617, 0.2043648821025183, -0.1658037284631739, -0.2030357644670302, -0.10693348012437395, -0.02493821205207225, -0.0612749015622306, -0.22075456381034783, 0.028933636503759255, 0.008102407124136618, -0.057899152548534207, -0.0005495127734557428, 0.1465342893281617, 0.2831406484281161, 0.022343351113145237, 0.08456489143310968], [0.13206629232265243, -0.06980973967580553, 0.05196799746521318, 0.006986461141472857, 0.024607836020532126, 0.019153684883291045, -0.11812591852231753, 0.013045313878197465, -0.025103542723487873, 0.09870071355402352, 0.008911432610620738, -0.10049497701484084, -0.02971931359085207, 0.11813164006145992, 0.12464540012025807, -0.06377657094926692, 0.14156255708757634, -0.10187316150106593, -0.10324555800289939, -0.025875371148051135, 0.13291407984810438, 0.0625197304233132, -0.21723912128382106, 0.06976827681446375, -0.17852851168278455, 0.0042660270359903465, 0.08989328585159062, -0.17641473749888778, 0.13830642062534576, -0.19056509737973398, -0.13924584218596148, -0.10674305175257574, -0.19384325403159552, 0.008786527503479781, -0.11824771941055796, 0.1402883325644582, -0.005981866826176294, -0.07183533279428259, 0.1869526523047678, -0.01682924410813507, 0.04003275763240873, 0.15013847381034695, -0.13590084850944514, -0.16030108382179703, 0.009537434545020498, 0.032668573155157164, 0.02175421683033696, -0.06698364581672321, 0.05727304392496256, 0.005283196259707172, -0.11224309262856257, 0.09870918165036234, 0.10846265722126333, 0.07927240707902336, -0.07149557626949524, 0.01410423508799767, 0.02695718206540874, 0.2161510271620726, -0.030779189670443876, -0.026976693766839168, 0.15574716260129165, 0.04912843750753045, 0.00968355912452766, 0.029106756843035833, -0.021914746981050226, 0.1927011213357016, 0.012681352125970186, -0.039732949064793924, -0.044631285188903635, 0.02835645759024093, -0.024904537780542645, -0.10970190091333136, 0.15082072873438843, 0.029081936496973552, -0.07471697749606572, -0.00431265675057889, 0.09867438592973007, -0.03547532941693349, 0.11456928272592022, -0.0038507989143455566, -0.03390583653200819, 0.006161687083465527, -0.02224109368252075, 0.10286387302888382, -0.026281306155516198, 0.08574962976075434, -0.05810649078653044, 0.02938690792811869, -0.0919274399561023, -0.0435384724801732, 0.2340106384633337, 0.21723695744361096, 0.07448750869696484, -0.06502254262175222, -0.054365177790065874, -0.04719095831439104, 0.0581528397315679, 0.0209218608830099, 0.15861850547037973, -0.09312208910780406], [-0.054473219764741135, -0.06485264782034739, 0.07968216441677634, -0.20616981655096553, 0.05078172542593691, 0.1404690118132168, -0.04195217376626444, 0.10787685702531707, 0.07611254403971025, 0.1950987696732724, 0.0486527096769, 0.03808095178837377, 0.007673388602330865, 0.08716565050457943, 0.059635837546990395, -0.14323000168679095, -0.010378794214771624, 0.12122043370379548, 0.01244848905943674, 0.01438864841270298, -0.1377246891725853, -0.11581680205223484, -0.054931155629459584, -0.09398572684693268, -0.1481146396636377, -0.018159708537097894, 0.020647297677605925, -0.00839448333521479, 0.20114715986063836, 0.15648117077852408, -0.04037660019375219, 0.08168974646388366, -0.013883477313957993, -0.11280104332161384, 0.024217035832080562, -0.1331257053795822, -0.025842787000405914, 0.0449953774512291, 0.16168537443489306, -0.15590645567446423, 0.05609602497280212, 0.036937754476925905, -0.11695865142311238, -0.020860602179299362, -0.07240534789156768, 0.10286779016203847, -0.047320814835591085, -0.17238079664378936, -0.20533887186869204, -0.11245261633884386, -0.10689520904922817, -0.029867939748492323, -0.06335517054937997, 0.04909347940990449, -0.060149080920413406, -0.0643326467547661, -0.035385728638117536, 0.16344050833752688, -0.06070089480901715, -0.09856327311731544, -0.012345487605159997, 0.055958632023733336, 0.01951649002579609, 0.03735383445727941, -0.0937647270623614, 0.09843966007312854, -0.013169224141279781, -0.027434627600874888, -0.22973628640008678, -0.005087479009625253, -0.08491789577865251, -0.0429201622954822, 0.02470186556707137, -0.03291842963127262, 0.08396910757044193, 0.048190305077894076, -0.130387863876587, 0.09108765516650338, -0.002739974671926412, 0.017556631823034963, 0.2804185215597242, -0.03948274901357175, -0.03550249859321286, 0.01622788445720952, -0.13597193838912042, 0.037968912521783846, -0.0830479319728992, 0.1101062994938649, 0.019451238052935044, 0.0520610523896214, -0.0736526644642201, 0.14944207864022016, 0.13935546079895034, -0.03846404646746188, 0.1340840659298558, -0.10301564288205042, 0.0008814795516894916, 0.137903659861138, 0.1006156718070316, 0.030507876445662642], [0.16697145450353912, -0.08217195428596555, 0.08923619098269539, -0.08384913232100484, 0.0911693059154924, 0.13084319164940314, -0.08583525816875115, 0.029977305120878695, 0.1198413119102638, 0.2030612652752956, 0.05898922400009245, 0.1782367233920212, 0.061088408262646554, 0.047289774660420905, 0.05554631681154238, -0.11654917096604925, 0.021082570101873664, -0.07033188907805414, 0.06823711915111523, -0.1443917612685472, -0.039882410409802456, -0.01921622270172882, -0.000857921553340943, 0.11239489715272055, -0.038024714822612105, 0.1330014236358578, -0.022655176015747076, -0.0073648140742073554, 0.03218483563281466, -0.01463607970624547, -0.025685078403533113, 0.2349137190341849, -0.05745696970538842, 0.05787385597771744, -0.1342153419355922, 0.01744396197940859, 0.013650575197505812, -0.12002070392474172, -0.08089523148759896, 0.14398038126049095, 0.04724497721695437, -0.046663822124885325, -0.11204011089680542, -0.005459113892567614, -0.13855119432761556, 0.031056923040652676, 0.09307640736828333, 0.028897125321598615, 0.007869781650083401, -0.07606937712999555, 0.1584540218387847, -0.03811891768373109, 0.005991942278334176, -0.19071039328410405, 0.01635250316167019, -0.09635955226669858, -0.043017577025239964, 0.1370584374095098, -0.004946171963941652, 0.07553273307638898, -0.043514077974751174, -0.19575091241310016, 0.007753432326051179, -0.11878388196179467, -0.04345024933183916, 0.011129535490321201, 0.12885697417298894, 0.21471316118253403, -0.21149997068750692, -0.013113474740384658, 0.07111077692215902, 0.0649877139235788, 0.07517518552508586, -0.006163590611291858, -0.11977215769650669, 0.16423475008068977, -0.07765526794552495, 0.11834351805089266, -0.19293045054141328, -0.07761254962509315, 0.07645468011803784, 0.10507211808222162, -0.03159490625754889, 0.11682593493687461, -0.08479988275315219, 0.028051607361294115, -0.07260707004203346, -0.08159715989562784, -0.08216852252355078, -0.006879098422293508, -0.004977502938822851, -0.08100450477616956, -0.013061221643720157, 0.1547626503793025, 0.07226056004924976, -0.026003393165770997, -0.05050439359116154, 0.016255856252028217, 0.004291627456590261, -0.058954163715577025], [-0.013953491188291575, 0.042182481741303644, -0.027972454562862136, 0.06091217276410004, -0.1242845996704582, 0.022636245849003506, 0.006376026345108992, -0.016046551425155785, -0.023024652729551422, -0.12711170378080575, 0.05558708486984274, 0.057406729444858064, 0.0696684115088816, -0.05540859949962876, -0.05254876053824632, 0.028826751637393514, -0.0631767123320969, 0.05308212285578175, 0.06870057634603643, 0.1304270265559861, -0.06803310489532137, 0.012355889394954933, 0.08942494873515013, 0.06072777122436018, 0.010194109829891657, 0.12703111744314538, 0.1328721866835549, -0.0844386496347402, -0.07901128405995635, 0.14887431774465074, 0.000581069084951147, 0.039882551954004634, -0.10909192031602277, 0.16815366725943998, -0.0006270095211723939, 0.08965363015344177, -0.1318270278165335, -0.12831100376903884, 0.0472214293188405, 0.1618794276233862, -0.030544751949177513, -0.01634160186420925, -0.12990185754143693, 0.05443940575667179, 0.06519795339025683, -0.13774347522401656, 0.16184963333469524, -0.05330123166823785, 0.029770609209199984, -0.04270794770753305, 0.15628615225611087, 0.07629824296834285, -0.07127668755303382, 0.09412757749879164, 0.09083008011672532, -0.13986798499838285, -0.09328719960320399, 0.06656296421861035, -0.10964783818057793, 0.05812216270219235, 0.0048420908207176365, -0.023039529388367442, -0.06191995233573007, 0.023313253741036044, -0.12195721443999956, 0.10795548689312057, -0.07394750656362555, -0.18515937560576728, -0.11237599462968965, -0.05919948625470456, 0.056760667423233165, -0.3368082038658235, 0.06941780027232099, 0.17193532927439267, 0.022835502402824656, 0.07680675742780653, 0.14186967790808486, 0.03744130616439473, -0.09477538573361716, -0.06971693938381553, -0.1552339636032367, -0.01592387007784849, -0.036094322021112665, 0.01055678737302272, -0.07860137480839023, 0.026918080911446183, 0.07266827087749818, 0.0718829973351273, 0.13286168417379296, 0.0100912514344382, -0.10331572434494006, -0.17597803390779562, 0.0436072517572369, -0.14750036812541772, 0.04114410823440929, -0.000553510945436322, -0.11553160397512383, 0.09135111468566229, 0.031717719682139475, 0.002317454833586056], [-0.09678791089308009, 0.19051814449922203, 0.06543525864767175, -0.1806891877910497, 0.17952726866700622, 0.17429544776833153, 0.07615347653580735, -0.03703755518793508, -0.041831564758899625, -0.07855407789923145, -0.0856462354363337, -0.19943425135330314, 0.07981493885852567, 0.06862371683447888, 0.0351742167249717, -0.03561043900877617, 0.02544215361735034, 0.008627504241441998, -0.12332723428713294, -0.07355298860900752, 0.0011309755015547563, 0.0430466378332624, 0.02956195792645079, 0.008485344775044217, -0.12097000812580107, -0.09715370284938242, -0.03868921076464104, 0.22831306773883772, -0.005049048333761273, 0.07925278582064892, 0.038133804750170794, 0.02844182302443503, 0.02195993624037063, -0.04223901093913223, -0.00826988056959944, -0.057195027532865456, -0.0501854043531625, 0.020921582484357156, -0.1475212977154096, 0.07266923065707666, -0.016250386780438855, -0.025148655121755514, -0.03381291028012247, 0.05242416404232277, -0.07871545594734561, -0.05892261802255388, 0.004063095925540957, 0.06361380335411945, -0.1129854605667963, -0.07941390534837853, 0.013324536374693233, 0.17919508875602497, 0.015510573382502927, -0.12829332048113543, 0.12461535715767678, 0.07017121751682344, -0.002961385210288144, -0.13005171418705727, 0.1737391429097432, 0.025014223841905388, -0.25207172263543143, 0.08916278505671939, -0.01515880688321614, 0.027458229855472305, -0.11871237514359383, -0.19859132056738812, 0.2831807664059513, -0.16080467002518248, -0.08505312519559056, -0.07919513110300364, -0.09984781860636546, 0.022329131758099096, 0.00021753888249964002, 0.01630322270813678, -0.003189068342627458, -0.028863594770454946, 0.03153501681047271, 0.08305502124248564, 0.008886879795123113, 0.02114504092417562, 0.0855059682805608, -0.016586927416996883, 0.007573552909628595, 0.20786501097287174, -0.11536616227379404, 0.2351279201998037, 0.19524409140866802, 0.057501590413287916, 0.038350387358351154, -0.10321602656969599, -0.09812879868703389, 0.013995559263541032, -0.06087453546149459, 0.0935498543222635, 0.017872795575830512, -0.1955422629796435, -0.06323645347388339, 0.039766666999728556, -0.08710720472691191, 0.051556397456259555], [0.03401179914813379, -0.03398255799493386, 0.013175971532516354, -0.0692816173254287, 0.024958824584454926, 0.22811103320669168, -0.07371773082595745, -0.09885919264891747, 0.11944706949698455, -0.12877657104696422, 0.2599038373589198, -0.04466944457657989, -0.019498312585433122, 0.023829191326318094, 0.03658429027012145, 0.11373250106121771, 0.043102398068957534, 0.04108166173358801, 0.13134584392468543, -0.10049553989223615, -0.07681446397839521, 0.13433952917363748, -0.057416549224142945, 0.1180755208449117, -0.047180237164626194, -0.07079093890650129, -0.002467268452119282, 0.08193028766718558, -0.01897911225195962, 0.08544664613552992, 0.18032986493653247, 0.071430546643176, -0.02072070749447355, 0.09814434556318209, -0.13409724217598254, 0.041104043452144086, -0.09150578030303656, -0.0467534868105979, -0.00011244296155872065, -0.0122395201187209, 0.002433366706453925, -0.14179646819299713, -0.05601545797678025, -0.05296722084654758, -0.16134980396297574, -0.0143061989986688, 0.06160917465723466, -0.0938444235573766, -0.00022076441930793034, 0.09510330939370457, 0.09635742664646695, -0.07903781163013289, -0.22674226662310962, -0.1694510528231743, -0.10337967421410578, 0.14229531708267193, -0.04154102089851702, 0.019308166505628825, -0.1120058034465055, -0.08558941392798725, 0.05569279310687349, 0.025220964291645505, -0.11682901048153801, 0.13724239254544127, 0.07879992317717253, -0.019623249624222173, 0.12922048263156205, -0.018545337739356474, 0.1175012473451354, 0.046845618369712266, 0.02138099033894742, 0.05959113223164995, 0.045403347211228746, 0.009699260377598579, -0.04228870155300036, -0.03724868313232915, 0.1337122345780082, -0.10395314484414091, -0.12753692321949558, 0.06471045162859593, 0.11387941857636828, 0.08495196136529842, -0.005078474575734095, -0.08324969341652937, -0.10467404943599569, -0.0953858465365054, 0.01880545952140906, -0.014194456117511972, -0.21823054198191716, -0.11135945884933605, -0.1980210444224585, -0.05583385452855883, 0.031366950477506206, -0.1523779710831419, 0.006656337005839773, 0.025014643059880364, 0.014935146803584026, 0.06953347636773421, -0.058543247173200565, -0.015545896682503568], [0.1229219193050219, -0.13133142167380468, 0.1264395655466745, 0.16325155227325522, -0.0833585801844788, -0.13520560877865118, -0.06818089875570958, 0.01715674235171935, 0.01593960276538819, -0.10947694652841265, 0.08688169238396456, 0.08636761861281173, 0.14816778089359095, -0.04668796947823904, 0.08603083730343027, -0.006832721303671459, -0.0758854157229115, -0.17407933838332282, 0.09951365251280535, -0.008005703536476541, 0.020093813963273748, -0.0996130565397046, -0.10757286390041457, 0.020042251265523323, 0.02136249002184309, 0.06435753440580744, -0.01547720765984625, -0.006106253528475447, 0.00048567439788317656, -0.03413537497115255, -0.15256291470193564, -0.02637123335766553, -0.005962352283410397, -0.2820881799903941, 0.02366975445016849, 0.09321195650186158, 0.08250755024818823, -0.0076735066050196915, 0.06716634098850628, -0.06443861229779127, -0.12677441871143058, -0.0428710561598116, 0.16258843659531405, -0.09773728169168146, -0.07411090297619145, -0.012319507632179833, -0.26766832732023504, 0.04824620231159479, 0.16001499123124382, 0.09024091759613541, 0.20956619016340414, -0.13422837810292848, 0.2542087708775455, 0.027035651799606646, -0.0390861821087679, 0.016846679398884137, -0.09087654751970492, 0.006979724310119709, 0.12608707826933402, 0.12237939074514491, 0.11721505355015092, -0.07394953220197018, 0.04167875017513919, -0.23892730769194245, -0.07111243557994341, -0.026290565050181097, -9.392694351082792e-05, -0.12626292837588218, 0.11988787793674267, -0.21899436749203657, -0.07221791348366105, 0.045419496195756116, 0.08789998029079138, 0.0365929411748016, -0.032275324785322225, 0.08233531759324912, 0.08186637537907049, -0.12859673280030018, -0.0737150365970085, -0.13753909453838817, 0.038017946679354014, -0.03069889409088147, 0.07617614575639185, 0.012750694541147354, 0.019223753942538384, -0.06945623936979385, -0.17974875210498764, 0.029768221213467262, 0.08011638287411763, -0.0381917332117229, 0.08092076509739178, -0.028317333839519735, -0.008202645528150542, -0.15426741441139538, -0.05987262955675828, -0.036317101678940415, -0.1097201375051915, 0.07308236300877814, -0.21574218458736122, -0.12315125644439857], [0.016959888812446706, -0.04604787877761682, 0.041363905095130604, 0.013043517236213904, -0.14814471791481482, 0.013245387389077518, -0.0027638580361242734, -0.001597843911748093, -0.21126351557353015, 0.03334096234946802, -0.06128342369765191, -0.10429944319598708, -0.05302702097531574, 0.016123391290369316, 0.28698805106719855, 0.09866641553299973, 0.0017214387442791262, -0.014355782834687676, -0.07850954545618029, 0.16116228269346336, -0.1002060330816038, -0.0971322899228571, -0.04002483056703827, -0.04489292348782457, -0.004799166231485803, -0.05819033636556035, -0.11343807362131235, 0.10725185840693699, -0.0538221024033002, -0.10181247405540124, 0.004061978889047078, 0.25580055122141504, -0.006159098859087592, 0.05491724300306733, -0.09977521491602066, -0.051093569104228354, 0.026120851312473086, -0.046167442512102363, -0.14027597642079243, -0.07911531649351333, -0.015270720526803809, -0.09583167243528189, 0.1334623304489919, -0.16237914800807904, -0.10583942993299919, 0.023265890715335826, -0.20985078516865716, 0.014981099246039702, -0.1155905411993569, -0.11416957389072196, -0.023633750430007115, 0.07120072467216199, -0.024370001770831432, 0.06935289662105412, -0.08734052039696259, -0.021725352319012764, 0.02302627630174567, -0.16615070901237355, -0.089453776478465, 0.21123467565628437, 0.083227645602162, -0.11652342578104002, 0.19830824370884106, -0.12276450603430243, 0.011834261376801934, 0.016889929354274868, 0.11881960929653171, 0.038161970919160945, 0.06347603777186663, -0.07547962521252008, 0.05313522857820094, 0.004277539705181539, 0.02721560193407732, -0.015760925640399527, -0.16909222123704842, 0.037686987012173406, -0.07102627007485998, -0.0320770514182542, 0.02085113090256008, 0.05415235068342237, 0.054521136361155985, 0.05578893479301457, -0.12653708776554445, -0.15708470356350956, -0.031026720852902288, -0.020361920761537193, -0.025433208669629302, -0.07737888656773965, -0.03636089354963155, -0.0005408607134651437, 0.07165841532503213, 0.09366047393287348, -0.10595547864953635, -0.10963840249308089, -0.24822179493075205, 0.03624780519583157, 0.02778423815730034, 0.03202264540649158, -0.02181396949104043, -0.11018911357238396], [-0.015699161026991964, 0.05019562550137126, -0.024454483952854315, 0.055869576479357676, -0.012364442242308489, -0.13757954383526713, -0.02640806991128174, -0.07529570707864539, -0.07341681067247278, -0.04597376524793182, -0.036924259536669155, -0.2380059542319437, 0.029277737662398738, -0.004888601072807785, 0.0873142521567471, 0.0014689588726312694, -0.1300926857778529, -0.15885070101964732, -0.0060369306527043275, -0.0021793760873322276, -0.07202257095837818, -0.02606718689062982, 0.0843691206712404, 0.04049630723916305, 0.10615795918113033, -0.01560515903145155, -0.15450522704438788, 0.07470170921391703, 0.0072639692628988966, 0.15373960549490595, -0.05470400874109744, 0.08602061427676104, -0.0272334158276314, 0.042839602490523064, 0.08217618070981345, 0.0358038606504906, 0.007424950441645645, 0.03759504773158276, -0.13853877909887571, 0.07265927922755885, -0.011594531122905389, 0.03127919832515352, 0.0006731703931736367, -0.06413496825562322, 0.014040527875160446, -0.1675405413939808, 0.14457112555878104, -0.1255040371100963, 0.16653935901038028, 0.1803478125936511, 0.12474625533803885, -0.24513631751905765, -0.17675113909195614, -0.1008469082918628, 0.07387336046201995, -0.06167878565036694, 0.08369156117460011, 0.10951226730379131, 0.015409001189863873, -0.025358905406137236, 0.1254750242053884, -0.1920683698520602, 0.024455831257920734, -0.06600132157470258, -0.018535542727180578, 0.020058896514775562, 0.1117504527365264, 0.13945255921166005, 0.16610125662408776, 0.09377189133027557, 0.06758405031035476, -0.10992869413122679, -0.10501098012381876, -0.009832150208821075, -0.41109199003756225, 0.11567999663572659, -0.0630552876496055, -0.021406270367063152, -0.030593607779868224, -0.05004269269578143, -0.023876822782087342, -0.11798275136029228, -0.12383636650369506, 0.010812553007828195, 0.11268386764397917, 0.03505742466423174, 0.06443381856057631, 0.10680418575580733, -0.019026730289631432, -0.0534256637771666, 0.16112715090299914, -0.1573117403429308, 0.06708336796262065, 0.011143675051799818, -0.025050126167520975, -0.10151648947605246, 0.016440718278807224, 0.08032241617207234, -0.0008435109318443471, 0.02282110285194274], [0.05542715890565893, 0.15356188432918935, -0.09038514274914061, 0.1219177747329214, 0.06664194965622666, -0.0818746824584491, 0.1312584685632393, 0.02826785918557102, -0.031177633229363445, -0.046848947430731126, 0.13122567418414124, 0.04709185234611349, 0.1112897550355385, 0.08850073312969386, -0.2241354699075749, 0.06543027277630063, -0.009457932946666296, 0.12831111023156105, 0.21662530667370833, -0.10398802842999041, -0.1812779516251651, 0.14270070538274354, -0.030378054424923858, -0.0637295499822611, -0.003321161693721192, 0.021665205769955165, 0.11263514602700272, -0.076385693039821, 0.22950500906740637, -0.12774097386735625, 0.009120776152812544, 0.09277970690566296, 0.24237613912141093, -0.08121800144305502, 0.03023083331779048, -0.04476478668380701, 0.06228239557255176, 0.06686472233487255, 0.14208506598283288, -0.028228761215573304, -0.0574326307144047, -0.032646420858410956, 0.02302045704546706, 0.0288165565592474, 0.01133308796231244, 0.014231312160094848, -0.08523737008659367, 0.0320722698662299, -0.09144901773843117, -0.09467071654461552, 0.023951002798576922, -0.02451361844555294, -0.05252029956215623, 0.03513792550549067, 0.05368988036240645, -0.08682586221623839, -0.037211613112275235, 0.043962093335905596, -0.014903610115069117, 0.044360010081899395, 0.05769856294526224, 0.152839268020111, -0.24553424635317075, 0.039885939125978404, 0.030389656566456282, -0.2268235143456676, 0.0060155955489005365, -0.002020409437646058, -0.055074271460736506, -0.08683557311926073, -0.11124802527120846, -0.14209913630597715, -0.12422208269692546, 0.043692617488574934, 0.023365448947855798, -0.04561473509562905, 0.10283558200841143, -0.15813676426169787, -0.032687371424342776, -0.0454938048089024, -0.027278244424733818, 0.11820712318064204, 0.26414462428414187, -0.04916335482410214, -0.014624998702255896, -0.021677907814880243, -0.046306506775869845, 0.06272572243827741, 0.09872280917964847, -0.12465462652050316, 0.1466578575065362, 0.10114874379321397, 0.0452496543813939, -0.10208087288235851, 0.031537558638473635, 0.10934172166189739, 0.12880565098439298, -0.014260183410197528, 0.16536591703799772, -0.15400090014399173], [-0.018965583723016245, -0.07146758893355598, -0.009448547561052593, -0.0011400144832026662, -0.043435201650884846, -0.0014149944714858707, -0.09071085753710333, -0.04638698913140102, 0.18548087527919446, -0.026706525567659126, 0.05132259339838258, 0.1852005202395584, 0.14999254475814913, -0.09650220156536167, -0.10679938583248529, 0.010594277305568838, -0.0941558873737513, -0.033877078792371264, -0.02190020482301943, 0.09793032849971803, 0.0018072064573678894, 0.0711200662306314, -0.21664684802551065, -0.1625955095929212, 0.005974238479795614, 0.047267727004772254, 0.10649069240261552, 0.19871380067264735, 0.11642518432487896, 0.09721419685639064, -0.0133730026238982, -0.023089543032796707, 0.0031427336158203023, 0.04828376826280402, -0.002736926269360562, 0.009937899237407042, 0.11781063587183792, -0.10200135220622089, -0.2270729906782151, 0.05030859874511209, -0.22223944628803896, -0.14790903333988184, -0.06685674324810621, -0.1273485882295285, -0.0695067351492083, 0.12632891277598995, 0.013072672058949063, -0.10113314286684255, 0.15309395882292415, -0.08598667294964017, 0.030439750365715237, -0.21766368117641263, -0.0454456399661768, 0.13868761689472806, -0.015610199910865062, 0.007118639483598954, 0.10907318930639132, -0.07286783133425469, 0.06671540290853105, -0.07986263748534897, 0.08480100487694735, -0.05202401451339895, -0.06492553170568659, 0.08831801550114043, 0.020428359345182237, -0.0073876902423522925, 0.041630279868810065, 0.07695800366755845, -0.276232090930274, -0.31878826559413187, -0.13677553617324978, 0.060087391251105494, 0.14117968588577212, 0.04367442950568174, 0.11813093140749356, 0.03702112611610162, -0.10314265673019203, 0.09111571365597629, -0.03921233162732489, -0.12305932155734547, -0.1328259916814693, 0.020834297137062564, -0.17919136054787685, -0.2597232435048115, -0.1452590086558187, 0.08265882119030832, -0.09255866978649613, -0.21694546410249302, 0.04086470671114761, 0.090324995719449, 0.0658781267467682, 0.025761454835053262, 0.02715129215960708, -0.14034149189723835, -0.05685043861118534, -0.12796970155575516, -0.08398447125254996, 0.17180103626996465, -0.08976045551862866, -0.04549788826480412], [-0.033794809414387825, -0.15743979863146815, -0.08776745913233726, 0.05013895334935855, 0.08093663477092662, -0.09449273903094524, 0.028362950508943458, -0.05599349856400744, -0.038252671896459534, 0.04885238000604674, -0.23538748933418616, 0.09729912095302337, -0.04804442378033967, -0.01673307528308489, -0.019217020983094166, -0.027966903926443236, 0.012293516264199457, -0.009102678583433162, -0.010734318570399517, -0.04851864707916121, -0.002069259212501442, 0.016227817352331027, -0.03387790692985608, -0.3475683025258038, 0.10423817584843882, 0.05347319742113672, 0.059701681766055635, 0.03190748104505715, 0.029275327805582868, -0.15738036417798104, 0.08960708961788338, -0.15895695021545114, 0.08276991934768532, 0.00937234341351215, 0.16932514637649315, 0.006960904556594581, -0.07496008226172975, -0.14179375907554156, 0.13566894796467613, -0.04014297525558156, 0.10790436182658762, -0.07812085215330956, 0.01139517813744313, -0.030600898069375174, -0.030245710605205436, 0.14704780750925375, -0.08275047425906416, -0.013398540924560665, 0.12109731329342592, -0.032361878060345135, -0.04738429460091979, -0.1211988673420598, 0.02810995923072008, 0.025984232868072606, -0.002884223632717067, 0.03889939567076022, 0.005897712260566124, 0.14811730920582927, -0.10272546496229307, -0.007776624068609874, -0.07947151451892638, 0.09918795423802988, -0.027125242436731724, 0.05684117591267136, 0.06155128788104923, -0.04223606917167324, 0.03854697694673665, -0.06324234922103733, -0.010116156379852833, -0.1106872718118898, 0.04224004168587877, 0.15065306166779033, 0.009229803404314172, -0.03520258475618627, -0.023047354345050203, 0.024131437731303756, 0.06808107927699891, -0.0921589076963827, -0.020591662593696727, -0.07658881920196263, 0.04904972737284509, -0.13967390526231593, 0.014622722829034068, 0.1524099678194889, -0.16271826007447582, 0.088303611402948, 0.08151242109270317, 0.18255806622954202, 0.06044421241969665, -0.03188927904597607, -0.12329263568018638, 0.13491976654705665, 0.04901875958556148, -0.19436976479781798, 0.09640462453294324, 0.03525940229884369, -0.157329582261775, 0.2350464120058557, -0.057472146313854264, 0.035055549796709315], [-0.25031096431532324, 0.02026375014816354, -0.10205632841355658, -0.01736048852799369, -0.12851723587896122, -0.08834751778193185, 0.016460853429732674, -0.11624926858079135, -0.10064317905718033, -0.01310222527820151, 0.02885234369543279, 0.07761630853274606, 0.037199630316837005, 0.014680781588719017, 0.037869282636145446, -0.09591898158516692, 0.15957352959498822, 0.25861448401188475, -0.04362934139185177, 0.13625271067050773, 0.010684302624133241, 0.0653195053140968, -0.0630224426596836, -0.03775813718688314, 0.040523010404339255, 0.1656151555580534, 0.05972602114232508, 0.1151615354932309, -0.08736225370628473, -0.029036706849475506, 0.052169117446040025, 0.0024359868172665, -0.030452369422283684, -0.010651217236091935, -0.07899868844026246, 0.03915658423205156, 0.06562933424695801, -0.11401631287009015, 0.17237566711198768, -0.04011622012789801, -0.18514928049205612, -0.025985249631660736, 0.17748820712297647, -0.07056911889868413, 0.08351551999288066, 0.11173010963240808, -0.06456754134699881, -0.1186344546056093, -0.053642546885406574, -0.013439796153374197, 0.12178226384443565, 0.09002357574508484, -0.1450638883957627, 0.03047834575554351, 0.08687401081705712, 0.12979271903343215, -0.0029616349945154542, 0.0895756409074688, -0.17010493273504038, 0.09413567612532091, 0.0006022170712262844, -0.0587039570603783, 0.04902945345589904, 0.02597960373569695, -0.12927700256481728, 0.054186268080679, -0.16840784651366827, -0.08668513051706876, -0.0978121046639609, -0.13948174088984064, -0.013146114314917601, -0.017230367383993833, -0.1954659078432545, 0.028585706173377422, -0.08102071121114714, -0.16500135104703287, -0.003035313076999193, -0.012145538981262291, 0.024080717386617278, -0.015758618562624997, 0.03635308679933666, -0.016146128928785752, -0.04000522958625767, 0.150615251973468, -0.10217136561093168, -0.0851511385052776, 0.03375430106219681, -0.004101677983711759, -0.13035860137706232, -0.08305520522996007, 0.028406123310623952, -0.030160714644671637, -0.053579240270409396, -0.09588228091551242, 0.022285956283001847, -0.14735079398820305, -0.03218681161335964, 0.024382632889516625, 0.13096785925630938, -0.030565860376330432], [0.057996135613247395, -0.03922013353043911, -0.2404800628276909, -0.09806804279173972, 0.07906559802920576, -0.021976057506476132, 0.015133104347796012, -0.133707469995168, 0.012702674842151294, -0.00205797185604911, 0.03728230560422687, 0.035610282009079994, 0.01679534761470299, -0.1656195011538283, -0.07877805754748508, -0.07545716387438751, -0.021728007623132848, -0.014271682082133577, 0.05158321805316118, 0.10947478087814591, 0.0766032052448234, 0.27722552913050286, 0.07201504033164287, 0.05159831451198115, 0.01611854057649004, -0.002635045024650457, -0.08097977911223092, 0.04170634601427149, 0.018968852185823074, 0.0028840308112123695, 0.06550567457036967, -0.14290441670880127, 0.13387123367671727, -0.09509842656279653, 0.04342845109049174, 0.08590500232512382, -0.08709294820614746, 0.0826889232233417, 0.1684217002587668, -0.15815002082006718, -0.10741230240506197, 0.08709244276646362, 0.010949184298031855, -0.018772494768460848, 0.12248573548657556, 0.013392622843053082, -0.008534681665260146, -0.0231837514090348, -0.05721541724109124, 0.1531799185720375, 0.0025961449042597538, 0.27426208253433604, 0.002373630515815398, 0.049449452311688374, -0.010006184287179776, -0.1296237476666377, -0.11729417529416553, -0.04025297906581679, -0.06866536165113112, -0.014141955297962588, 0.10063538135249832, -0.09667166789351618, 0.084947104351617, -0.10298200272366115, 0.0005339074284218091, 0.06431175109170378, 0.037116000861841025, -0.0823612353779117, 0.06531466300032569, 0.03332146909063835, -0.09361130531610293, 0.11967983602748301, -0.15331056841185228, 0.06873144949186157, -0.07536277707726559, -0.09161132204635714, -0.08676179555272401, -0.13785364407063186, -0.02647247449089953, -0.14596744876504777, -0.06545306341518994, 0.065059352556217, -0.024876625435629067, -0.04270559018457483, 0.09906441180714885, 0.12794345626762965, 0.13978512702783172, 0.24101126534349132, 0.03784605544071568, -0.13843487707342028, 0.019667321384414318, 0.25121171398411957, -0.061751823694474545, 0.09546821548785105, -0.008823071852972895, -0.18618609420633814, 0.02398183694468993, -0.01405706480712542, 0.048913655494980675, -0.00883003845112574], [-0.07524985477824007, 0.008847057332197553, -0.02465795170341024, -0.24213776282968247, 0.2615723413780603, 0.08052443968649156, -0.13536901729767453, 0.13584776150976452, -0.13970300267245944, -0.0688076436343321, -0.009561354009053195, 0.2552452048589139, 0.03623208367860491, 0.12050344086571746, -0.14078445812932697, 0.05191983256461304, -0.06963629939978605, 0.1991337259752799, -0.07018586093423462, -0.0946079863450377, 0.260337615329894, -0.020701334022981913, 0.13436888367913422, -0.0025627357678026444, -0.2163984627724372, 0.02149163771129451, 0.02340352855874038, 0.0384213572606698, 0.09203446736059895, -0.0619804052649832, 0.1982987282703518, 0.14031652491719648, -0.01878469000974165, -0.1415652799495427, 0.03104939458401048, -0.042194162314084176, 0.15683831991805972, -0.10869025935164986, -0.005321220386517865, 0.054606440927107945, 0.06371693141257767, 0.013598244074819698, 0.018848473882718215, 0.05299895851316816, -0.07965154342385733, -0.03006414046977465, -0.020956614269612345, 0.04516698255843203, -0.16549931776173413, -0.07658108549683827, 0.01863316003289176, -0.028485435413119202, -0.010173330256333013, -0.09210587378353607, -0.07219904733365681, -0.1332116688261442, -0.015040777067787987, -0.1331684338913258, -0.04740378769910339, -0.03651229620335761, -0.08566105064233069, 0.06446635497269987, -0.05613457297597697, -0.023291366748598316, -0.12792212799737596, -0.015381503679917547, 0.10974704621002912, 0.10561913860678543, -0.11089909480216206, -0.19865502904547505, 0.09571956820113446, 0.13085688282575558, 0.22382102700328413, -0.1680925311239213, -0.09519525365108047, 0.061973515805695656, -0.05129760878620766, -0.1177137263860909, -0.09172955547770412, -0.0288004524211211, -0.11538547884104625, 0.10585342313470975, 0.05146468923860079, 0.019839825479065973, 0.048699695386265444, -0.12021375670623777, 0.05566638354652103, 0.013068248811591658, 0.21288867226793606, 0.11664306227640675, 0.11145922825348688, 0.0520847706373884, 0.12529484820783693, -0.06527617170941692, 0.1359030465858444, -0.016631752060081648, 0.05278015619977533, 0.04057306651752616, 0.04069255400139063, -0.09378164298718393], [-0.0333800341236438, -0.020110790568892173, -0.038590742649941036, 0.10804738246343344, 0.04462222859432278, -0.005333898935484133, -0.02476347526642139, -0.08326181364836237, 0.06292545313739073, -0.2035325116585826, -0.1526708205589659, 0.08488508203367412, 0.0573992179421179, 0.022130633368001133, 0.049410598232103836, 0.24039846421414382, -0.07799070249825597, 0.09940102080024293, -0.15222589652435567, -0.009045924055625772, 0.01971926569140841, -0.10033331131028465, 0.020872736271534565, -0.14679336947701768, -0.22355679102856818, -0.07173403255268565, -0.09978245219680021, -0.10199881714027775, 0.0709145935535234, -0.12669066007960544, 0.07112313783784543, 0.10258130175015585, 0.06352346688028171, 0.14682867210474515, 0.03141386256544593, 0.09359252123281714, -0.06927642216648781, 0.14211504675582456, 0.06292884908577319, -0.036356769485473055, -0.12993809765045933, 0.14093326539434434, 0.13603974075818154, -0.058597879867918215, -0.10579866804368991, 0.06725918575025046, 0.03751746002131872, -0.0955061636130784, -0.039492687222670686, 0.09734211081444907, -0.00019088290741359852, -0.05707008909338867, 0.016611105783511017, 0.04489802907295024, -0.16578626428556428, -0.1260360731207756, 0.03882200638742823, 0.038478804372153425, -0.12387844292206601, -0.04954121252497639, -0.08815532130505314, -0.05190445899711753, -0.03688666278468879, 0.005465317941932213, 0.07179553983562798, -0.09096413905524256, -0.025578666380790916, -0.10502464741292478, -0.03207168075742504, 0.014869338494649468, -0.15049573941635358, 0.21463477071781337, -0.06876901364514174, 0.01279471931110123, 0.022190854451171204, -0.05473970688358623, 0.04601290671630463, 0.03834596969521045, -0.11253391773533096, 0.34631753482383765, -0.0960229965815144, 0.05004661787888815, -0.0738381990294007, -0.07431259920847899, -0.09539404257158536, 0.08890588904840716, 0.1413737235298525, 0.034490590403736754, -0.044662114175480765, -0.07982832013532869, -0.1641404225992097, 0.10879528270982101, 0.0664369773944125, 0.08464532785104856, 0.07989210236021752, -0.055726257511416535, 0.03770685396887763, 0.0394651370590896, -0.02457011204770767, -0.04678471007980952], [0.033637604329851786, 0.028970508387754303, -0.057781976536472844, 0.03520938632801378, -0.09853482744125436, -0.08323317349607151, -0.0015010298519669452, -0.08941933736817176, 0.07187892665375457, -0.03970771334194607, 0.04900936545133348, 0.03446029782662185, -0.015210201751306824, -0.12084477328084961, 0.06356481080171714, 0.066667844757578, -0.17209528474283836, 0.10848850183649109, 0.15735537875480113, -0.0322267948281656, 0.0646261296977208, -0.21347575117626252, -0.08800897017013642, -0.0531435286446533, 0.2783415120869334, -0.009272214964545802, 0.08777305040250301, 0.022205338553308005, 0.06753829537206513, 0.047504267087220414, -0.028057867754323777, 0.22462072195485777, 0.01615918582852282, 0.015115217847189999, -0.02591658521660334, -0.11622249243641611, -0.09166526574762422, -0.06268373526604816, -0.07781406853707691, -0.050755341053643835, 0.10099159817091524, -0.08241256757433184, 0.05539237078284049, 0.11016510512249945, -0.11429703359992935, -0.02016256080593532, 0.056572476663289566, -0.13628181909602327, 0.12766611918221357, 0.10986238566656344, 0.08276754654952843, -0.009068355739289454, 0.022169277656185468, 0.04166016441850452, -0.022192410007758564, -0.08038243525817318, 0.07761550501626613, -0.10194197096434383, 0.011811615345372856, -0.08373771407358753, -0.18622180581007985, 0.05273105004184563, -0.06837747077217057, -0.008330532258089504, -0.129517124568934, -0.011450712543672418, -0.06829395657236852, -0.0441093938083384, 0.10122807550975983, -0.045083411075743464, 0.2529623314642376, 0.008049548740461682, 0.037321550827386744, -0.018041456648262115, -0.048700810929881114, 0.2215838007618052, -0.03247101727384578, -0.10748579396005667, -0.208400289057996, -0.04366706524692686, 0.0756749395328005, 0.08790429500107837, -0.021943947568420923, -0.08252312751037404, -0.11201120642684262, 0.21495732711277638, 0.07649597661334478, -0.0576146917302526, 0.03212637217782183, 0.12068605890236003, 0.023168302821289247, 0.01888963334220654, 0.04943070023593064, -0.02136883165969022, -0.13292779350753609, 0.019161283429472764, -0.1971783933063629, -0.1347700238491216, -0.11357365498534697, 0.08637075743912], [0.08084821850108026, -0.07894817664484959, 0.08568810725264048, -0.019141426993071777, -0.023553244221224796, -0.09942694673665593, -0.0916974107055485, 